nep4 2 Au Cu 
cutoff 4 4 6 6
n_max 2 1
basis_size 12 12
l_max 4 0 0
ANN 2 0
 -1.1152474e+00
  3.0590728e-01
 -1.7423090e-01
  3.4287799e-02
 -5.0455946e-01
 -3.9713457e-03
  3.5980426e-02
 -2.2953957e-01
  3.8152698e-01
  2.8267317e-03
 -3.5631545e-02
 -5.2416497e-03
  5.3838867e-04
  8.2199268e-02
 -2.7542990e-01
  5.7410949e-01
 -2.3763120e-02
 -1.1146213e-01
  5.5396122e-01
 -5.6706321e-01
 -3.0960160e-01
 -3.8084152e-01
 -5.5119729e-01
 -1.3431437e+00
  3.6888134e-01
  5.4023784e-01
 -1.9433830e-02
 -4.0805191e-02
  3.2516319e-01
 -2.9478344e-01
  1.2016036e-02
  3.8285807e-02
 -5.1141119e-01
 -4.3861294e-01
  1.6189103e-01
 -6.4284420e-01
  7.6958436e-01
 -4.7155532e-01
 -1.0893299e-01
 -9.6754450e-01
 -7.5136542e-02
 -1.0605952e+00
  7.5209725e-01
 -2.3776852e-01
  1.7602161e-01
 -1.4141058e+00
 -1.0853153e-01
 -5.7844085e-01
 -4.1423514e-01
 -3.7396756e-01
  1.4584190e-01
  3.3818357e-02
 -2.2920456e+00
  2.9078007e-02
  1.0739139e-01
  1.0669835e-01
  1.2455435e-01
  5.9925340e-02
 -3.8403720e-01
  1.7299347e-01
  2.4954920e-01
  5.7816881e-01
  1.8005760e-01
 -4.7626716e-01
 -2.1176927e-02
 -9.1869995e-02
 -7.1486771e-01
  1.6710782e-01
 -3.0135059e-01
  3.8735554e-01
  1.0741517e-01
 -7.8843403e-01
 -3.3386707e-01
  3.3937860e-01
  1.2617703e-01
  4.2660677e-01
  2.5782861e-02
  4.0353060e-01
 -1.3011287e-01
 -1.3164541e-01
  9.0312344e-01
  7.4738115e-02
 -2.3595668e-01
 -1.4425093e-01
  4.4225919e-01
 -4.3803871e-02
 -3.9928478e-01
  4.4212016e-01
  2.1880338e-01
  2.9078823e-01
 -5.0950760e-01
 -4.0385619e-01
 -1.1807591e-01
  1.4656188e-01
 -2.8782099e-01
  1.3811165e-01
  3.7771094e-01
 -8.4461749e-01
  2.2757626e-01
  4.5688897e-02
 -8.6040914e-02
 -9.8831242e-01
  8.8348381e-02
  4.7544357e-01
 -3.3792791e-01
  9.0098178e-01
 -6.6262923e-02
 -2.5813180e-01
  4.6945101e-01
  1.6381125e-01
 -5.4587379e-02
  1.6828470e-02
 -4.9302951e-03
 -4.3470967e-01
  7.9192847e-02
 -1.1762120e-02
  9.0418696e-02
 -4.9290296e-02
 -1.1002681e+00
  1.3946237e-01
  2.2729427e-01
 -8.1153959e-01
  4.7884208e-01
  1.8384087e-01
  5.8807623e-01
 -1.7027648e-01
 -3.6667496e-02
  4.5952693e-01
 -6.1451936e-01
  4.2661831e-01
  2.7212986e-01
  2.8806764e-01
  1.0741732e-01
 -2.5685847e-01
  7.8016841e-01
 -1.6786771e-01
  4.7364357e-01
  4.4796097e-01
 -9.1037251e-02
  1.2084122e-01
  1.7847699e-01
  8.0372244e-03
 -1.2528372e-01
 -6.1167888e-02
 -1.1663688e+00
 -5.8641523e-01
  2.0693645e-01
 -8.5681903e-01
 -3.9577389e-01
 -1.4831702e-01
 -1.3968953e-01
  4.8999470e-01
  6.0592201e-02
  1.9730698e-01
 -4.9450472e-02
 -2.6767626e-01
 -3.9416495e-01
 -2.8022813e-02
  1.4064217e-01
 -9.5340586e-01
  1.6262686e-01
 -4.3901816e-01
  2.8783837e-01
 -4.0903457e-02
  1.0121725e-01
 -3.1547055e-01
 -2.4295366e-01
 -1.0289323e+00
 -3.5012954e-01
 -1.4800888e-01
 -3.7318546e-01
  3.2708347e-03
  5.4338187e-01
  9.7544208e-02
  6.0487920e-01
 -5.0793874e-01
  2.7247718e-01
  1.4962902e-02
  6.3862157e-01
 -1.1550114e-01
 -1.6953178e-02
 -1.8175717e-01
  1.3959101e-01
  3.9298490e-01
  4.8282748e-01
 -1.8515107e-01
 -1.0528752e+00
 -4.9115142e-01
 -1.6287342e-01
  1.4627879e+00
  1.0410460e-01
 -6.3436610e-01
  9.3203455e-01
  7.2116363e-01
 -9.5854300e-01
 -4.6113268e-02
 -8.2584900e-01
  4.5827645e-01
 -1.5195829e+00
  3.7738800e-01
  8.8552606e-01
 -1.0021030e+00
 -7.5207901e-01
  7.4380291e-01
  5.0314772e-01
  8.9206874e-02
  1.1417609e-01
  1.6010308e-01
 -1.2508842e-01
  1.0953064e-01
 -2.1599995e-01
  4.8955925e-02
 -3.8279951e-01
  5.5568643e-02
  8.7480284e-02
  1.9482623e-01
 -8.4506953e-01
  1.2959489e-01
  2.0049709e-01
 -2.4970710e-02
  2.8282955e-01
 -2.7013174e-01
 -9.1224557e-01
 -6.3674015e-01
 -4.3190780e-01
 -1.6494328e-01
  4.6405327e-01
 -3.1837070e-01
  4.9533954e-01
 -1.3700314e-01
 -9.6232377e-02
 -4.7985286e-01
  1.2262143e-01
  4.3955171e-01
 -3.7278587e-01
 -9.3082684e-01
 -6.3256547e-02
  6.9208783e-01
 -4.8776273e-02
 -2.6175869e-01
 -7.6015830e-01
  1.0396443e-02
 -2.6514870e-01
  2.5312248e-01
 -3.8016325e-01
 -4.9637672e-01
  4.2024517e-01
 -5.9512967e-01
  3.7058301e-02
 -4.8049493e-03
  4.5619056e-01
  6.7088246e-02
  5.4853372e-02
 -4.8210424e-01
 -1.9464773e-01
 -7.8528959e-01
 -7.0366514e-01
  1.0611382e-01
 -6.6207193e-02
  2.2843337e-01
  2.5904933e-01
  3.6086462e-02
 -2.3555392e-01
 -7.1576703e-01
  6.1800671e-01
 -4.2445794e-01
  6.8727329e-02
  3.1322581e-01
  2.9279867e-01
  2.1465102e-01
 -3.7907270e-01
 -4.1288629e-01
 -3.9632648e-02
 -4.4399559e-01
  1.3867290e-01
  3.2125536e-01
 -5.5645559e-02
 -5.0511783e-01
 -5.7681936e-01
  4.2208967e-01
 -1.1230560e-01
  4.7013843e-01
  4.2124625e-02
 -4.3443066e-01
  9.2396164e-01
 -3.3089903e-01
 -1.0080928e+00
  5.8402658e-01
  1.2537677e+00
  1.2455402e-01
 -2.7052950e-02
 -2.6367953e-01
  4.9198690e-01
  3.1802580e-01
  7.8355294e-01
 -4.3627071e-01
 -2.9223758e-01
  1.0768890e+00
  5.8325201e-01
  2.3453179e-01
  1.2865415e-01
  6.4696872e-01
 -6.5478432e-01
 -7.9106236e-01
 -2.4768254e-01
 -2.2626086e-01
  2.8176111e-01
  1.8734518e-01
 -3.1651849e-01
  4.0971264e-01
 -3.8614109e-01
  6.5884337e-02
 -6.9475996e-01
  4.7764858e+01
  4.7764858e+01
  4.7764858e+01
  1.1418105e+02
  1.1418105e+02
  8.9780109e+02
  8.9780109e+02
  2.4846363e+01
  2.4846363e+01
  4.8096508e+01
  4.8096508e+01
