nep4 2 Au Cu 
cutoff 4 4 6 6
n_max 2 1
basis_size 8 8
l_max 4 0 0
ANN 2 0
 -2.1838157e-01
  4.7621003e-01
 -1.6108668e-01
 -4.3673921e-01
  7.1642214e-01
 -2.2814512e-01
 -6.7060448e-02
  3.6642693e-02
  3.2390654e-01
  2.5095153e-01
  8.5051171e-02
 -1.3991708e-01
  1.8103245e-01
 -8.5054815e-01
 -5.3560928e-02
 -1.1841007e-01
  1.4351541e-01
 -1.3610225e-02
 -1.3232362e-01
  3.3016149e-02
 -6.5665269e-01
  1.1412060e-01
  2.7619004e-01
  6.2266207e-01
 -6.9832638e-02
  9.2708784e-01
  1.0122001e-04
 -5.4531079e-03
 -3.0192675e-02
 -3.7617382e-01
 -8.0977708e-02
  9.8028466e-02
 -8.6489171e-03
 -4.1414782e-01
 -3.3794470e-02
  5.2161664e-01
 -5.6147352e-03
 -1.6834117e-02
  2.8146872e-01
 -7.8163311e-02
  6.7371741e-02
  3.9612330e-02
 -4.8163694e-01
 -7.0010707e-02
 -1.7506710e-01
 -6.7965649e-02
  2.0799416e-01
 -4.3833110e-01
  7.2286111e-01
  4.7855685e-03
 -5.8210480e-01
  1.0979824e-01
 -1.9248861e+00
 -5.3193767e-02
  7.1152180e-02
 -3.2242993e-01
 -3.5329565e-01
 -6.3449687e-01
 -1.9835411e-01
  3.5871530e-01
  1.5425530e-01
 -1.5296406e-01
 -8.0237575e-02
 -8.3269410e-02
  4.2034048e-01
  1.8258679e-01
  4.0587533e-01
 -5.7828206e-01
 -1.8221991e-01
 -6.2041676e-01
  2.4739821e-03
  2.4082530e-03
  2.2512043e-01
  4.2725158e-01
 -4.6761036e-02
 -2.0810187e-02
  4.2301866e-01
 -7.7804685e-02
  1.6980622e-02
  1.5123761e-01
  4.6056211e-02
  2.7697157e-02
 -1.0489514e-01
  2.9362229e-01
 -2.1002904e-02
  7.0114814e-02
 -3.8712204e-02
 -3.2130742e-01
  1.9311616e-01
  6.0660487e-01
  5.1796172e-02
  7.9176001e-02
 -2.3691131e-01
 -9.9635683e-02
  4.3473476e-01
  1.6030373e-01
  5.0704652e-01
 -1.4808077e-01
  1.3601270e-01
  2.8974736e-01
 -3.9375055e-01
 -7.5639375e-02
 -2.3875144e-01
  6.0040254e-02
  2.5470632e-01
 -3.2886660e-01
  3.3130401e-01
  5.5596310e-01
 -2.0597598e-02
 -1.0244408e+00
 -2.0049354e-01
 -5.7611085e-02
 -7.2577119e-02
  3.1547016e-01
  2.1802835e-01
 -4.3968207e-01
  3.3389723e-01
  5.3790241e-02
 -2.2350013e-01
  5.3894669e-03
 -3.1606558e-01
  4.1240215e-01
  2.0323521e-01
 -4.6935093e-01
  4.6765515e-01
 -4.7250235e-01
 -1.9728310e-02
 -3.8084921e-01
  1.0647371e-01
  2.0690228e-01
 -9.9310689e-02
  4.6210349e-01
  7.4232258e-02
 -1.7075628e-01
 -7.6448172e-01
 -3.5126224e-01
 -5.2943654e-02
 -1.0746466e-01
  3.7522495e-01
  5.9338546e-01
 -5.9563160e-02
  4.5272261e-02
  2.5198418e-01
 -1.3533039e-01
  9.5078731e-01
  1.7534289e-01
  2.2898158e-01
 -4.1446421e-01
  1.9273072e-01
  5.2601814e-01
 -4.2888618e-01
  2.6923370e-01
 -2.0304996e-01
  3.7795961e-01
 -9.4414361e-02
 -6.9499075e-01
 -3.5442972e-01
  1.4952064e-01
 -2.1403688e-01
  3.2537210e-01
  5.5666208e-02
  2.4110132e-01
 -5.2402860e-01
 -2.6493621e-01
  1.9224453e-01
 -1.5707263e-01
 -4.2662284e-01
 -1.4318448e-02
 -8.8285640e-02
 -1.5892406e-01
 -6.3257635e-02
  2.1764026e-03
  1.0697037e-01
  1.8532394e-01
  3.0343398e-02
  3.8410577e-01
  1.0735203e-01
  1.2970932e-02
  2.1947107e-01
  6.1755478e-01
  3.2917555e-02
 -7.6445453e-03
  5.7219309e-01
 -3.9697245e-01
 -4.8032060e-02
  2.7856566e-03
  8.0273598e-02
 -3.9285207e-01
  3.2838684e-01
 -3.4081960e-01
  2.6418239e-01
  6.5308595e-01
  4.5038280e-01
 -4.5112550e-01
 -4.5881802e-01
  1.6223837e-01
  2.8595917e-02
 -2.1869822e-01
 -4.2369097e-02
  1.8211980e-01
 -2.5936386e-01
  1.8996207e-01
  2.9092482e-01
 -9.9922590e-02
 -5.3503856e-02
 -8.6210012e-02
 -1.9815122e-01
 -3.6936063e-01
 -8.2575269e-02
 -1.6542053e-01
 -3.3068138e-01
 -2.2547963e-01
  6.2872285e-01
  2.8414670e-02
  2.6428914e-01
  3.3372959e-01
 -1.0351862e-01
  1.0067995e-01
  2.5792861e-01
 -4.2342293e-01
 -3.0410311e-01
  1.3568604e-01
 -1.9002132e-01
 -6.0107064e-02
 -1.9113711e-01
 -5.7336581e-01
  1.8771467e-01
  1.9264147e-01
 -2.7017415e-02
  2.4991010e-01
 -2.9773402e-01
 -3.8348415e-01
 -3.8980332e-01
  1.0169119e+02
  1.0169119e+02
  1.0169119e+02
  2.6433987e+02
  2.6433987e+02
  3.0390906e+03
  3.0390906e+03
  5.4910160e+01
  5.4910160e+01
  1.7241264e+02
  1.7241264e+02
