nep3_polarizability 3 Ba Zr O 
cutoff 6 4 74 24
n_max 2 2
basis_size 12 12
l_max 4 0 0
ANN 10 0
 -7.2522354e-01
 -6.3817956e-02
 -6.8718064e-01
  2.7172822e-01
 -1.5706329e-01
 -1.7699699e-01
  1.3451760e+00
 -8.2389116e-02
 -1.9723964e+00
  7.7397084e-01
  3.7423065e-01
 -1.5784505e-01
  2.2916852e-01
  1.8263687e-01
  4.2191082e-01
  1.5221722e-01
  1.0076678e+00
 -1.6035259e-01
 -2.9880756e-01
  3.5263368e-01
  6.9958377e-01
  4.8990250e-01
  6.7747134e-01
 -2.0171742e-01
 -4.7823769e-06
 -2.0091042e-01
 -1.1262429e+00
 -7.7117984e-03
  9.6726537e-02
 -5.2564818e-01
  5.5038369e-01
 -2.4560106e-05
 -2.9774004e-04
  5.2230571e-06
  7.6835233e-05
  8.1489905e-04
  4.4040298e-06
  3.0088593e-05
  2.3848348e-04
  3.9391769e-05
 -4.9766382e-05
  1.3879691e-04
 -1.1445348e-04
 -2.1297510e-05
  9.1490792e-06
  3.5555610e-01
 -1.0770326e+00
 -2.7393305e-01
 -1.0950891e+00
 -1.5587582e-01
  2.9386708e-01
 -1.6332697e+00
  3.4286363e+00
  8.5546239e-04
 -6.8297607e-01
  1.8671693e-01
 -5.6937152e-01
 -4.2986035e-01
 -1.1015586e+00
 -5.2754486e-01
  4.4963959e-01
 -5.1983356e-01
  8.0432963e-01
  7.9104775e-01
  4.9707627e-01
 -1.9501692e-01
  7.0657027e-01
 -5.6768584e-01
  2.1721048e-02
 -4.7945443e-01
 -5.6448407e-03
 -1.9357280e-01
 -8.9070039e-05
 -2.5920120e-01
 -1.4117868e+00
 -2.2904767e-01
 -3.0625051e-01
  3.8797706e-01
  4.7939065e-01
  6.5831041e-01
  6.7338336e-01
  1.2649480e+00
  7.8417856e-01
  3.2776337e-02
  2.4479578e+00
 -2.2547486e-01
 -2.0105290e+00
 -2.5476673e-01
 -8.4792368e-02
 -8.7984109e-01
 -1.5957773e-01
  6.6995072e-01
 -1.0963148e+00
 -4.7920284e-01
 -5.8277357e-01
 -1.3973275e-01
  7.3114979e-01
 -7.8619167e-02
 -1.4765774e+00
 -6.0687459e-01
 -9.1196376e-01
  1.4265994e+00
 -4.2697870e-05
  2.9376030e-01
 -5.4580867e-01
 -1.9242819e-01
  1.4100753e-01
  2.8695577e-01
 -3.8029841e-01
 -6.5777570e-01
 -7.6758134e-01
  7.1892333e-01
  2.1657007e-02
  3.1981635e-01
 -5.5013530e-02
  8.1462383e-01
 -3.5143915e-01
 -4.2533982e-01
 -3.7692299e+00
 -2.4050839e-01
  1.1678088e-02
 -4.7213714e-05
 -9.6685544e-05
 -1.8520561e-05
  1.1205921e-04
 -7.1266759e-06
 -9.0737652e-05
 -1.4627342e-06
 -5.2874825e-06
 -1.5640864e-05
  1.8888313e-03
 -1.5315522e-06
 -1.1974449e-05
 -1.7833407e-05
  1.9297217e-05
  1.0384382e+00
 -1.2421443e+00
 -1.7128438e+00
  6.3415080e-01
  1.7144280e-02
  1.6177481e-01
  1.5655433e+00
  7.6900619e-01
  8.4121543e-01
  2.4018509e-02
 -1.1636119e-03
  1.9541871e-02
 -3.1494299e-01
  1.2585882e+00
 -8.8563716e-01
  1.4093633e-01
  6.8045425e-01
  2.1776730e-05
  7.8966796e-01
  2.9245710e+00
  3.1059105e-03
 -9.1150188e-01
  6.6319495e-01
  1.4889441e-04
  5.9536493e-01
  2.5942546e-01
  3.0975142e-01
  1.4404207e-02
 -2.2803868e-01
  1.2126396e-01
  7.8896560e-02
 -5.7529237e-02
 -4.9897543e-01
 -7.0873746e-03
  4.3772435e-01
 -9.7080119e-05
  8.9832658e-01
  8.2135248e-01
  3.6159599e-01
 -1.2263642e-01
 -5.6627417e-01
  7.6505327e-01
 -2.3862889e-01
 -1.0728303e-04
  1.2962962e-05
 -2.1078099e-02
 -2.1841591e-04
 -1.7032908e-04
  6.6392139e-02
  1.2148918e-01
  4.9207604e-01
 -8.2443999e-03
  6.6526139e-01
 -1.6895373e-04
 -5.0351711e-05
 -6.8324047e-01
  3.9641789e-01
  1.7880153e-05
 -1.6161899e-05
 -2.4026564e-01
  6.2806532e-05
  2.4953897e-01
 -2.5012216e-01
  1.1510053e-04
  8.9832727e-05
  9.2225844e-01
 -2.2579599e-02
 -5.1452774e-01
  3.1078746e+00
  1.6360231e-05
 -2.7476135e-01
  2.3092446e-01
  1.1549260e-02
  2.0168467e+00
 -1.3775651e-02
  8.1214495e-04
 -3.9537513e-01
  1.6189466e-01
 -4.6089066e-05
  2.2477906e+00
 -9.0656328e-01
  1.3241853e+00
  2.4250865e-01
 -2.3748942e-01
  6.8831861e-01
 -3.6166273e-02
 -1.3346996e+00
 -4.2494607e-01
 -2.3170943e+00
 -7.4676385e+00
 -2.9236743e-01
 -6.9345349e-01
  9.1030103e-01
  1.0570117e-01
 -7.6270664e-01
 -3.9102837e-01
 -8.3613783e-01
 -3.8619485e-01
 -8.4803132e-03
  6.2301308e-01
  3.7731928e-01
 -7.0395648e-01
 -1.8419594e-01
 -1.1183836e-05
 -2.7500191e-01
  5.9120548e-01
  9.9244989e-02
  2.2300078e-01
 -6.4219779e-04
 -6.7706562e-05
 -1.8923759e-01
 -1.1010405e+00
  7.1031943e-02
  2.5321127e-04
 -1.0642103e-05
  3.1844220e-01
  2.4301435e-05
 -1.6269855e-04
 -2.3404755e-05
 -6.4556545e-05
  4.1757411e-04
  2.2276450e-02
  1.2064033e-05
 -8.4353349e-05
 -1.6615530e-05
 -2.6401684e-01
 -9.3041706e-01
 -6.7664105e-01
  4.1435313e+00
  1.0283599e-02
 -5.6179601e-01
  1.2545975e+00
 -7.2357863e-02
  3.1799796e+00
  1.2218777e-05
  2.4214448e-01
  6.2651211e-01
  2.3929881e-02
  4.5944944e-06
 -3.6175257e-01
 -8.8361275e-01
  3.1945041e-01
 -6.6226554e-01
  3.4709050e-05
 -4.8161895e-05
 -2.0920983e-04
 -1.9068702e-04
  5.5695218e-06
  7.6524564e-05
 -5.1508232e-06
  1.4982137e-05
 -4.9673814e-02
 -2.9733394e-05
  6.2828345e-05
  3.7020953e-05
  1.0527683e-01
  3.3543921e-01
  3.3324447e-01
  3.1752589e-01
 -3.0403268e-01
 -2.1854241e+00
  1.6260025e-01
 -5.7256657e-01
  3.6169881e-01
  1.3697287e+00
 -2.6290959e-01
 -1.8019401e-01
  6.9192713e-01
  2.2027293e-01
 -9.8046064e-01
 -4.5800713e-01
  8.7421611e-02
 -6.4235121e-01
 -5.1339477e-01
  3.2797170e-01
 -1.0951999e+00
  1.4358543e-01
 -4.4166796e-02
  1.9827716e-02
  2.5430669e-05
 -1.0619358e-04
 -2.8312925e-01
 -8.8936169e-05
  3.2452543e-05
 -4.0966687e-01
  9.6581930e-01
 -1.5561289e+00
  1.3832006e+00
  9.9227136e-01
  8.5432333e-01
  1.1659268e+00
 -2.3629190e-01
 -3.9084929e-01
 -2.4458462e-01
 -4.7868600e-01
 -6.3121927e-01
  7.7532250e-01
 -3.7963682e-01
 -3.0545795e-01
 -2.7218801e-01
 -1.4323602e+00
 -4.8792279e-01
  1.0094944e-01
  3.6903098e-01
  1.3157800e-01
  1.0379266e+00
 -7.9688913e-01
 -3.2957636e-03
  1.8215795e-01
  1.6652973e+00
 -1.3442073e+00
 -6.3490659e-01
  2.0610440e+00
  4.7787493e-01
  3.4397709e-01
  1.9276601e+00
 -1.7644556e-05
 -1.0341113e-04
 -1.1783990e-04
  9.3347371e-05
  1.1872136e-04
 -4.6760120e-05
  9.1489028e-06
  1.7414586e-01
  5.2310075e-05
 -6.6719041e-04
 -6.0371464e-01
  2.0161073e-01
 -6.7356008e-01
 -1.7403586e-01
 -2.1145623e+00
 -9.0799469e-05
  2.3771139e-05
  5.9417588e-01
 -3.9535439e-06
 -1.2911293e-01
  5.0304402e-02
 -4.5717093e-01
  3.0448964e-06
 -7.3571479e-01
  4.6358609e-01
  1.8625760e-05
  1.3116306e+00
 -8.9262379e-04
  1.2371391e-04
 -9.5748484e-02
 -7.2632691e-05
 -6.2054285e-04
 -1.0489206e+00
 -1.7093565e-02
 -1.7437910e-03
  7.8998052e-02
 -3.8930498e-02
 -4.6192238e-01
 -3.9058876e-01
  3.9774067e+00
  3.3849436e-01
  1.3547853e+00
  1.7982678e-05
  1.2470981e-04
  2.9521764e-04
  9.0467283e-06
 -1.7530259e-01
  1.7553463e+00
  1.2531698e+00
 -1.3342866e-01
  5.6300454e-02
 -3.9323160e-01
 -5.1182149e-05
  9.5112187e-01
 -5.9133996e-03
 -1.3660350e-04
 -4.3329436e-01
  9.7674703e-05
  6.6262546e-05
 -5.2075958e-01
 -2.2723942e-01
 -7.4964219e-01
  8.0133814e-01
 -4.9796872e-05
 -1.7940357e-01
  6.4442568e-02
  1.0871327e+00
  5.2402729e-01
 -2.0825908e-01
  2.2118543e-01
  1.6716218e-05
 -2.3298799e-01
 -1.3132311e-02
 -1.8668372e-05
 -1.6902794e-01
  2.1857353e-05
 -2.2610312e-03
  2.0471607e-01
  3.4414553e-03
 -3.1691889e-07
  1.4063808e+00
 -3.7962702e-01
 -1.4022486e-02
 -7.9957885e-01
 -7.4178541e-01
  6.8496090e-01
 -1.5074526e-02
 -7.9727525e-01
  2.8169281e-03
  7.9415947e-01
  6.4850547e-06
 -6.5816231e-03
 -3.7320042e-01
  2.5600500e+00
 -7.0533556e-01
  9.9966681e-01
  9.7502336e-02
 -3.9293867e-02
 -3.7261879e-01
 -1.0855378e+00
  3.5794903e-05
  1.5767070e+00
  5.8591706e-01
  6.3633317e-01
 -2.1952075e-01
 -1.4799138e+00
  3.4445220e-01
  2.5593235e+00
  9.8354125e-05
  2.6893392e-01
 -2.7148352e+00
 -7.7581888e-01
  5.3931445e-02
  1.0083463e-02
  1.8356185e-01
  4.5588493e-01
 -2.1813087e+00
 -2.1349790e-05
  1.7021028e-06
 -1.1947454e-01
 -9.9678211e-05
  5.3085314e-06
  9.2513633e-01
  3.6694277e-05
 -1.4379292e-05
  2.3795295e-01
  5.7907923e-06
 -1.5180917e-02
 -2.4819227e-01
 -4.0865547e-05
  3.7475154e-05
 -3.2442883e-01
  5.8462715e-06
  3.7642053e-06
 -1.9167353e-03
  4.1741046e-06
 -7.5994019e-04
  6.9481559e-04
 -2.7695054e-01
 -1.2570007e-04
 -2.0935785e-02
 -2.9674451e-05
  1.5303626e-04
 -1.7263768e+00
 -3.4731624e-05
  1.1233267e-04
 -2.3536958e-01
 -3.1100557e-05
  3.5544092e-04
  7.9736120e-01
  2.5031611e-04
  1.0930241e+00
  2.0034592e+00
 -1.9839710e-01
 -1.5317527e+00
 -1.4807199e-03
 -2.0058968e+00
 -5.8236170e-01
  9.4126612e-01
 -1.2595089e-04
 -6.9598138e-02
 -8.9128305e-05
  2.5956944e-05
 -4.7892681e-05
 -6.8062115e-01
 -1.2125407e+00
  1.1929528e-01
 -1.0144752e+00
 -2.3492590e-01
  3.8508244e-02
 -6.4005601e-01
 -2.8722185e-01
 -2.7833059e-05
  1.2382707e-01
 -3.6530250e-07
 -2.1320338e-04
 -9.8073524e-01
 -3.0673358e+00
  3.6485311e-01
  2.0629606e+00
 -5.5443110e-05
  1.2211726e+00
 -1.1652044e+00
 -9.1789538e-01
  2.0241889e-05
  1.3097360e+00
 -8.0978349e-02
 -9.0144950e-01
 -8.9195567e-01
  3.2436517e-05
  5.4638934e-01
 -4.5923166e-02
 -1.4438370e+00
  1.0474978e-01
 -2.7632222e-01
  7.7498472e-01
  7.9056299e-01
 -2.3081412e+00
 -1.5535452e-03
 -1.0857269e+00
 -1.2454977e-01
  1.0691866e+00
 -1.5010566e+00
 -1.9708779e+00
  2.6280442e-02
  4.7833499e-05
  2.2227435e+00
  1.6410199e-01
 -2.9355341e-01
 -6.3636497e-02
 -2.1935534e+00
  8.5671145e-01
  2.0412074e-01
 -3.7054371e-02
 -1.5972831e+00
  3.7777230e-01
 -4.7195783e-01
  1.3933284e+00
 -6.3522696e-01
 -1.2530136e+00
 -1.1977118e-01
  3.0709496e-01
  1.3538239e+00
 -2.8492486e+00
 -5.8162433e-01
  4.0571489e-05
  2.3460156e-01
 -8.0281585e-01
 -8.0594909e-01
 -1.8696059e-01
  1.3212299e+00
 -1.1794241e-01
 -8.1557411e-01
  5.9011751e-01
  3.6000187e-05
  5.8891776e-05
  3.3533492e-05
 -3.6874815e-05
  3.4457309e-05
  7.0657291e-02
  2.7542168e-01
  3.2198441e-01
 -1.1567050e+00
 -3.4365225e-05
 -1.1119797e-06
  4.4732061e-01
  2.9281447e-02
 -9.9137284e-02
  4.5975395e-02
 -5.0756227e-02
  1.1189425e-01
  1.6879938e+00
  4.2072719e-05
  2.0436016e-01
  1.6723758e-01
 -5.8096983e-02
 -1.5643123e-01
  4.7486164e-02
  1.9335862e-01
  1.3418136e+00
 -4.3280220e-01
 -1.7046886e-04
 -2.3210661e-05
  3.6488066e-03
 -1.3316192e-05
 -2.2292736e-05
 -2.9023800e+00
  2.5446284e-01
 -7.9764378e-01
 -2.3345668e+00
  1.3681385e-04
 -5.9819864e-05
  2.5952044e-01
 -1.2824188e-01
 -1.1187954e-01
  6.2980139e-01
 -2.6029378e-01
  2.9712174e+00
  6.6476780e-01
  4.9255150e-06
  8.8978276e-02
  1.4023514e-01
 -5.2612919e-01
  1.0145672e-04
 -9.4860844e-02
  3.1348586e-01
 -3.0289456e-01
 -4.4117323e-01
  2.9672126e-06
 -1.0624588e-04
  6.0464042e-01
 -3.2921805e-04
 -5.8115486e-02
  1.7806540e-01
  7.1575171e-01
 -1.6071106e+00
 -4.0677530e-01
  1.8520257e-04
  1.2209628e+00
 -9.3039699e-02
  3.1991515e-02
 -4.7870335e-01
  7.9347885e-01
 -4.9432918e-01
  6.3720119e-01
  1.3152291e+00
 -1.3865621e-05
  2.0248634e-01
  1.2864138e-02
 -7.8929359e-01
  1.0404977e-02
  8.2595277e-01
 -3.3858094e-01
 -1.0537865e-04
  5.5294573e-01
  1.2382503e-05
 -3.2306507e-02
  1.0780089e-01
  5.3075588e-01
 -1.3885276e+00
 -1.4392644e+00
  1.7864923e+00
 -1.1069057e-01
 -1.8928488e+00
 -1.0046849e-04
  4.3720312e-02
 -9.9738613e-02
 -5.2895296e-01
  7.9789740e-04
  1.2341385e+00
 -1.8836651e+00
  7.1805888e-01
  1.4780170e-01
  6.8957335e-05
 -2.7463131e-05
 -2.9162467e+00
  3.1827486e-01
 -2.2781191e-02
  2.6292986e-01
 -8.3390760e-01
  6.4026818e-02
  3.4753251e-01
 -9.0085356e-05
 -6.5534572e-05
  1.0447686e-01
 -4.2674613e-01
  3.5372839e-04
 -2.9174465e-01
  1.4447347e+00
 -1.8377836e+00
 -1.0548736e+00
  4.6135629e-05
 -5.2432588e-05
  2.9428420e-04
 -2.1103046e-06
 -8.0445672e-05
  1.1868455e+00
  1.2276821e-04
 -1.3263736e-04
  4.4470694e-04
  9.5280149e-05
  3.1046169e-05
  6.4848107e-01
 -5.5167723e-01
  1.7924532e-03
 -1.2829792e+00
 -5.3165102e-01
  1.4637120e+00
  7.1841061e-01
 -1.7686933e-05
 -4.3785785e-05
 -2.3206940e-01
 -5.4180168e-06
  4.1996107e-05
  1.5466876e+00
 -8.4897631e-01
 -1.0695201e+00
  4.5455664e-01
  4.8711872e-06
 -6.2628851e-06
 -5.1868027e-01
 -1.8534009e-01
  1.2971730e-04
  2.4208176e-01
 -3.3285234e-03
 -6.5656525e-01
 -7.8425974e-01
  9.9193658e-06
 -4.1466779e-01
 -2.7401260e-01
 -1.8783027e-01
  7.5462689e-05
 -3.8903287e-01
 -1.9398199e-01
 -1.1059651e+00
  7.3236930e-01
 -5.0774099e-05
  1.1959852e-04
  2.3114021e-01
 -4.8568516e-04
 -1.1200427e-04
  5.9987563e-01
  2.9536578e-01
 -2.9804641e-01
 -4.7561683e-04
 -6.4506830e-06
 -5.9399962e-01
 -6.9955087e-01
 -7.2754735e-01
 -1.9865267e-05
 -2.2667506e-01
 -2.0862906e-01
  1.6458291e+00
  4.7988036e-01
  5.0656232e-05
  2.9291993e-01
  3.4843966e-01
 -1.2385573e-03
  4.7561465e-05
 -8.3734435e-01
  1.1162770e+00
  8.5115153e-01
  3.8847707e-03
  1.0106137e-05
 -6.5340674e-01
  5.2198386e-01
 -2.1630965e-01
  2.6479187e-05
  1.1052266e+00
 -3.3994177e-01
 -1.6087335e+00
 -2.5180617e-01
  1.6942639e-04
  1.9702558e-05
  2.6026673e+00
 -8.1009915e-05
  3.8000991e-04
  3.4443730e-01
 -5.2119946e-01
  1.2217640e+00
 -3.3748081e-01
  2.8621196e-06
 -1.3373637e-01
  2.9323373e+00
 -5.2734655e-01
 -5.6533218e-06
  1.4010845e+00
  1.1743543e+00
 -9.8303556e-01
 -4.9465612e-01
 -6.4693959e-05
 -2.3555673e-05
  1.4503367e+00
 -9.1252776e-05
  1.9237849e-04
  3.0411375e-01
  1.3017582e+00
  3.0096227e-01
 -4.8579001e-01
 -1.2545067e-06
 -7.8698868e-05
  1.3057446e+00
  1.4640862e-03
  4.1729316e-05
 -1.7583386e+00
  6.5125138e-01
  5.4162908e-01
  7.0006466e-01
 -3.7114554e-05
 -1.1934329e-05
  4.3552377e-06
  2.8788631e-05
 -7.1809263e-05
  4.0867022e-01
  3.6687074e-05
  1.1301074e+00
 -1.2562873e-05
 -4.5210185e-05
  3.8046837e-06
 -1.9343277e-04
  1.7418659e-05
  3.8024198e-05
 -7.9694009e-01
  5.6436505e-02
  2.2218147e-01
  8.0230528e-01
  1.2553630e-04
 -1.8868259e-04
  1.1123832e+00
 -7.7773220e-05
 -3.3644014e-06
 -4.7110626e-01
  7.0986420e-01
  1.3798412e+00
 -2.6738584e-01
 -1.7502829e-05
  3.2132894e-01
 -1.6462325e-01
  4.2398635e-05
 -4.3884898e-05
  2.2065344e+00
 -7.0542961e-02
  1.1995454e+00
  8.9370024e-01
 -1.8602721e-05
 -5.0612730e-03
  1.1728641e+00
  1.7098324e-01
  8.8621899e-05
 -6.1183099e-02
  2.0491927e+00
  1.5294085e-01
 -2.9173663e+00
  9.2611654e-06
  6.9740593e-01
  4.5453110e-01
  9.8275004e-06
 -3.4396744e-06
  8.9290932e-02
  5.1361185e-01
  7.9745638e-01
 -8.9318424e-01
 -5.1448853e-05
 -1.5253933e-01
 -6.5467393e-01
  6.8125129e-01
  3.0627347e-05
  1.0476953e+00
  4.9988252e-01
  1.9597592e+00
 -1.1604015e+00
 -2.5490312e-05
  5.4074985e-01
 -4.6708676e-01
 -6.9392182e-02
  9.4173512e-05
 -7.8750646e-01
 -1.2313471e+00
 -8.6235970e-01
  2.5520709e+00
  1.0342081e-04
 -4.2064399e-05
  5.2959156e-01
  8.7282288e-01
 -7.5532400e-05
  1.3225678e-01
  3.8712516e-01
  1.2787187e+00
 -1.3078426e+00
  4.6518835e-05
 -6.3372249e-06
  9.8803157e-01
 -1.8388005e-02
 -9.2247799e-05
  6.6894525e-01
  1.6875627e+00
  1.6764754e+00
 -1.4589291e+00
  8.4238876e-05
  1.0480332e-01
  5.0405270e-01
  8.0320209e-01
 -6.6262968e-05
 -4.7176132e-01
  1.2817938e+00
  8.5527539e-01
  1.5057716e-02
  1.2724065e-04
 -3.4559408e-01
  3.5293248e-01
 -1.1906115e-04
 -1.0483976e-04
  1.0535098e+00
  3.3592224e-02
  2.0327294e+00
  1.6181970e+00
 -2.3237419e-05
  1.3284105e+00
  4.2226963e-02
  1.5251861e+00
  6.3119528e-06
 -2.1612542e+00
  1.8287318e+00
  1.5941364e+00
 -9.8339862e-01
  8.0367981e-06
 -1.5054318e-05
  7.2671457e-05
  8.2515162e-06
 -6.5231339e-05
 -6.5008992e-01
 -2.2020172e-04
  1.0934363e-01
 -3.7278292e-05
  1.7400556e-04
  1.1259122e+00
  3.3687743e-06
  1.3488311e+00
 -2.9961129e-05
 -7.7054733e-01
  3.1626630e-01
 -1.8712412e+00
 -2.5577407e-02
  6.2693005e-05
 -6.0959155e-05
  9.9836774e-02
 -1.6925216e-05
 -7.7119294e-06
 -3.8347013e+00
 -4.2209348e-01
  1.0915201e+00
  2.3554492e+00
 -6.9349176e-06
  6.8663073e-01
  1.8599723e-04
  2.0086057e+00
 -3.2563716e-05
 -2.4389546e+00
  1.4425858e+00
  5.4738557e-01
  2.7341235e-01
  3.8808823e-05
  1.8300405e-02
  1.1026240e-03
  3.5784964e-05
 -5.8557271e-05
 -1.9691859e-01
 -2.4681942e+00
  4.4235677e-01
  3.7994254e-01
  2.0281172e-04
  1.4666952e-01
 -1.2418257e-04
  1.8470553e+00
 -2.3270687e-04
 -9.8283559e-01
 -1.1383463e+00
 -1.1089906e+00
  1.2021781e+00
 -2.3835722e-05
  4.1677567e-01
  5.5570501e-05
  6.6902750e-05
  7.6392607e-05
  6.2160961e-02
  3.0823189e-01
 -3.3411252e-01
 -1.9900395e+00
 -1.5149362e-06
 -3.1101956e-06
  2.9777187e-01
  1.6137168e+00
  1.0791954e-04
 -2.0143001e+00
 -2.3401347e-01
  1.6420004e+00
 -1.5370642e+00
  7.0836664e-05
  8.6173046e-01
 -5.5288208e-01
  1.1926511e-01
 -4.1156327e-06
  1.1424429e+00
  1.3397260e-01
 -6.8148136e-01
 -3.0911598e-01
 -4.5077224e-05
 -1.6645321e-05
 -3.1160977e-01
  7.8939015e-01
 -4.0782761e-05
 -1.1158394e+00
  2.1400855e+00
 -1.6692643e+00
 -1.7456903e+00
  1.0805291e-05
  7.7854425e-01
  5.7859540e-02
  2.4428105e+00
 -1.9385747e-05
 -1.3042816e+00
  1.7197238e+00
  7.1471578e-01
 -2.3190913e+00
  9.0071871e-06
 -4.4855965e-06
 -5.1037306e-01
  5.0158244e-01
 -1.2228578e-04
  4.6253582e-03
  6.6662753e-01
  3.2219703e+00
 -4.9258348e-01
  6.6788487e-02
  6.6788487e-02
  6.6788487e-02
  7.6868302e-01
  7.6868302e-01
  7.6868302e-01
  4.8117932e-02
  4.8117932e-02
  4.8117932e-02
  1.1229619e-01
  1.1229619e-01
  1.1229619e-01
  6.4455867e-03
  6.4455867e-03
  6.4455867e-03
