nep3_zbl 2 C H 
zbl 1 2
cutoff 8 4 374 54
n_max 8 6
basis_size 12 12
l_max 4 2 0
ANN 50 0
 -3.3839703e-02
  3.0409920e-01
  6.0358679e-01
  3.5561955e-01
  4.0409970e-01
 -3.8981816e-01
 -6.4854443e-01
 -6.2316842e-03
  6.8603379e-01
  2.2999164e-01
  4.9067840e-02
 -1.1031245e-01
  8.2542315e-02
 -4.2715961e-01
  2.1414092e-01
 -7.4159098e-01
  7.8549159e-01
  2.9093307e-01
  3.7228596e-01
 -2.3099941e-01
  4.7912195e-02
 -6.7590034e-01
  2.8646898e-01
  4.1470110e-01
  5.2137285e-01
  3.1099173e-01
 -7.2685254e-01
  2.6965195e-01
 -1.2274206e-01
  3.4980458e-01
 -3.5257407e-02
  5.5807784e-02
  2.1872246e-01
  5.4534215e-01
 -6.6517478e-01
  4.8051900e-01
 -3.7952757e-01
  3.1802282e-02
 -1.1080334e-01
 -5.9397034e-03
 -1.5056418e-01
 -1.5145078e-01
 -1.9333535e-01
  3.8382819e-01
 -1.7645194e-01
  6.5590996e-01
  2.7232161e-01
 -6.0553916e-02
  2.0171368e-01
  5.2273399e-01
  3.6510384e-01
 -1.8508343e-01
 -5.6709754e-01
 -5.3992286e-02
  2.6522297e-02
  2.3145629e-01
 -1.6416955e-01
 -3.6108652e-01
 -2.7165172e-01
  5.4682940e-02
 -2.1240377e-01
  1.2265188e-01
  5.4432724e-02
 -2.0641720e-01
 -2.1135122e-01
 -3.1614217e-01
  8.4725782e-02
 -1.5570150e-01
 -1.7235067e-01
 -4.2780846e-01
  4.8531175e-01
  1.0721920e-01
  3.0226111e-01
 -4.1802675e-02
 -2.8715813e-01
  1.1553235e-02
  3.7225610e-01
  1.1269972e-03
 -1.4773111e-01
 -3.2077432e-01
  2.5690997e-01
  2.0384695e-01
  2.9301906e-01
  4.6651739e-01
 -1.6494773e-01
 -4.8403227e-01
 -7.2632414e-01
  6.1272734e-01
  3.7229735e-01
 -3.2744494e-01
  8.6035490e-02
 -2.8167814e-01
  2.6860201e-01
  1.9274378e-01
  2.0463195e-01
  8.0270559e-02
 -5.1950586e-01
  7.2713464e-02
 -7.5129960e-03
 -4.9474382e-01
 -2.9490858e-01
 -2.7877963e-01
 -1.3859120e-01
  6.5551466e-01
 -3.0963725e-01
  1.4771794e-01
 -3.6169809e-01
 -4.6758637e-01
  3.8655851e-02
 -9.2135370e-04
  1.1216295e-01
  2.5073016e-01
 -2.4579714e-01
 -2.1043317e-01
  2.6867428e-01
  1.0905336e-01
  2.3630750e-01
 -7.0076086e-02
  9.7490735e-02
  8.8020451e-02
  8.4054142e-01
 -7.2949809e-01
  3.4668434e-01
  1.7890836e-01
  7.0934072e-03
  1.1572090e-01
  1.5049410e-01
  1.5972650e-01
  5.8179921e-01
 -1.3907744e-01
  3.7415180e-01
  7.0415568e-01
 -2.2815943e-01
  3.0376956e-01
 -6.1908960e-03
 -1.8180482e-02
  9.8216459e-02
 -2.6715648e-01
  3.1059694e-01
  4.2618412e-01
  6.4034693e-02
  4.7334644e-01
  9.0722394e-01
  3.0704337e-01
 -1.5993163e-01
 -9.8964132e-02
  2.2813228e-01
 -4.5703568e-02
  2.1346378e-01
  5.7424998e-01
  5.1168752e-01
  1.5179509e-01
 -1.8347183e-01
  6.3007772e-02
 -6.1455205e-02
 -3.7908775e-01
  6.1460629e-02
 -4.4675750e-01
 -2.2918054e-01
 -5.5312556e-01
 -4.3609715e-01
 -1.2768134e-02
 -2.9505321e-01
 -2.5981665e-04
  8.1203872e-01
  8.0073595e-01
 -1.0515981e+00
  5.1406056e-01
 -6.4931917e-01
 -7.4304187e-01
  7.8438818e-03
  3.0117065e-01
 -2.9227307e-01
  1.4530388e-01
 -1.5546505e-01
 -5.8782464e-01
  2.4519989e-01
  2.6410031e-01
 -2.4847461e-01
 -3.0873343e-01
  1.0273404e-01
  3.9620298e-01
 -1.4873022e-01
  4.2760241e-01
 -1.2303106e-02
  2.5279230e-01
 -4.7773921e-01
 -4.1246349e-01
 -5.6175280e-01
 -3.1739289e-01
 -6.1142528e-01
 -3.8355762e-01
  5.4250956e-03
 -1.0634304e-01
  4.4557965e-01
 -9.2170812e-02
  7.6391131e-01
 -3.2512096e-01
 -2.6211810e-01
 -9.8950341e-02
  2.4862832e-01
 -4.4092003e-01
 -2.9255113e-01
  2.4262202e-01
 -2.7570575e-01
  7.6200023e-02
 -1.1201204e-01
 -9.0969190e-02
 -5.3993368e-01
  4.0591744e-01
 -2.3277619e-01
  2.0410416e-01
 -2.1723861e-01
 -2.1708545e-01
  1.7091428e-01
 -4.8993900e-01
  4.8580232e-01
  1.1428946e-01
 -4.9874976e-02
 -4.1429228e-01
  1.9340555e-01
  2.4734908e-01
  2.4539831e-01
 -1.6926944e-02
  3.5057962e-02
  1.7411557e-01
  4.8557258e-01
 -7.8238279e-02
 -5.9112531e-01
  3.3742601e-01
 -3.7244055e-02
 -5.8887094e-02
  3.2433400e-01
  3.6103353e-02
 -1.4798592e-01
 -1.8438020e-01
  2.6659986e-01
 -3.1286791e-01
  3.5841167e-01
 -2.6860195e-01
  1.5125471e-01
 -5.8797695e-02
  2.1672159e-01
 -5.0922775e-01
  2.3056674e-01
  6.1340827e-01
 -3.7425652e-02
 -4.0633291e-01
  1.9156986e-01
 -3.5195097e-02
 -2.7263150e-01
  2.9830337e-01
  1.6300480e-01
 -1.5895537e-01
 -6.6817200e-01
 -6.2892008e-01
 -4.7570664e-01
  2.0009656e-01
  5.4124695e-01
 -1.0660858e-01
  5.3703392e-01
 -2.3497957e-01
 -1.7742920e-01
 -4.2232352e-01
  4.3882810e-02
  4.4849637e-01
  1.7438821e-01
  5.0698563e-02
  3.9986566e-01
  7.0794731e-02
 -7.6564677e-02
 -4.3101683e-01
  3.6867854e-01
  1.2710147e-01
 -2.3750144e-01
 -3.9028212e-02
 -7.0454812e-01
  5.3338837e-03
 -7.8164577e-01
 -2.1649446e-02
  8.3817765e-02
 -8.7233067e-01
 -3.2702765e-01
 -4.8639297e-01
 -3.2114804e-01
 -2.3694384e-01
  1.3470827e-01
 -6.6905254e-01
 -1.6093199e-01
  1.9848570e-03
 -2.9433349e-01
 -9.6509248e-02
 -2.3674038e-01
 -3.1010771e-01
 -1.5629375e-01
 -2.1719691e-01
  9.0029195e-02
 -2.9107478e-01
 -4.0140453e-01
  4.5507187e-01
  2.8923744e-01
  1.2173255e-01
  2.1177980e-01
  6.7893010e-01
 -3.3844692e-01
  5.9948459e-02
  2.6398391e-01
  6.6941187e-02
  2.9010594e-01
 -1.4946453e-01
  3.1297138e-01
  3.4618858e-01
  5.9769131e-02
 -4.0145582e-01
 -4.9355246e-02
  9.1443434e-02
 -4.3466821e-01
 -5.4194063e-01
 -8.7954158e-01
  3.7918681e-01
 -6.3006884e-01
  2.2462299e-01
  7.1636468e-02
 -2.8843477e-01
 -1.2420045e-01
 -2.2126332e-01
 -2.2867998e-01
  3.4674603e-01
 -4.8265702e-01
  3.2287329e-02
  4.4231105e-01
 -5.4955119e-01
 -4.7746557e-01
 -1.7581514e-01
 -6.5430546e-01
 -3.1265184e-01
  2.7523649e-01
  4.8247588e-01
 -1.3475214e-01
  3.3566666e-01
 -4.0106916e-01
 -4.5198891e-01
 -4.1159725e-01
 -1.5428737e-01
  8.1410095e-02
 -6.4077014e-01
  3.9653158e-01
  5.4103601e-01
 -1.3428247e-01
  5.5390514e-02
  5.7574487e-01
 -4.7894076e-01
 -1.2619773e-01
 -4.5433345e-01
  2.2404110e-01
  3.2099523e-02
 -1.9574772e-01
 -1.7333762e-01
  1.9041508e-01
  3.0646244e-01
  1.2508869e-01
  4.6128434e-01
 -2.1875641e-01
  1.8987823e-01
  3.1304082e-01
  2.4693975e-01
  3.2193661e-01
 -5.4946846e-01
  4.3978837e-01
  2.5401837e-01
  5.4291421e-01
  3.4063987e-02
  4.2744875e-01
 -4.0409347e-01
 -1.2966012e-02
  1.5801102e-01
 -4.1526571e-02
 -3.0597797e-01
 -1.4990607e-01
  7.3554534e-01
  3.9393568e-01
 -5.7779737e-02
  1.2879275e-01
 -4.8595122e-01
 -1.7624830e-01
  2.4030349e-01
 -5.0546461e-01
 -3.6669278e-01
 -3.0144441e-01
 -2.7708524e-01
  5.5440694e-01
  5.5343598e-01
 -5.1310790e-01
 -4.3884967e-02
 -2.6361331e-01
 -4.4785717e-01
  2.3517883e-01
  4.4062239e-01
 -8.5149936e-02
 -3.5962728e-01
  3.6732027e-01
 -1.6448691e-01
 -2.3837577e-01
  1.0013445e-01
 -2.0302704e-01
 -3.0119359e-02
 -3.2118839e-01
 -2.1878473e-01
  1.1304130e-01
 -7.7653766e-01
  4.3402034e-01
  2.5088456e-01
 -6.6431576e-01
  3.7899971e-02
 -4.3269065e-01
 -8.1122115e-02
  5.0696814e-01
  2.7526793e-01
  2.7760791e-02
 -3.5723710e-01
 -2.0025034e-02
  3.6894906e-01
 -2.4698834e-01
  6.9166254e-03
  5.0200760e-02
  1.6812652e-01
 -2.0816331e-01
  5.6228094e-02
  3.8070703e-01
  3.0447084e-01
 -2.1492383e-01
  2.6696122e-01
  4.2680037e-01
 -5.0082791e-01
 -3.2673866e-01
 -1.3396855e-01
 -2.1649954e-01
 -3.5785541e-02
  1.1639377e-01
 -5.0702494e-01
 -8.5931569e-02
 -4.1081801e-02
 -5.2925870e-02
 -6.9923663e-01
  3.9259923e-01
  1.3128832e-01
 -4.3451190e-01
 -1.2458525e-02
  3.0572391e-01
  6.4007401e-01
 -6.5837614e-02
  3.4487510e-01
  4.1323692e-01
  7.5825232e-01
  5.2216983e-01
 -1.1829898e-02
  3.6365345e-01
  2.9071838e-01
  2.7135327e-01
 -1.4619446e-01
 -2.0137039e-01
  4.1421056e-01
 -1.3927197e-01
  8.8590449e-01
  2.1111923e-01
 -8.8577121e-02
 -1.4401813e-01
  1.5367143e-01
  5.0140917e-01
 -3.8970733e-01
  3.4001374e-01
  1.3078514e-01
  1.3505015e-02
 -1.9256449e-01
 -2.8257603e-02
  2.4827811e-01
 -4.2703897e-01
 -1.7749712e-02
 -1.3663225e-01
 -2.7699828e-01
  3.5520804e-01
 -3.5348085e-01
  1.2251236e-01
  6.7331761e-02
  4.7132701e-01
 -9.4419859e-02
 -7.2993696e-01
  9.6727781e-02
 -1.0627601e-01
  1.4869849e-01
 -1.9023949e-01
  1.8459915e-01
 -5.8581054e-01
 -3.1626981e-01
 -1.8834522e-01
 -2.9298384e-02
 -1.4450353e-01
  3.9580297e-01
 -5.2168721e-01
 -6.2363142e-01
  5.4202950e-01
 -2.8734574e-01
  9.4964993e-01
  1.2389830e-01
 -2.5187600e-02
 -4.6451136e-01
  2.2153072e-01
 -2.0965676e-01
 -3.6643893e-01
 -1.4426358e-01
  3.0475304e-01
  4.4088757e-01
 -6.8739638e-02
  2.1561614e-01
 -3.9554456e-01
  2.3296075e-01
  6.2814033e-01
 -1.8738517e-01
 -1.3667385e-01
 -3.5655957e-01
  5.2892260e-02
 -2.2743092e-01
  5.9302336e-01
 -2.6987034e-01
 -3.3338478e-01
  7.6497979e-03
 -1.8121332e-01
 -5.6997180e-01
  7.6958716e-01
  2.5625262e-01
  2.2286420e-01
 -3.7445858e-02
  3.0950558e-01
 -2.6644257e-01
  7.9738930e-02
  4.8797347e-02
 -8.0128837e-01
 -4.3540737e-01
  1.8986373e-01
  5.9700072e-01
 -1.5932031e-02
 -1.9206995e-01
  1.0689327e-01
  3.5933569e-01
  8.0466997e-03
 -7.4123979e-01
  2.3815393e-01
  1.4044711e-01
 -2.8736481e-01
 -1.5437108e-01
  4.6793565e-02
 -6.4876333e-02
 -5.2373588e-02
  6.8591690e-01
 -2.8415132e-01
 -2.6557982e-01
 -7.6312697e-01
  4.9371710e-01
 -3.1717905e-01
 -6.5600914e-01
  2.7226251e-01
 -2.4160886e-01
 -5.6747545e-02
 -4.0046379e-02
 -1.1853109e-01
  1.1452357e-01
 -1.6971277e-01
  5.0339258e-01
  1.0295865e-01
  1.7067911e-01
 -1.8827191e-01
 -6.6123980e-01
  9.9689513e-02
 -2.8229624e-01
 -4.3334715e-02
  5.9143063e-02
  1.9501939e-01
  4.2817762e-01
 -3.1945786e-01
 -1.1101412e-01
 -2.1892665e-01
  4.0620664e-01
  2.8404164e-01
  1.8147376e-01
 -5.0256141e-03
 -1.2649924e-02
 -2.3474760e-01
  5.7337230e-01
 -3.6858043e-01
  6.4391941e-01
 -3.6289185e-01
  1.9030803e-01
  3.3393449e-01
  3.0022335e-01
 -6.2106341e-02
  5.5273211e-01
 -2.9098040e-01
 -2.4397492e-01
 -1.3649495e-01
 -3.6240238e-01
  1.5895692e-01
  3.1452739e-01
  5.0626315e-02
  6.5552026e-01
  5.5410868e-01
 -6.9078490e-02
  9.9009261e-02
  1.8848650e-01
 -4.6825030e-01
  3.8929471e-01
 -8.6946815e-02
 -4.1539750e-01
  2.3665823e-01
 -4.1721952e-01
  4.3532217e-01
 -4.6905050e-01
  4.4599691e-01
  1.6804175e-01
  9.6007302e-02
  8.9282192e-02
  1.7115064e-02
 -3.8834634e-01
 -8.7175317e-02
 -3.8673779e-01
 -1.4089984e-01
  6.7323470e-01
 -5.7345819e-01
 -5.0219816e-01
 -7.9078436e-02
 -2.7680621e-01
  2.6857221e-01
 -2.3721619e-01
 -7.7026945e-01
  3.7732875e-01
 -1.6205224e-01
 -6.1654055e-01
  2.3152734e-01
 -7.9989809e-01
 -8.5286415e-01
  1.2643126e-01
  1.3308778e-02
  2.0237391e-01
 -7.3215991e-02
 -2.3260173e-01
  7.1598035e-01
 -1.4495373e-01
  7.7875733e-02
  2.8168797e-01
  2.3867315e-02
  2.9548776e-01
 -3.1859046e-01
  6.5966147e-01
  1.5079284e-01
 -4.0621668e-01
 -8.0195680e-02
  3.3830911e-01
  6.6755265e-03
  1.8725619e-02
  7.7600229e-01
 -4.7467217e-01
  6.9620645e-01
  2.2697306e-01
  6.9428524e-03
  4.8925069e-01
  5.4778129e-01
  1.8966456e-01
 -7.6552138e-02
 -5.1288500e-02
  1.5157476e-01
 -4.9144551e-01
 -6.5568519e-01
 -4.3296763e-01
 -2.5375746e-02
  3.2963270e-01
 -3.7671196e-01
 -5.5782318e-02
 -1.7568903e-01
  1.7199177e-01
 -9.5014267e-02
  7.6618820e-01
 -2.6476394e-02
  1.3699913e-01
 -5.9834784e-01
 -3.7370521e-01
  3.2404003e-01
  5.2546799e-01
 -3.5408160e-01
 -4.4456191e-02
  6.4388394e-01
 -1.4269264e-01
 -3.0310991e-01
 -1.8214884e-01
 -4.4476777e-02
 -6.9750375e-01
  6.2002182e-01
  6.0439241e-01
 -5.8971363e-01
  1.1776184e-01
 -3.6856729e-01
  1.9118249e-02
 -1.4436319e-01
  1.4956366e-01
  7.7802199e-01
  3.0893758e-01
  4.2638773e-01
  5.7107699e-01
 -3.5023499e-02
 -8.9826517e-02
  5.3192741e-01
 -2.3133144e-01
 -1.5831327e-01
 -2.6135382e-01
 -1.0875016e-03
 -7.7994305e-01
 -4.0741357e-01
  1.3660105e-01
  7.1748543e-01
  3.0092609e-01
  1.6658688e-01
  3.3059907e-01
 -4.4386828e-01
  2.4675164e-01
  1.8247986e-01
 -2.5881190e-02
 -9.9660978e-02
 -1.7316672e-01
  2.3863466e-01
  4.3317547e-01
  4.9310133e-01
  3.0031657e-01
  2.2251308e-01
  1.2058814e-01
  3.3526176e-01
  1.2357533e-04
  5.1392198e-01
  4.9480122e-01
  6.0865097e-02
  9.2973113e-01
 -5.3716248e-01
 -4.2954475e-01
  9.1270369e-01
 -3.8861513e-01
 -2.2063985e-02
 -4.4719968e-02
  1.3739467e-01
 -5.5895293e-01
 -1.9915044e-01
  1.0512494e-02
 -4.7709444e-01
 -2.6844209e-01
  5.8937818e-01
  6.4796633e-01
  8.8181116e-02
 -7.0718819e-01
 -2.4032000e-01
 -4.3920523e-01
 -3.9440158e-01
  3.1574824e-01
 -4.5580661e-01
 -7.6549125e-01
  8.4123023e-02
  4.9588597e-01
  2.7798548e-01
 -4.1270828e-01
 -1.5901501e-01
 -1.5909013e-01
  3.4924096e-01
 -2.5560880e-01
  1.1518587e-01
  1.0352774e-01
  5.8828484e-02
  5.8307570e-01
 -5.6960958e-01
 -4.5759425e-01
  3.7476891e-01
 -1.9094168e-01
 -6.5088645e-03
  6.6304284e-01
  5.3241211e-01
  3.6836034e-01
 -3.0406573e-01
 -6.4916217e-01
 -1.4221725e-01
 -5.5858806e-02
 -4.4215602e-01
 -1.4025134e-01
  6.1087048e-01
  1.8280098e-01
 -6.7900032e-01
  8.2007349e-03
  6.7873314e-02
  2.2198942e-01
  5.0306982e-01
 -2.4303484e-01
 -2.6763111e-01
 -3.9369483e-03
  2.5902772e-01
  6.2803733e-01
 -2.0316754e-01
 -2.2371428e-01
  6.0874498e-01
  3.4812832e-01
  2.7292591e-01
  5.8522165e-01
 -6.6501468e-02
 -1.1964776e-01
 -1.4074974e-01
  3.0836505e-01
  1.8049344e-01
 -2.3043516e-01
  7.6166338e-01
  7.8016776e-01
  2.3883829e-01
  5.7070877e-02
  3.6148566e-01
  3.3139044e-01
  3.1439120e-01
  2.4828444e-01
  3.4732118e-01
  2.0158044e-01
  1.6489705e-01
 -6.9310331e-01
  4.5913684e-01
 -3.0447394e-01
 -1.6114938e-01
 -8.6885765e-03
 -2.4810386e-01
  3.4651020e-01
 -1.8543667e-01
 -1.9864200e-01
  1.1476305e-01
 -1.7407137e-01
 -2.4669436e-01
  6.0613185e-01
 -2.9733142e-01
 -8.1105679e-03
 -5.6256807e-01
 -2.6786307e-01
  1.9135076e-01
  5.8533233e-01
 -1.4050457e-01
  5.4099508e-02
  3.5157838e-01
  2.0134340e-01
  5.8842558e-01
  1.4545175e-01
 -1.1175402e-02
 -2.5289026e-01
 -8.2783341e-01
 -5.4924011e-02
 -1.1782566e-01
 -1.0153112e-01
 -3.3873233e-01
 -1.4083371e-01
  1.9877669e-01
  6.9792211e-01
 -2.1734908e-01
 -2.7146202e-01
  5.1164258e-01
 -5.3734891e-03
 -3.7011299e-01
  1.8083230e-01
 -5.8445913e-01
 -3.2479370e-01
 -1.9809319e-01
 -1.2581997e-01
 -6.0230500e-01
 -3.4923232e-01
 -1.5934160e-01
  2.5792494e-03
 -2.4826589e-01
  4.0749244e-02
  3.6003339e-01
  2.9104868e-01
  8.9827582e-02
  6.9027580e-02
  2.5863734e-01
 -5.9368527e-01
  2.8923895e-02
  7.0436084e-01
 -5.2083135e-01
  1.0634320e-01
 -4.0574227e-02
 -6.0822330e-02
  2.6656115e-01
  1.0994071e-01
 -3.6194658e-01
  2.1627830e-01
 -4.5445794e-01
 -2.8732526e-01
 -9.6306272e-02
 -2.8348252e-01
 -9.3605623e-02
 -5.3113532e-01
  6.6541600e-01
  2.1467087e-01
 -3.9891908e-01
  4.7209108e-01
  1.9303107e-01
 -3.3599609e-01
  1.5774043e-01
 -5.2417958e-01
  3.9655983e-01
 -6.1108178e-01
  4.7783789e-01
  4.9562576e-01
 -7.3334754e-01
 -3.2026955e-01
  6.3420451e-01
 -5.8772564e-02
 -3.0681351e-01
  2.0711601e-02
 -8.8037348e-01
 -1.8956016e-01
 -5.2015878e-02
 -3.1056291e-01
 -2.2112115e-01
  1.5736300e-01
  7.9256326e-02
 -5.3042030e-01
  1.9771034e-01
  2.9836199e-01
  1.2432846e-01
 -5.9983149e-02
  2.9027510e-01
 -3.8740635e-02
  5.0603442e-02
  2.3509088e-01
  2.9144615e-01
 -4.1998032e-01
 -9.4839804e-02
 -4.7974250e-01
  4.1396749e-01
  1.7378846e-01
 -8.4197089e-02
 -4.4592857e-01
  2.1458653e-01
  3.3885688e-02
  5.0348900e-02
 -6.8971157e-01
 -1.9384345e-01
  6.2795222e-01
 -2.9938146e-01
  4.5505759e-01
  5.0761753e-01
  8.1907642e-01
 -3.6350906e-01
  3.4951746e-01
  3.4016642e-01
  7.3773474e-02
 -3.4695622e-01
 -4.4715032e-02
 -5.1795298e-01
  1.0502070e-01
  5.4949540e-01
  8.5975796e-01
 -1.2786147e-01
  1.5828149e-01
 -3.4500462e-01
 -3.8869703e-01
  2.9947263e-01
  4.7202301e-01
 -3.7657955e-01
  4.7001314e-01
  3.2718468e-01
 -2.9944366e-01
  9.7288303e-02
  6.6533022e-02
 -6.3582587e-01
 -4.7826833e-01
  7.8967720e-02
 -3.2269457e-01
 -3.5055006e-01
 -8.1118834e-01
  1.3837945e-01
 -1.0380332e-01
 -2.9170462e-01
  1.6993561e-01
 -5.2052999e-01
  1.0126001e-01
 -1.9474833e-01
 -2.8716821e-02
 -1.8587862e-01
 -5.5321312e-01
  1.6952431e-01
  3.9138272e-04
 -2.4886508e-02
  1.8773407e-01
 -2.8880873e-01
 -8.0126363e-01
  5.8157766e-01
 -3.6544001e-01
  2.1042153e-01
  3.4859881e-01
  1.2311666e-01
 -2.7568579e-01
  1.4037191e-02
  5.8907890e-01
  5.5260634e-01
  3.0463293e-02
  1.0931884e-01
  4.2738345e-01
  7.9641879e-02
 -1.5715665e-01
 -5.0664711e-01
  1.2109323e-01
  1.5158746e-01
  1.2126546e-01
 -3.6806422e-01
  3.0728531e-01
 -2.5507635e-01
 -2.1747535e-01
 -2.2922720e-01
 -1.5382320e-01
 -2.2245476e-01
  2.6358718e-01
  9.5380224e-02
 -7.4791509e-01
 -4.3001331e-02
 -1.7261586e-01
  1.9813384e-01
  1.8205555e-01
 -7.8757912e-02
  1.7945495e-02
 -1.8303508e-01
  1.3664810e-01
 -6.9921069e-02
 -2.1364492e-01
  6.9346368e-02
  6.8783998e-02
  8.0911286e-02
 -9.0329540e-01
 -3.1844050e-01
  2.0217636e-01
  3.5396957e-01
 -8.6064741e-02
  7.1292326e-02
 -4.4483334e-01
 -5.7105708e-01
  3.9779156e-01
  5.1141039e-02
  3.5916066e-01
 -1.5109354e-01
  4.7359300e-01
 -2.6810533e-01
  4.1092503e-01
 -1.3691847e-01
  3.5963222e-01
  4.3227237e-01
  3.7989497e-01
  6.4774501e-01
 -7.6768190e-02
 -1.3182853e-01
 -5.4178536e-01
 -7.9313588e-01
 -3.5462612e-01
 -2.0799066e-01
  8.6330436e-03
  1.1627229e-01
 -4.7604588e-01
 -1.6050905e-01
  4.2263174e-01
 -5.5510163e-02
 -2.5860566e-01
  1.2292489e-02
  4.3669844e-01
 -1.1661313e-01
 -3.5173488e-01
 -4.8465720e-01
 -2.2015253e-01
  1.0970028e-01
  1.4778064e-01
 -6.7019612e-02
  5.3762043e-01
 -6.0519159e-01
 -3.8329414e-01
  5.0636184e-01
 -1.6999446e-02
  1.0192143e+00
  2.5487423e-02
  5.0039029e-01
  5.6683886e-01
  3.2689267e-01
 -5.8294803e-02
  4.6546921e-02
 -3.2312849e-01
 -5.0796647e-02
 -3.1249994e-01
 -1.1892897e-01
 -3.1185046e-01
  4.9529907e-01
  2.0926777e-01
  1.0174799e-01
  2.4910417e-01
  7.3844373e-02
  1.3876995e-01
  1.8196426e-01
  4.8124623e-03
  4.6126387e-01
  3.1787306e-01
 -3.3798315e-02
 -5.1477835e-02
 -1.1343735e-01
  4.1503906e-01
  1.2811786e-01
  7.4190028e-02
 -4.5559949e-01
  7.1381025e-02
 -1.3624266e-01
 -2.2010112e-01
  4.1448638e-01
 -1.9033580e-01
  4.0625900e-02
 -4.0204063e-02
 -1.2143170e-01
 -1.6953671e-01
  5.3064501e-01
  3.7414768e-01
 -1.5121643e-01
  3.1951174e-01
 -6.0401493e-01
  4.1198537e-01
 -1.3551211e-01
  2.5855449e-01
  5.4292977e-01
  2.3555061e-01
  1.7198467e-01
 -1.3036206e-01
 -6.3731921e-01
  1.6235439e-01
  3.0106854e-01
  3.1816733e-01
 -4.1478652e-01
  5.3353828e-01
 -4.8245221e-01
 -4.8905975e-01
  1.0646969e-01
 -2.3181461e-02
  3.9578709e-01
  5.7821083e-01
 -4.5991719e-01
  4.6916586e-01
  1.1346519e-01
 -2.4959041e-01
 -3.0441457e-01
 -1.7147660e-01
  3.3280492e-01
 -4.2649072e-01
  4.4682842e-01
 -4.2045963e-01
 -9.5562838e-02
 -3.5275126e-01
 -4.6655306e-01
 -3.0456018e-01
  9.3571499e-02
 -4.0711510e-01
 -3.2068431e-01
 -3.8215157e-01
 -1.2691219e-01
  6.7741555e-01
 -4.8896080e-01
 -9.0806514e-02
 -2.1237887e-02
 -3.3684355e-01
 -2.2017482e-01
 -4.6299356e-01
 -2.4480180e-01
  1.5678205e-01
 -2.3657680e-01
 -4.9469465e-01
 -1.0009443e-01
 -4.4692832e-01
 -3.5416985e-01
 -6.0769641e-01
  2.2842589e-01
  3.2666060e-01
  3.4193417e-01
  3.6191562e-01
 -2.6686239e-01
 -1.9427364e-01
 -4.1736099e-01
 -4.2501751e-01
  4.3568614e-01
  1.0342143e+00
  2.5875613e-02
 -2.1218321e-01
  3.1219608e-01
 -7.5652373e-01
 -2.1036607e-01
  3.1438011e-01
 -1.3126089e-01
 -5.0513305e-02
 -5.3833485e-01
 -7.0122406e-02
 -1.0808055e-01
 -2.1988109e-01
 -4.6483576e-01
  2.6445287e-01
  1.6199334e-01
  1.6050766e-01
  7.4732155e-01
  2.0996511e-01
 -1.1875445e-01
  1.6729933e-01
 -8.7653682e-02
  1.4818430e-01
  7.1039014e-03
  3.6793777e-01
 -1.2441301e-01
  3.8923539e-02
 -8.2080670e-02
 -3.7836638e-01
  7.4954158e-01
 -2.5248706e-01
 -4.3641567e-02
  3.3740726e-01
  5.8426601e-01
  6.3475490e-01
  5.1254332e-02
 -4.8657626e-02
  2.3441547e-01
 -1.2697133e-01
 -5.1980627e-01
  5.1328540e-02
 -8.4638827e-02
 -5.2448887e-01
 -2.4876574e-01
 -7.1768010e-01
  4.2220172e-01
 -2.0109507e-01
  6.8687648e-01
 -7.0997578e-01
 -1.6801158e-01
  1.7075109e-01
 -2.6856250e-01
 -6.3578345e-02
  4.4546095e-01
  2.9983693e-01
 -1.0288306e-01
  1.0974570e-01
 -6.1587781e-01
 -2.8054991e-01
 -4.4216585e-01
 -3.9326119e-01
 -5.7317787e-01
 -3.0148947e-01
 -8.3314680e-02
 -1.7455199e-01
 -1.7860202e-01
 -3.1248829e-01
  3.2981241e-01
  9.1395602e-02
 -6.5689820e-01
 -4.4951567e-01
 -3.5330921e-01
  3.5644260e-01
  1.7042889e-01
  3.3451748e-01
 -4.4954181e-01
 -3.5996908e-01
 -4.6536475e-03
 -3.7712775e-02
  6.3650417e-01
 -3.0609429e-01
 -4.3255970e-02
 -5.7413769e-01
 -3.1335002e-01
  1.1823864e-01
  1.0964352e-01
  1.8194944e-02
 -8.5785055e-01
 -5.1772047e-02
  5.5617105e-02
 -1.1140720e-01
 -6.7243502e-03
 -2.2471938e-01
  3.4351215e-01
 -3.8402982e-02
 -2.6148893e-02
  4.4293630e-01
  7.9555176e-02
 -1.7365907e-01
 -3.7406963e-01
  1.3621320e-01
 -1.6620544e-01
 -6.3145280e-01
 -4.7172564e-01
 -3.5559200e-02
  3.0191702e-01
  4.7025248e-01
  8.4345862e-02
 -1.4043835e-01
 -2.1938331e-01
  1.9598787e-01
 -4.5287105e-01
 -3.7487009e-01
 -5.6818581e-01
  5.1931834e-01
  2.9349247e-01
  2.6465788e-01
  4.6542410e-02
  2.6996518e-03
  1.7736074e-01
  2.9066598e-01
  2.4852766e-01
 -1.5132982e-01
  1.4748998e-01
  1.0416500e-02
 -1.6721484e-01
  3.2604942e-01
 -1.3018705e-02
  4.6215916e-01
 -2.0500116e-01
  1.5886255e-01
 -7.0498914e-01
  3.7717605e-01
  4.1573182e-02
 -2.4451321e-01
  7.9904944e-02
 -6.3909549e-01
 -6.2184292e-01
  2.7792656e-01
 -6.6458233e-02
  4.0102986e-01
 -2.8355759e-02
 -3.4722561e-01
  4.3134621e-01
  3.2936119e-02
  7.9230934e-01
 -4.4594944e-01
  8.7754488e-02
  5.5279565e-01
  3.0170494e-01
 -1.3852850e-01
  8.2835600e-02
 -4.1730136e-01
  1.1793244e+00
  1.6293874e-01
  3.8591504e-01
 -5.0843060e-01
 -5.2340573e-01
  3.9655483e-01
  2.0036417e-01
  4.1498583e-02
  1.2921065e-02
  6.0112447e-01
  1.0802785e-01
  1.2576610e-02
  2.8413147e-01
  5.0086176e-01
 -2.4996862e-02
 -1.7131031e-01
  3.8778460e-01
  6.8420416e-01
  2.1802816e-01
  1.2271684e-01
  2.2183560e-01
  5.7755321e-02
  5.2402318e-02
  5.9737766e-01
  4.9554914e-01
 -3.7620747e-01
 -2.2082275e-01
 -3.2161778e-01
  5.4524618e-01
 -3.5978007e-01
  1.8856546e-01
  3.4728593e-01
 -2.9253483e-01
  4.6635929e-01
  3.5617236e-02
  3.8060105e-01
 -4.7822031e-01
 -3.4500912e-01
  4.3667689e-02
 -5.5820353e-02
  1.7574716e-01
 -6.2548608e-01
  6.9053078e-01
 -1.2457642e-01
  3.4473237e-01
 -2.0766042e-01
  1.3497379e-02
  1.2811022e-01
 -2.2667378e-01
  3.8062102e-01
 -4.0870085e-02
 -6.0462967e-02
  3.9651591e-01
 -2.0001833e-01
  5.1898174e-02
 -1.1540102e-01
 -3.8935995e-01
 -3.1412363e-01
 -1.2831080e-01
  1.8962660e-01
 -2.5698316e-01
 -1.1318569e-01
 -6.0242093e-01
 -1.0518316e-01
  1.6837801e-01
  4.0468234e-01
  2.2949572e-01
  9.5247641e-02
  4.7992468e-01
 -1.1746480e-01
 -3.6461341e-01
 -6.7576662e-02
 -2.0208406e-01
 -1.5578590e-01
 -1.0649896e-01
  2.1168850e-01
 -4.2265400e-02
 -1.3784561e-01
 -1.1174604e-01
 -5.2063441e-01
 -4.4771433e-01
 -3.7372240e-01
 -5.2928686e-01
 -3.9132379e-02
 -5.7256603e-01
 -6.6944703e-02
 -3.6003923e-01
  3.2631436e-01
 -3.7214267e-01
 -5.3622639e-01
  1.1075461e-01
  4.4706658e-02
  1.5682706e-01
 -1.1296947e-01
 -7.8928077e-01
  2.4196567e-01
  4.3718761e-01
 -1.9973688e-02
  3.9501059e-01
  1.3719617e-01
  1.5833722e-01
 -2.9349756e-01
  4.4547784e-01
  2.1918763e-01
 -7.3127814e-02
 -6.1066943e-01
  5.6962669e-01
  3.9712584e-01
 -1.9562298e-01
 -6.4047384e-01
 -6.8672352e-02
  1.2343280e-01
 -3.0068651e-02
 -1.3618803e-01
  5.0147986e-01
 -6.1239618e-01
 -4.2868876e-01
  4.5322698e-01
  6.8625611e-01
 -2.4519397e-01
  3.7640327e-01
 -5.4535709e-02
  1.6724077e-01
 -1.1924125e-01
 -1.5894952e-01
 -1.5523243e-01
  5.8861262e-01
 -6.7854069e-02
  7.3749071e-01
  8.3300859e-02
  3.5035139e-01
  4.5337486e-01
  7.7961870e-03
 -1.6088799e-01
 -1.4054184e-01
  4.4711977e-03
 -3.4918368e-01
 -4.1238379e-01
  2.9214102e-01
 -1.3600633e-01
 -2.6693031e-01
 -8.1008923e-01
  5.3154993e-01
  7.5463307e-01
 -2.2471072e-01
 -3.0834556e-01
  6.7674786e-01
  1.1383908e-01
  2.5347593e-01
  3.2098163e-03
 -7.5403839e-01
 -1.2304904e-01
 -2.7040550e-01
  1.6846564e-01
 -1.5445188e-01
 -3.5952654e-01
 -2.9887575e-01
 -2.6266122e-01
 -3.9675075e-01
 -2.0636335e-01
 -4.7261387e-01
 -7.4961913e-01
  7.0412457e-01
 -1.0004342e-03
 -2.4576913e-01
  5.7406347e-02
 -6.7801487e-01
 -5.7923079e-01
  6.1323559e-01
  8.6775303e-02
  2.8205982e-01
 -3.0627012e-01
 -2.7497476e-01
 -7.1579200e-01
  7.8929394e-01
 -8.7014362e-02
 -4.2657819e-01
 -1.4525329e-01
 -3.3453849e-01
  1.2600873e-01
 -2.9951054e-01
 -6.4802891e-01
 -1.3205583e-01
 -3.9246088e-01
 -3.4274447e-01
  4.0320101e-01
 -5.0513160e-01
  1.8001832e-01
 -5.4897231e-01
  2.5778139e-01
 -8.1947081e-02
  1.8455249e-01
  7.0061237e-01
  1.3926323e-01
  1.7289266e-01
  2.1587715e-01
 -4.1296926e-01
 -2.7169847e-01
 -5.3927487e-01
 -1.7842144e-01
  1.5588236e-01
  6.4868826e-01
  1.3551164e-02
  3.1680220e-01
  1.6716991e-01
  8.9315459e-02
 -8.0888212e-02
  4.0996647e-01
  7.4096459e-01
  6.2577561e-02
  3.5656434e-01
 -5.2355777e-02
 -2.1391925e-01
  1.6879027e-01
  2.4734056e-01
  3.9961174e-01
 -1.9364741e-01
 -8.4815249e-02
 -2.9355884e-01
  4.0407389e-02
 -2.7865797e-01
  7.7283168e-01
  3.6268026e-01
 -8.1149691e-01
  2.6473847e-01
 -2.3704311e-01
  1.8724337e-01
  1.6645429e-01
 -1.4444296e-01
 -1.6186193e-01
  3.9873779e-01
  1.0060571e-01
  1.6699649e-01
  1.0122867e+00
 -7.4943073e-02
  3.8831842e-01
  2.0081687e-01
  6.7100361e-02
  1.0324702e-01
  5.4760385e-01
  7.5211924e-01
 -1.7402351e-01
 -4.8637863e-02
  7.4385636e-02
 -4.0126863e-01
 -1.1768641e-01
 -8.6428821e-01
 -1.6654179e-01
  8.7769717e-02
  1.2460856e-01
 -1.4535365e-01
 -5.3116721e-01
 -1.3103856e-02
 -2.8478658e-01
 -2.2117645e-01
 -1.2516113e-01
 -5.0655365e-01
  3.3573061e-01
 -2.9468015e-01
 -2.4436302e-01
  2.7492726e-01
  1.5730232e-01
 -7.8163356e-02
 -1.5292664e-01
  4.2391542e-01
 -4.3120241e-01
 -2.8239092e-01
  3.1570956e-02
  2.1978465e-01
 -2.7308413e-01
 -3.6390463e-01
  2.8789833e-01
 -4.5629650e-01
  2.8357503e-01
  1.9249177e-01
  5.5346179e-01
 -8.2356885e-02
  8.1857681e-01
  5.6835276e-01
  3.2130593e-01
  4.5856678e-01
  5.2462000e-01
  3.4750670e-01
  1.6704437e-01
 -3.7136459e-01
  3.7384224e-01
  6.3712972e-01
 -6.8254143e-02
 -4.3346950e-01
 -2.4488896e-02
 -2.7408189e-01
 -8.3948746e-02
  1.6162887e-01
  3.8342327e-03
 -6.6735573e-02
 -2.1685559e-01
 -4.0897736e-01
 -1.0099824e-01
  3.1869113e-03
 -2.9914731e-01
  8.6982328e-01
  2.2546491e-01
 -2.8853709e-01
 -1.6047911e-01
 -2.1105313e-01
  5.2594846e-01
  3.2370418e-02
 -6.4516701e-02
 -3.5742098e-01
  3.0509707e-01
 -1.1157930e-02
  6.6000059e-02
  5.1825970e-01
 -1.5683261e-01
 -1.8790737e-01
 -1.1239555e-01
 -4.0036297e-01
 -4.2062551e-02
 -1.4130476e-01
 -2.6435873e-01
  1.8562621e-01
  1.8070889e-01
 -2.6361585e-01
 -3.7654018e-01
 -9.0168998e-02
  3.0420679e-01
  3.4331509e-01
 -1.9128150e-01
  6.2029377e-02
 -1.1205207e-01
  3.5522023e-01
 -2.0842671e-01
 -7.4632235e-02
 -4.2850611e-01
 -1.1552759e-01
  9.8539937e-01
 -7.2133079e-02
  5.1827049e-01
 -5.8551732e-02
  4.5230904e-01
 -3.7717316e-01
  3.3950835e-01
  1.3280690e-01
 -7.5958520e-01
  5.6856580e-02
  4.3383682e-01
  3.2080138e-01
 -5.6169218e-01
 -5.2060199e-01
 -6.0758479e-02
  3.9825982e-01
 -1.9316192e-01
  3.9892027e-01
 -8.7533399e-02
  6.4738476e-01
 -8.7130360e-02
 -4.3579817e-01
 -6.3874519e-01
 -3.4030911e-01
 -3.9878410e-01
  5.7314730e-01
  2.0582460e-01
 -5.0527805e-01
  1.1559960e-01
  2.1220468e-01
  3.4072888e-01
  1.5442812e-01
 -1.0980227e-01
 -2.1686351e-01
  4.2331547e-01
  2.6146615e-01
  3.2055426e-01
  7.3837245e-01
  8.2972899e-02
 -2.4711896e-01
  2.1779643e-01
  2.2160371e-01
  1.9079736e-01
  5.5850166e-01
 -4.4448045e-01
  3.4849751e-01
 -1.2754026e-01
 -1.1331052e-01
 -1.6361993e-02
 -1.9149035e-03
  2.4993479e-02
 -7.0398852e-02
 -2.6520669e-01
  6.6565257e-01
 -2.8363928e-01
  3.7438989e-01
 -2.7244002e-01
  3.4841457e-01
 -3.6469781e-01
  3.1876618e-01
  5.4909194e-01
 -4.7740817e-01
  2.6352128e-01
 -7.3893380e-01
 -4.1103229e-02
 -2.9345527e-02
 -1.0322423e-01
  3.2756895e-01
  1.9434133e-01
  3.5260651e-01
  3.8679576e-01
  5.1032639e-01
  2.0059203e-01
 -5.2190103e-02
 -3.0361181e-01
  7.7418369e-01
  7.0065910e-01
 -5.7757497e-01
 -4.7424531e-01
 -4.3583521e-01
 -5.6732744e-01
 -2.3270603e-01
  1.6142921e-01
  2.6234329e-01
  6.8115884e-01
 -1.8399364e-01
 -8.1315197e-02
  3.5290024e-01
  5.6596678e-01
 -1.5922950e-01
 -2.2162676e-01
  3.4916496e-01
 -1.4036439e-01
 -1.8044372e-01
 -4.9645830e-02
 -1.3433605e-01
  1.6568340e-01
 -1.9628347e-01
  3.9914063e-01
 -2.6202518e-01
  3.4539577e-01
 -3.6226803e-01
  2.2583014e-01
  3.6684975e-01
 -2.9425278e-01
  4.2119575e-01
 -3.5902548e-01
 -2.2285661e-01
  8.6328000e-01
  3.1771508e-01
 -1.3919389e-03
  5.2403912e-02
 -2.2838295e-01
 -1.0925721e-01
  3.5376155e-01
 -1.2266155e-01
 -3.6139765e-01
  1.1709778e-01
  2.7509719e-01
 -4.8146218e-01
  1.1132300e-01
 -2.0178877e-01
 -1.3278770e-01
  1.6725171e-02
  8.1340618e-02
  1.8683147e-01
 -2.9095453e-01
 -2.0638834e-01
 -1.2442467e-01
 -1.6113156e-01
 -9.9745423e-02
 -1.7402388e-01
 -7.8055792e-02
 -5.6193286e-01
 -1.1735068e-01
 -5.6965435e-01
 -2.7807936e-01
  2.5847650e-01
 -7.4466830e-01
 -1.1391344e-01
 -5.4916210e-02
  2.2209820e-01
  4.5820150e-01
 -2.7682173e-01
 -6.9096255e-01
  3.9265844e-01
  4.3924487e-01
  1.5791479e-01
 -5.6321067e-01
  2.2527952e-01
 -1.9377570e-01
 -7.2980767e-01
  2.7422738e-01
  3.3881775e-01
 -5.6778544e-01
 -3.1437328e-01
  7.6867890e-01
  1.1310527e-01
  2.3045045e-01
 -4.0358248e-01
  1.2665847e-01
 -7.1768172e-02
  5.0906664e-01
  3.5237861e-01
  5.9486657e-01
 -2.8103361e-01
  2.6627386e-01
  7.8204006e-01
  7.5285125e-01
  4.3323201e-01
 -2.3145396e-01
  5.9307241e-01
  3.2975447e-01
 -3.1631932e-01
  3.3244962e-01
  6.4461064e-01
 -1.1299593e-01
 -9.0855199e-01
  5.3898203e-01
  3.3547997e-01
 -4.3267578e-01
  2.3213992e-01
 -1.5513836e-01
  7.0757121e-01
  3.1169498e-01
 -6.3024896e-01
 -2.7710146e-01
  2.3289981e-01
 -6.8962127e-02
 -2.7417371e-01
  3.4236145e-01
 -3.1397581e-01
 -3.5926598e-01
 -4.1259801e-01
  6.9198650e-01
 -2.6106125e-01
 -3.7374556e-01
  1.8531294e-01
 -4.9409187e-01
 -6.7038620e-01
 -1.2240178e-01
 -4.4739842e-03
 -2.3179613e-01
  7.5725996e-01
  2.9288195e-02
  4.3374392e-01
 -4.2811117e-01
 -5.0077826e-01
 -1.1951577e-02
 -4.5728844e-02
 -9.8869197e-02
  3.9033106e-01
  6.8302816e-01
  2.4451758e-01
 -3.5989740e-01
  5.1116586e-02
 -2.6322454e-01
  1.3049406e-01
  3.5193545e-01
  1.4770167e-01
  9.5666653e-01
  3.6010331e-01
 -5.2209032e-01
  1.1527865e-01
 -4.6395573e-01
  7.1555817e-01
  3.9538613e-01
 -1.8899386e-01
  3.2871079e-01
  3.5520655e-01
  3.3583361e-01
 -4.7106183e-01
  3.5998848e-01
  4.7758818e-01
  4.7349215e-01
  2.5459427e-01
 -3.5160971e-01
 -5.9317017e-01
  3.9506719e-01
 -7.6630026e-01
 -9.0859517e-02
  2.4778688e-01
  2.8761618e-02
 -1.8515755e-01
  5.0629681e-01
 -5.4118997e-01
  2.9521295e-01
  2.0718038e-01
  2.1197009e-01
 -6.9685802e-02
  5.7082051e-01
 -1.4357023e-02
  4.7039399e-01
  3.4093201e-02
  4.8349524e-01
 -7.9989873e-02
 -2.7712819e-01
 -3.5156062e-01
 -4.0195912e-01
 -4.6480888e-01
  3.5327393e-01
  2.7119851e-01
 -7.8966027e-01
  4.9596944e-01
  3.0669895e-01
  4.2150563e-01
 -1.9750640e-02
  4.0457466e-01
 -1.1648294e-01
  3.2983381e-02
 -1.9723254e-01
  5.0268549e-01
 -2.3566781e-01
  1.8321797e-03
 -3.2434285e-01
 -6.6699153e-01
 -4.2544574e-01
 -3.3766127e-01
 -7.7597864e-02
  3.8141918e-01
 -2.8643429e-01
  2.3459898e-01
  3.3772367e-01
  6.2190819e-01
  9.0187550e-01
 -2.5159267e-01
 -1.0509715e-01
  2.1349421e-01
  2.9873076e-01
 -1.3869655e-01
  1.8410183e-02
 -5.1393253e-01
 -8.6618930e-02
  6.1760686e-02
 -3.3616090e-01
 -2.6569536e-01
 -5.2781266e-01
 -9.5805705e-02
  2.1797432e-01
  2.1381637e-01
 -2.0806246e-02
  7.2415695e-03
  6.0600591e-01
 -9.2270356e-01
 -2.3409517e-01
  2.9368255e-02
  3.4448203e-01
 -3.7825871e-01
 -3.9556462e-01
  7.6610453e-02
  2.1220511e-01
  4.1808066e-01
  4.9997054e-02
  9.2720985e-04
  7.1036536e-01
 -1.3753085e-01
  2.0423065e-01
 -1.4208972e-01
  1.1891261e-02
  5.5665445e-01
 -4.1927196e-02
 -3.1097722e-01
 -3.0817381e-01
 -2.0801038e-01
  2.9887557e-01
  2.8391024e-01
  3.7990180e-01
 -2.4855334e-01
 -1.5133165e-01
  1.3695762e-02
  3.4609642e-02
 -4.3834254e-01
 -7.5036213e-02
 -5.5368632e-01
 -4.4882160e-01
 -7.9869550e-01
 -4.2589071e-01
 -4.4813552e-01
 -2.1150354e-01
 -4.9449706e-01
 -1.9179426e-02
  8.3199106e-02
  1.4786908e-01
  5.4260343e-01
 -7.3306978e-01
  5.6147164e-01
  3.7487015e-01
 -2.2987880e-02
  1.1994201e-01
 -2.7079448e-01
  2.7961740e-01
 -6.8362266e-01
 -1.3991749e-01
  2.0267196e-01
 -1.2223770e-01
  1.5777180e-01
 -1.6046296e-01
 -2.3148730e-01
 -3.7327409e-03
 -1.9330099e-01
  8.5492384e-01
 -2.4758941e-01
  5.8304563e-02
 -5.1690626e-01
 -4.7634862e-02
  4.5407161e-01
  1.6252160e-01
 -4.5209146e-01
 -5.4755861e-01
  7.5201958e-01
  9.4654046e-02
 -5.0456822e-03
  1.4475361e-03
  5.7817715e-01
  1.5552554e-01
 -9.1946584e-01
  7.3181033e-02
 -9.1916397e-02
  1.8728290e-01
  5.5456465e-01
  5.1468092e-01
  2.9151031e-01
 -2.1392667e-01
 -2.0472524e-01
  6.3795656e-01
  9.4086617e-02
 -4.1091454e-01
  3.5953531e-01
 -1.0244085e-01
 -4.4551158e-01
 -4.8354912e-01
 -5.0041848e-01
 -1.6507593e-01
  3.3310702e-01
  2.4090837e-01
 -1.8311816e-01
 -2.0604476e-01
 -3.4953308e-01
  3.0843714e-01
 -3.5891420e-01
 -2.4915831e-01
  5.8630490e-01
 -2.5170001e-01
  8.9320999e-01
 -3.0417547e-01
  2.2347119e-02
  1.5593834e-02
  4.5855594e-01
 -2.4702480e-01
 -3.4493119e-01
 -1.3815633e-03
 -3.2195437e-01
 -2.8017601e-01
 -1.5797810e-01
  3.0945465e-01
 -5.0500989e-01
  3.6408415e-01
  1.5730652e-01
  4.4073629e-01
  2.2147819e-01
 -4.9150783e-01
  4.9493051e-01
 -5.6043237e-02
 -1.7274402e-02
 -2.4746114e-01
  4.1046339e-01
  2.4665877e-02
  1.4295883e-02
 -6.4011663e-01
  1.7827570e-01
 -1.0764460e-01
  1.4004415e-01
  3.1092870e-01
 -1.8060228e-01
  3.7494814e-01
 -2.5923911e-01
  7.5270045e-01
  3.6647186e-01
  2.2403501e-02
 -1.5073556e-01
  9.7708136e-02
 -1.4131396e-01
 -8.2696515e-01
  1.8919787e-01
  1.1498202e-01
  5.5704731e-01
 -3.2005841e-01
  1.4216843e-01
  2.7421141e-01
 -3.0416280e-02
  7.5656897e-01
  5.8260933e-02
 -7.5248867e-01
  1.4878249e-01
  8.8108933e-01
  3.1898186e-01
 -3.9358634e-01
  3.6702645e-01
  7.9537135e-01
 -3.0733907e-01
  1.2270472e-01
  3.4671050e-01
  8.1449068e-01
 -5.0230092e-01
  3.6660892e-01
 -4.1569811e-01
  4.7853324e-01
 -4.2106833e-02
  5.1610723e-02
  2.2379857e-01
 -9.0919715e-01
 -1.7057399e-01
  3.7585560e-02
  9.5019042e-02
  2.8710833e-01
  7.7654684e-01
 -7.3563710e-02
 -5.1214004e-01
 -9.9636599e-02
  2.7490744e-01
  5.7957500e-01
 -1.8612552e-01
  2.1228904e-01
  1.7929272e-01
 -5.3349221e-01
  3.2052708e-01
 -2.8007182e-01
  3.7730643e-01
 -4.2019255e-02
 -4.1497700e-02
 -5.1446670e-01
 -4.0488863e-01
 -8.2957394e-02
  1.0686344e-01
  4.2982364e-01
  8.7161683e-02
 -4.9179959e-01
  2.0305954e-02
 -1.2080015e-01
 -2.9722252e-01
 -1.2925911e-01
 -1.8356274e-01
 -3.1946158e-01
  1.5295613e-01
  3.6362284e-01
  1.4616367e-01
  3.2380962e-01
 -6.0734415e-01
 -5.1781660e-01
  4.4677210e-01
  3.1097946e-01
  4.0771100e-01
  1.8890415e-01
 -6.0585111e-01
 -2.0509857e-01
 -6.2894261e-01
  1.3601479e-01
 -1.7669491e-02
 -3.1785719e-02
  3.8868549e-01
 -4.9283355e-01
 -2.6475495e-01
 -3.2742816e-01
  7.0960420e-01
 -3.0532509e-01
  3.1521308e-01
  2.9895240e-01
 -3.9720544e-01
  3.8504767e-01
  5.5937871e-02
  9.8810665e-02
  3.3188653e-01
  4.3615851e-01
  3.4265125e-01
 -8.5298769e-02
 -1.0423332e-01
 -3.4531948e-01
 -1.9320007e-01
 -2.3418084e-01
 -3.4584177e-01
  1.3864481e-01
 -1.6246967e-01
 -7.7004349e-01
  7.7968985e-01
 -7.9054371e-02
 -4.0106052e-01
 -2.8200853e-01
 -6.1138791e-01
  2.1580228e-01
 -4.9887910e-02
 -4.0870756e-02
  9.8381136e-03
  7.2821701e-01
  2.3027247e-01
  2.0878392e-01
  4.8947036e-01
 -9.8907292e-02
  2.0554447e-01
  5.7591188e-01
  3.6270232e-03
 -4.0989113e-01
 -5.4117078e-01
 -1.4611077e-01
  1.4670590e-01
  8.2397270e-01
  5.2522689e-01
  3.0439410e-01
  4.7087651e-01
  1.6010502e-01
 -2.1078886e-01
  1.3566931e-02
  2.5770754e-02
  3.3200628e-01
 -1.7484915e-01
 -2.2880785e-01
 -1.8195376e-01
  1.6720462e-01
  8.0142304e-02
 -2.1247202e-01
 -4.6844053e-01
  4.6446174e-01
  7.4560744e-01
  1.4482990e-01
  1.1828484e-01
  1.0654573e-01
  7.3608589e-01
  6.5421438e-01
 -1.1587570e+00
  1.0557934e-01
 -1.2369450e+00
 -8.3497280e-01
  9.1832709e-01
 -4.8862088e-01
 -2.3759592e-01
 -7.6585829e-01
  1.3911575e-01
 -2.3666640e-01
 -5.4395720e-02
  1.0158050e+00
  5.5648446e-01
 -4.8341292e-01
  2.0643197e-01
 -3.6279482e-01
  4.5629270e-02
 -5.5976069e-01
  7.5496399e-01
 -2.7198589e-01
 -2.6558390e-01
 -3.9058480e-01
 -4.8318693e-01
  4.9155939e-02
  3.5336536e-01
 -3.7231791e-01
  9.7600818e-01
  5.8968586e-01
 -5.2179426e-02
 -3.1342164e-01
 -6.2885582e-02
  9.7981840e-02
  2.9406360e-01
 -8.6029977e-01
 -3.3563942e-01
 -2.2022992e-01
  5.0791204e-01
  6.6690338e-01
 -1.0783054e+00
  3.1558862e-01
 -1.2721666e+00
 -1.5021724e-01
  6.5253816e+00
  4.6159446e-01
 -5.3763222e-02
  5.6632209e-01
  4.2526191e-01
  2.7924633e-01
  1.4670111e-01
  4.9375135e-01
  4.3055609e-02
 -8.9765444e-02
  2.5249076e-01
 -2.5095093e-01
 -6.0137612e-01
  4.3019408e-01
 -6.3387260e-02
 -3.6921695e-01
 -3.9890677e-02
 -7.7414644e-01
  1.0560881e-01
  5.0372708e-01
 -4.9181843e-01
  2.8101939e-01
  4.2425919e-01
  3.4143418e-01
 -3.9402765e-01
  2.3857246e-01
 -3.3492041e-01
 -4.0121719e-01
 -4.9498969e-01
  4.2344427e-01
 -1.4552179e-01
 -4.6707216e-01
 -4.6489641e-01
  4.0730961e-02
  2.0375857e-01
  3.1817511e-01
  4.1049045e-02
 -1.5786433e-01
  4.5921078e-01
  2.6963118e-01
  6.6410345e-01
  5.6610815e-02
 -5.3058919e-02
 -1.6974756e-01
 -5.0014251e-01
 -3.5453570e-01
  3.2610130e-01
 -1.7527479e-01
  1.0608339e-01
  2.1899709e-01
  4.7218433e-01
 -4.6961349e-01
  5.8052236e-01
 -3.2596877e-01
 -1.5189672e-01
  2.2148368e-01
  1.9428277e-01
  4.6439499e-01
  5.2017885e-01
  2.0991085e-01
 -3.6896545e-01
  2.0187426e-01
  3.4873414e-01
  1.9558707e-01
  3.3202049e-01
 -5.9598017e-02
 -1.9927645e-01
 -6.1717463e-01
 -5.3343201e-01
  1.7210317e-01
  1.0260940e-02
 -2.4781470e-01
  6.2968522e-01
  1.8997045e-01
 -3.5421541e-01
 -4.0122874e-02
  5.9250909e-01
 -5.7431704e-01
 -3.9062306e-01
 -1.8637721e-01
  5.6142962e-01
 -5.2797562e-01
 -1.1503723e-01
 -9.1920078e-02
  4.5211762e-01
  8.0032659e-01
 -3.6188045e-01
 -2.7866027e-01
 -8.8295147e-02
 -1.3250566e-01
  5.5031466e-01
 -3.0165547e-01
  1.3678688e-01
 -1.3783985e-01
  4.0326813e-01
  4.7633868e-01
  5.1567316e-02
  1.6560008e-01
 -3.2385555e-01
 -5.7119705e-02
 -2.1672472e-01
  4.2494172e-01
  1.8259959e-02
 -4.6071553e-01
 -4.3667105e-01
 -4.3621773e-01
  3.0520341e-01
  3.0992472e-01
  3.2455665e-01
  7.1010101e-01
 -2.2215986e-01
  1.5690161e-01
 -5.6211853e-01
 -6.6763109e-01
  1.7583077e-01
  6.0460424e-01
 -4.1881299e-01
 -7.6009631e-01
  5.8324907e-02
 -4.2503980e-01
 -3.5571271e-01
 -2.4390309e-01
 -1.6325824e-01
 -2.5162259e-01
 -7.6900072e-02
 -4.1592911e-01
 -1.1200309e-03
  1.8505153e-01
  4.0508536e-01
 -3.0544043e-01
 -1.7175826e-01
 -2.5834244e-01
 -1.3942130e-01
  2.4370423e-01
  3.8025945e-01
  1.5329017e-01
  1.6306312e-01
 -7.8144133e-02
 -3.2964297e-02
 -4.7492656e-01
  4.6755111e-01
 -6.4037263e-01
 -3.6845782e-01
 -4.4777013e-02
  5.1793966e-02
  1.5206322e-01
 -2.0320332e-01
 -6.5646297e-01
 -5.9630293e-01
  2.0856768e-01
  1.0090353e-01
  1.1719264e+00
  1.1327796e-01
 -4.0153316e-01
  2.8505376e-01
  4.4478408e-01
 -4.4856691e-01
  3.9327216e-01
  1.8005006e-01
 -3.9930069e-01
 -2.0843454e-02
  3.9253494e-01
 -3.6273271e-02
 -3.8467425e-01
 -1.9600889e-01
 -3.4571156e-01
  1.3363609e-01
  2.9743493e-01
  3.1933182e-01
 -1.9051154e-01
  1.5973505e-01
 -2.0279282e-01
  3.9530364e-01
  3.2207526e-02
 -2.3196861e-02
 -2.7324373e-01
 -2.4497265e-01
  1.8232156e-01
 -4.8086539e-01
 -2.3296672e-01
 -6.4753205e-01
 -6.2765729e-01
 -2.7543899e-01
 -5.2651149e-01
 -2.4344473e-01
  1.0491154e-01
  5.7505339e-01
 -2.9513755e-01
 -8.1215836e-03
 -1.3624865e-01
  1.5116490e-01
  4.2918789e-01
  3.6736229e-01
 -1.1627357e-01
  9.6428983e-02
 -3.5430074e-01
 -6.3051635e-01
  2.1032266e-01
 -6.3127682e-02
  6.6305143e-01
  4.6465290e-01
 -2.8211558e-01
  1.1214113e-01
  8.5229087e-01
 -1.2985921e-01
  6.3499051e-01
 -1.8903695e-01
 -3.7161976e-01
  1.2865020e-01
  3.7312947e-02
 -7.6413490e-03
 -1.6328962e-01
  4.5843410e-01
  2.3756072e-02
  2.2212125e-02
 -2.0462945e-01
 -1.4489388e-01
  5.1609129e-02
  2.1008506e-01
  2.5948963e-01
  1.5912485e-01
 -1.3818751e-01
  4.9025136e-01
  6.0278249e-01
  2.4267516e-01
  6.0609542e-03
  2.3277862e-01
 -1.2280984e-01
 -3.7020527e-02
  1.9626158e-01
 -2.5235984e-01
 -2.8047228e-01
 -2.1137556e-01
  2.4393176e-01
 -7.8998268e-02
  2.8248283e-01
  4.1370153e-01
  9.8959655e-02
 -2.8105015e-01
 -5.2951254e-02
  2.2162589e-01
  1.2240967e-01
  1.5995872e-01
 -3.9905977e-01
 -2.0566249e-01
 -3.4993377e-01
 -1.2066077e-01
 -1.8287575e-01
 -4.0606195e-01
 -1.4776964e-01
  2.8752425e-01
 -1.0498521e-01
 -4.6395528e-01
  1.0243318e-01
  1.7893429e-01
 -6.3300508e-01
  3.7713024e-01
  2.2114557e-01
  5.1639056e-01
  3.9485213e-01
  2.5653189e-01
 -1.0031983e-01
 -3.0777225e-01
 -4.6278036e-01
 -1.5517144e-01
  3.8642094e-01
 -3.9834929e-01
 -2.9226881e-01
 -9.4715461e-02
 -2.6617530e-01
 -4.5173877e-01
 -1.4964692e-01
 -6.2502086e-01
  6.5929937e-01
  5.2626872e-01
 -6.1946851e-01
  1.5189934e-01
  6.1578578e-01
  5.9095407e-01
 -4.1959083e-01
  1.8988025e-01
  3.4469473e-01
 -6.8866527e-03
 -1.1505529e-01
  3.2333332e-01
  5.0670236e-01
  1.1510392e-01
  2.6788130e-01
  1.4965993e-01
  1.9938937e-01
  1.3335565e-01
 -4.6038511e-01
  8.9952700e-02
  6.9247031e-01
  1.1790850e-01
  8.7651134e-01
 -3.9357036e-01
  3.1350023e-01
 -1.6001356e-01
  3.7700236e-01
 -7.2945291e-01
 -4.9329896e-02
 -3.6883897e-01
  2.0414895e-01
  1.5417179e-01
  2.6757434e-01
 -4.6342164e-03
  4.3259919e-01
 -4.3762028e-02
 -2.3592591e-01
  1.5085860e-01
 -3.1137636e-01
  3.8419798e-01
 -6.5628447e-02
 -2.7039540e-01
  2.1070300e-01
  3.1160185e-01
 -3.6615083e-01
 -3.4156725e-01
  1.8659863e-01
 -2.5212118e-01
 -2.4499729e-01
  7.6142505e-02
 -1.9742590e-01
  1.8596079e-02
 -3.5428807e-01
 -2.3256548e-01
 -3.2105237e-01
 -5.2770180e-01
  3.5689270e-01
 -2.0080669e-01
  2.2249192e-01
  6.9162473e-02
 -7.6007351e-02
 -3.9810643e-02
  2.4350178e-01
 -1.4587992e-01
  2.9960683e-01
  1.9293848e-01
 -3.1317225e-01
  1.9085791e-02
  2.7396503e-01
  8.0469579e-02
  7.1514323e-02
  7.8647412e-02
 -3.7690824e-01
  4.9597427e-02
 -1.3298151e-01
 -1.4538862e-01
  5.2401853e-01
  3.3584106e-01
  3.8011923e-01
  1.7519835e-02
 -1.0249159e-01
  2.3415568e-01
  7.2567254e-02
  1.2280747e-02
  4.1772038e-01
  7.6322302e-02
 -2.1596178e-01
 -2.4836564e-01
  4.6386871e-01
 -2.6913762e-01
  4.9174979e-01
  3.5930425e-01
 -3.8714135e-01
 -1.9800358e-01
 -3.7102211e-02
  2.5380760e-01
 -1.7206842e-01
 -8.8797843e-01
 -3.8844794e-03
 -3.8239196e-02
  4.5198359e-02
 -5.0768316e-02
  4.5128044e-01
  4.4059426e-01
  6.2568641e-01
 -3.3345290e-02
  2.8669897e-01
 -3.2130396e-01
 -4.4193849e-01
 -2.2473842e-01
  8.5809588e-02
 -2.3079355e-01
  2.8505543e-01
 -3.4467244e-01
  2.5292370e-01
 -3.7306175e-01
  2.7841058e-01
  7.4938014e-02
  3.2936585e-01
  3.6673453e-01
 -1.4550561e-01
 -7.8338385e-02
  2.1893083e-01
 -3.6749268e-01
 -1.9996166e-01
 -1.9484907e-01
 -7.1389385e-02
 -1.3682105e-01
  4.9239618e-01
 -3.9075518e-01
  7.2954059e-02
 -7.3871806e-02
  1.7688230e-01
 -4.7771603e-02
 -1.3193357e-01
 -3.7548763e-01
  6.4991230e-01
 -1.0969203e-01
 -2.5920564e-01
 -1.9378830e-02
 -3.7761775e-01
  5.6140530e-01
  8.7201148e-01
 -2.8302872e-01
  9.7055562e-02
  6.9471860e-01
  7.3191382e-02
 -2.5886914e-01
  3.3785862e-01
 -2.4099973e-01
  3.3533072e-01
  1.2740001e-01
 -1.0030589e-01
 -8.0529772e-02
  8.5827678e-02
 -3.0829710e-01
  3.5212222e-01
  7.3527604e-02
 -1.1360808e-01
  3.6536545e-02
 -4.6644580e-01
 -2.6554203e-01
 -7.8906357e-01
  3.1117746e-01
  1.4459392e-01
 -1.5453087e-01
 -2.4096853e-01
  1.1845732e-01
  1.1301887e-01
  3.9459684e-01
  7.1877003e-02
 -4.0471646e-01
 -3.6228299e-01
  5.4747814e-01
 -5.3217912e-01
  1.9584726e-01
 -7.9434730e-02
  7.5848497e-02
  5.2524018e-01
 -3.4366980e-01
  6.3971698e-01
 -4.4841251e-01
 -4.4987726e-01
 -7.4661821e-01
  1.2495705e-01
 -4.9966258e-01
  9.4268024e-02
  4.7239119e-01
  5.0695568e-02
  1.3855116e-01
 -1.2686136e-01
 -9.5764059e-01
  2.9595065e-01
  5.5369300e-01
 -4.0513593e-01
 -3.3981520e-01
 -9.2617261e-01
 -2.1501991e-01
  5.1020801e-01
 -2.9637054e-01
 -3.1943855e-01
 -8.1035942e-03
 -2.3483379e-01
  4.0202916e-02
 -7.5416982e-02
  1.3180031e-01
 -3.6186495e-01
  1.6116916e-01
 -1.6629040e-02
 -8.8311082e-01
 -2.7328289e-01
  3.8275376e-01
 -3.6336437e-01
 -2.4171393e-01
  5.5134368e-01
 -4.5102453e-01
  6.1856311e-02
  2.0368998e-01
  8.3501227e-02
 -2.6477730e-01
 -4.6190354e-01
 -1.0025637e-01
  3.4125459e-01
 -1.0463396e-01
 -1.5860017e-02
  2.5561783e-01
 -2.6535389e-01
  4.6212107e-01
 -1.2670101e+00
 -2.2423315e-01
  3.2642335e-01
  2.7462441e-01
 -2.9613185e-01
 -1.3111353e-01
  2.1411033e+00
 -1.9675210e-01
 -4.9813378e-01
  8.7932736e-02
 -5.4810208e-01
 -9.7325318e-02
  6.4274020e-02
  5.6580611e-02
 -6.5213960e-01
  1.4398485e-02
 -5.8058125e-01
  5.4978800e-01
  1.0671561e+00
  1.8532853e-01
  2.5020030e-01
 -5.4860029e-02
  4.3649018e-01
  1.2168665e-01
  2.0056322e-02
 -1.1943403e-01
  7.2092134e-01
  5.4835403e-01
  3.3143854e-01
 -6.8842262e-02
 -6.2428959e-02
 -2.7060229e-01
  7.8136253e-01
 -2.2891948e-01
 -5.1378645e-02
  4.9254012e-01
 -3.7228787e-01
  6.4495534e-02
 -1.2054108e-01
  8.3801046e-02
  3.3019549e-01
  7.5682469e-02
  2.5618438e-02
 -7.1965826e-01
 -8.4429823e-02
  5.2910757e-01
  4.4101927e-01
  3.1357430e-02
 -1.0738674e-01
 -1.8368691e-01
 -9.8318376e-02
 -4.9078503e-01
  2.1972050e-01
 -3.9955801e-01
  9.2738226e-02
  7.5556225e-01
 -4.6071923e-01
 -2.7978685e-02
  2.2886917e-03
  4.7708642e-01
 -1.5162808e-01
  1.4754568e-01
  4.2941287e-01
  3.1021973e-01
 -2.9175809e-01
  7.2022468e-02
  3.3173493e-01
 -3.2834065e-01
  1.8656126e-01
  7.9332113e-01
  4.1745317e-01
  2.1462688e-01
 -4.4446558e-01
 -2.9903889e-01
 -4.2768896e-01
 -5.2285147e-01
  1.5155233e-01
  4.2844123e-01
 -2.6517668e-01
  1.2070734e-01
 -1.8534288e-01
  1.5525720e-01
 -3.1662416e-01
 -4.2864895e-01
  2.7883086e-02
 -3.0666980e-01
  8.2920611e-02
 -4.4866818e-01
 -1.8073287e-02
  4.8305237e-01
 -5.5377942e-01
 -6.0439783e-01
 -1.2010235e-02
 -2.0906415e-02
 -1.4024219e-01
 -7.6473057e-03
 -1.5437257e-01
  2.4436790e-01
  4.6104670e-01
 -1.9187813e-01
 -4.2223933e-01
 -4.5789352e-01
  3.1133687e-01
  4.9784493e-01
  1.7314456e-01
 -2.5018159e-01
  4.4741958e-01
 -6.1787897e-01
  3.9139271e-01
 -1.7472920e-01
 -1.3568246e-01
 -4.1894543e-01
 -3.6296910e-01
 -6.3296926e-01
  1.5160714e-01
  3.2573199e-01
 -3.8654264e-03
 -7.2707012e-02
 -5.6965464e-01
  7.6158810e-01
  2.9761016e-01
  5.5614531e-01
  2.5271368e-01
 -1.9132884e-01
  8.3463478e-01
 -9.7899795e-02
 -1.4971747e-02
 -3.8965389e-01
 -5.2050412e-01
 -9.2698708e-02
  5.0044143e-01
  3.1132904e-01
  4.4340193e-01
 -1.2577513e-01
 -4.2179596e-01
 -5.8621418e-01
  9.0311110e-01
 -5.0879848e-01
 -1.6604677e-01
 -2.3322962e-03
 -1.0926733e-01
 -3.4388277e-01
  5.5711281e-01
  4.3598580e-01
  9.7430193e-01
 -2.2469845e-01
 -1.3484725e-01
  8.5436471e-02
 -3.9924344e-01
 -2.0095280e-01
 -1.0909326e-01
 -4.4154946e-02
 -8.9322589e-03
  2.5902459e-01
 -4.8504360e-02
  2.6304907e-01
  1.0428079e+00
 -4.9902090e-01
 -6.9388485e-01
  1.6543025e-01
  2.3385096e-01
 -7.9888159e-01
  9.3242073e-01
  2.7451950e-01
 -1.3415925e-01
  1.0382457e-01
 -5.6602484e-01
  1.3579933e-01
  3.7847131e-01
  8.1141047e-02
 -7.5564831e-01
 -2.9558083e-01
  8.3234781e-01
 -1.5252370e-01
  2.7639356e-01
 -1.4261700e-01
  1.0069356e+00
 -3.8780156e-01
 -2.7827513e-01
 -2.2823676e-01
  1.1612314e+00
 -9.6597439e-01
  5.4536378e-01
  5.1925886e-01
  1.5087423e-01
  1.5093166e-01
  3.9705262e-02
  5.8216667e-01
  8.6880699e-02
  3.6187086e-01
 -2.5234932e-01
  2.3358950e-01
  4.4426769e-02
  1.9384018e-01
 -4.3661156e-01
 -9.7551510e-02
  7.6104712e-01
 -8.5199356e-01
 -4.8998654e-01
  4.5246860e-01
  1.3045822e-01
  4.0035285e-03
 -7.1251309e-01
  2.8944850e-02
  5.5808914e-01
  6.7041451e-01
  1.8073848e-01
 -2.8180501e-01
  7.2643381e-01
 -6.7778605e-01
  7.5914329e-03
 -2.2186190e-02
 -2.4556608e-01
 -6.9116467e-01
 -1.0307896e+00
  2.6284486e-01
 -4.6732497e-01
 -9.6475190e-01
  2.9916781e-01
  3.1340438e-01
  7.1207792e-01
 -2.6590756e-01
  3.9969209e-01
  3.3518207e-01
 -3.6636335e-01
  6.7850828e-01
 -3.7530160e-01
  4.1677248e-01
  1.6621026e-01
  1.6929604e-01
 -8.1311667e-01
 -8.9134946e-02
  3.0823159e-01
  6.9756821e-02
 -7.2762236e-02
  2.3519434e-01
 -3.0865014e-01
 -3.7667596e-01
  2.1892983e-01
  7.8438550e-01
 -1.2325879e-01
 -1.0759798e-01
 -9.8089010e-01
  3.8503584e-01
 -2.4149546e-01
 -2.2296041e-01
 -1.5550771e-01
 -2.2808903e-01
  4.6432996e-01
  4.0815987e-02
 -1.0181224e+00
 -5.9753317e-01
  3.9457232e-01
 -1.3876212e-01
 -6.7509669e-01
  4.7053568e-02
  5.3575724e-01
  5.7681255e-02
 -4.1817707e-01
  4.5291781e-02
 -1.0682002e-01
  3.4147975e-01
 -2.2231112e-01
  5.8385086e-01
 -1.0697182e-01
 -3.7652451e-01
 -1.0140619e+00
 -3.5012123e-01
 -4.8872869e-02
  7.5566262e-02
 -1.6279297e-01
  7.8860499e-02
 -2.4685241e-01
  6.5262318e-01
 -7.5355791e-02
 -7.0335579e-01
 -4.2650825e-01
 -7.4693754e-02
 -6.4968282e-01
  1.1284086e-01
 -7.7663314e-01
  7.9881024e-01
  1.5731603e-03
 -1.1829966e-01
  1.1298461e-01
  8.4310174e-02
  2.9056770e-01
 -7.8672957e-01
  2.2730279e-01
  3.7378028e-01
 -2.4140494e-01
  2.1914984e-01
 -8.9831811e-01
  2.6311961e-01
 -7.6778322e-02
 -6.7054546e-01
 -5.1695085e-01
  5.2611518e-01
 -3.0783725e-01
 -6.7210710e-01
  1.0165965e-01
 -3.8846874e-01
 -3.8823104e-01
 -9.4515473e-02
  2.1461064e-01
 -1.0320309e-01
  3.3591874e-02
  2.8135514e-01
 -1.1658864e+00
  1.1867570e-01
  9.4402708e-02
 -3.6106475e-02
  2.8060952e-01
  8.3910668e-01
  9.4339746e-01
  3.4388554e-01
  1.0268580e+00
  3.5983843e-01
 -8.3166502e-02
  5.1167989e-01
 -1.3799369e+00
 -1.2754185e+00
  4.6337256e-01
 -1.4241375e-01
 -1.8584260e-01
  1.1459379e+00
 -2.3761894e-01
  2.5607135e-02
  1.9531032e-01
  1.2241004e+00
 -4.0946230e-01
  2.8218651e-01
  2.2974503e-03
  2.2974503e-03
  2.2974503e-03
  2.2974503e-03
  2.2974503e-03
  2.2974503e-03
  2.2974503e-03
  2.2974503e-03
  2.2974503e-03
  1.7128343e-02
  1.7128343e-02
  1.7128343e-02
  1.7128343e-02
  1.7128343e-02
  1.7128343e-02
  1.7128343e-02
  6.2660319e-03
  6.2660319e-03
  6.2660319e-03
  6.2660319e-03
  6.2660319e-03
  6.2660319e-03
  6.2660319e-03
  3.2248213e-03
  3.2248213e-03
  3.2248213e-03
  3.2248213e-03
  3.2248213e-03
  3.2248213e-03
  3.2248213e-03
  3.4007665e-03
  3.4007665e-03
  3.4007665e-03
  3.4007665e-03
  3.4007665e-03
  3.4007665e-03
  3.4007665e-03
  1.4493351e-03
  1.4493351e-03
  1.4493351e-03
  1.4493351e-03
  1.4493351e-03
  1.4493351e-03
  1.4493351e-03
