nep3 3 Ba Zr O 
cutoff 8 4 161 21
n_max 8 6
basis_size 12 12
l_max 4 2 0
ANN 50 0
  2.2899717e-02
 -5.9063810e-01
  1.7966938e-01
  8.3965845e-03
 -2.5892833e-02
 -1.4361429e-02
 -4.0889007e-01
  1.4429662e-01
 -1.1432883e-01
  5.5817459e-02
  3.3905122e-02
 -3.4954384e-01
  1.4232685e-01
  1.3997218e-01
  3.4016699e-01
  1.4381947e-01
  7.4628651e-02
  7.0097166e-01
 -3.4517413e-01
  2.0680128e-01
 -4.4581228e-01
 -5.1236713e-01
  4.9784565e-01
 -3.0529776e-01
  1.4324480e-01
  6.5931752e-02
  9.3488097e-02
 -1.3259202e-01
 -2.2437344e-01
  3.8442546e-01
 -3.3057222e-01
  6.6068101e-01
  3.2451528e-01
 -4.7308812e-01
  2.0665949e-02
  2.1004777e-01
 -5.0630867e-01
  2.0957179e-02
 -2.9561704e-01
  3.2679629e-01
 -1.3617317e-01
 -3.1013221e-02
 -1.9350145e-02
  5.8800960e-01
  2.9373044e-01
  7.1419202e-02
 -3.0813903e-01
 -1.2721345e-03
 -1.7630139e-01
 -1.5529316e-02
  9.6328326e-02
  2.0926321e-01
 -2.7358425e-01
 -5.3105426e-01
 -1.7460872e-01
 -2.3479629e-01
  3.9249456e-01
 -2.4189772e-01
 -1.4609121e-01
  3.2900354e-01
 -4.1245647e-02
 -3.0036998e-01
  9.4880499e-02
  1.5525208e-01
  5.0969011e-01
  3.5507682e-01
  1.8258172e-01
 -4.0391684e-01
  2.3205835e-01
 -5.0357914e-01
 -2.3664264e-01
  1.5634261e-01
  6.4281958e-01
 -9.6163225e-01
  2.7994391e-01
 -1.2293737e-01
 -6.9357514e-02
  5.0327384e-01
  6.0517430e-01
 -2.6868078e-01
  5.7482618e-01
 -8.0889189e-01
  2.3723571e-01
 -4.9517214e-02
  9.6920624e-02
  1.3062240e-01
 -5.5195361e-02
 -1.0959839e-01
 -1.9184028e-01
  6.9689596e-01
  3.1050347e-02
 -8.6849797e-01
 -3.6919388e-01
  3.1085283e-01
  4.1753685e-01
  4.6218222e-01
  2.5894794e-01
 -1.8743042e-02
 -4.7774997e-01
 -4.1224298e-01
  4.3678769e-01
  1.2820029e-01
 -6.7607999e-01
  3.4217238e-01
  2.6169133e-01
 -4.4266480e-01
  2.3090422e-01
 -7.5878525e-01
 -5.1738429e-01
 -1.8422756e-01
 -4.2001075e-01
 -3.9148435e-01
  2.4890228e-01
 -9.0434477e-02
 -5.5453074e-01
 -4.1073281e-03
 -6.0036421e-01
  3.1600630e-01
  2.6691082e-01
  3.2983536e-01
 -2.2284934e-01
  2.8603256e-01
  4.6073820e-02
  2.4330541e-03
  2.6240599e-01
  6.9592166e-01
  2.6634550e-01
 -3.3371395e-01
 -4.9026489e-02
 -6.2338036e-01
  1.1205750e-01
  1.3222581e-01
 -6.1578220e-01
  6.0054988e-01
  2.2287664e-01
  3.3502731e-01
 -5.2186877e-01
  3.6326155e-02
  3.2354525e-01
  2.3469748e-01
 -2.9482251e-01
  1.8510053e-01
  3.1033188e-01
 -2.4754213e-01
  1.4798664e-01
 -6.0379195e-01
  1.1016691e-01
  5.3683501e-01
  4.2930505e-01
  5.3113413e-01
 -1.8455163e-01
 -8.1821048e-01
 -3.4719422e-02
  3.2621449e-01
 -6.2234074e-01
  3.1169665e-01
 -3.5279387e-01
 -1.4936936e-01
  3.8599107e-01
  6.3226879e-01
  1.5765703e-01
 -8.1359160e-01
 -1.5600608e-01
  5.9823114e-01
 -1.2105511e-01
 -1.2412946e-01
 -1.6403909e-01
  1.3790795e-01
 -2.4950682e-01
  3.4561273e-01
 -2.6977360e-01
 -1.5023638e-01
  9.7334489e-02
 -6.8781018e-01
 -6.7093694e-01
 -1.2782450e-01
 -4.4731331e-01
  2.6936662e-01
 -1.1065634e-01
  1.6648862e-01
 -2.6882023e-02
  1.0065711e-01
  1.4747751e-01
  5.4905754e-01
 -3.0882275e-01
  1.8362385e-01
 -4.1353798e-01
  1.2342947e-01
 -1.2185256e-01
  8.7115556e-02
  5.1899207e-01
  4.7277945e-01
 -1.7280912e-01
  3.7195319e-01
 -3.3663577e-01
  2.6582664e-01
  1.3941494e-01
  5.0572861e-02
 -2.3376031e-02
 -5.0681239e-01
 -1.5894322e-01
 -9.1946769e-01
 -8.1771326e-01
 -1.4491348e-01
  9.2898346e-02
  1.8474722e-01
 -8.7328888e-03
  1.7709246e-01
 -4.0457493e-01
  3.4276706e-01
 -2.5331390e-01
  8.0736518e-02
  1.4161985e-01
 -1.1097752e-02
  6.9182336e-02
 -3.8564560e-01
  1.2736030e-01
 -4.3821010e-01
 -6.1597098e-03
  2.4745494e-01
 -3.5015944e-01
 -4.1538796e-01
 -5.2502036e-01
 -3.8686603e-01
 -4.7882962e-01
 -5.9453958e-01
 -1.5049261e-01
  6.5194821e-01
 -9.0678886e-02
 -4.5992926e-02
 -1.1780992e-01
  2.3704241e-01
  6.5903395e-01
  4.2695248e-01
 -3.4969270e-01
 -1.8037522e-01
  3.3685440e-01
  7.1063662e-01
 -2.9790795e-01
  3.3195275e-01
  5.0132525e-01
 -1.4437187e-02
  3.1978074e-01
 -7.5852561e-01
 -6.9444591e-01
 -1.0287002e+00
  7.2462374e-01
  2.3270151e-01
 -5.1998079e-02
 -1.1792628e-01
  4.2642510e-01
  5.0182676e-01
 -2.2477103e-02
  7.5236000e-02
  3.6919692e-01
  5.0324723e-02
 -5.5928445e-01
  8.0896482e-02
 -2.7908000e-01
 -1.8548506e-01
 -2.4098754e-01
  4.3972841e-01
 -9.8187178e-03
  2.8746969e-01
  2.9412955e-01
  1.8292499e-01
 -2.5949493e-02
 -4.0192038e-01
  4.2289311e-01
  2.2417471e-02
  8.0928051e-01
  4.4857356e-01
  4.9773654e-01
  1.2567097e-01
 -2.9649717e-01
  6.7584383e-01
  5.7718283e-01
  3.0963385e-01
  3.4188381e-01
  5.2119035e-01
  2.4106252e-01
 -1.2192873e-01
 -4.0652084e-01
  6.2071949e-01
  5.6196249e-01
 -4.9925208e-01
 -2.2420578e-01
  6.4852333e-01
 -4.4050056e-01
  1.5998104e-01
  3.5418487e-01
 -4.8840818e-01
  5.6127417e-01
  2.1036094e-01
  4.5817226e-01
 -1.0566711e-01
  6.7856121e-01
  2.4010992e-01
  1.2395282e-01
 -3.1333804e-01
 -8.2020618e-02
  2.0838797e-01
 -2.1570931e-01
 -4.1761017e-01
 -5.9868479e-01
 -1.4066954e-01
  4.2293695e-01
 -1.5409862e-01
 -3.5991043e-01
  1.5671356e-01
 -2.9303014e-01
  6.8399066e-01
 -3.9841852e-01
 -8.0170190e-01
  2.4959974e-01
  4.0333953e-01
 -5.0889480e-01
  2.2609912e-01
 -5.2474487e-01
  1.8313822e-01
  1.0714209e-01
  2.4931073e-01
  3.2047874e-01
  7.4399561e-02
 -1.9043643e-02
 -9.0199143e-02
  1.8858984e-02
  3.5493869e-01
  3.2015568e-01
  3.5186616e-01
  2.7415964e-01
  4.4400044e-02
 -6.2145555e-01
 -2.2768545e-01
 -2.6389334e-01
 -4.0603951e-01
  3.7788922e-01
  7.0688707e-01
 -3.0474216e-01
 -1.4123899e-01
 -1.6581972e-01
  9.2732537e-01
 -3.9995390e-01
  3.0220440e-01
  5.8573645e-01
 -4.2278543e-01
 -8.0047178e-01
 -4.7239512e-02
  5.5383801e-02
 -3.4437451e-01
 -2.8319353e-01
 -3.1234902e-01
  3.9645591e-01
 -8.1458613e-02
 -4.5141372e-01
  7.0441312e-01
  1.7412412e-01
  1.2219224e-01
  2.2083826e-01
 -2.5278154e-01
 -3.5949734e-01
  2.6318195e-01
 -4.4591743e-01
 -1.9215061e-01
  2.7640361e-01
  2.8321838e-01
  5.5898517e-01
 -2.9192761e-01
 -9.8211542e-03
  1.8484411e-01
  1.6539203e-01
  4.8560223e-01
  2.0565197e-01
  3.0041268e-01
  2.5320095e-01
 -5.6684285e-01
 -7.1784660e-02
  3.1496805e-01
  4.3022087e-01
  6.2274081e-01
  9.0351701e-03
  5.6759751e-01
  3.8675335e-01
 -3.1502682e-01
  7.0466518e-01
  5.0560254e-01
 -3.0088627e-01
 -3.5002506e-01
 -5.2469599e-01
 -8.1119038e-02
 -7.0821844e-02
  9.9921077e-01
 -9.6708190e-01
 -4.4785956e-01
  1.2110878e+00
  6.1311108e-01
  6.1353236e-01
 -4.9293509e-01
  2.1553889e-01
 -1.1239685e-02
  8.5367374e-02
 -1.8153604e-02
  3.6984423e-01
  1.8813951e-01
  3.6032709e-01
  2.3800868e-01
  4.7888872e-01
  5.2154265e-02
 -1.0517784e-01
 -4.1653031e-01
 -5.7426053e-01
  2.1478018e-01
  1.1813308e-01
  2.4941424e-01
  7.2739400e-02
 -7.0133463e-02
 -1.7408134e-01
 -3.5727328e-01
 -2.2048771e-01
 -2.0653534e-01
  1.5469220e-02
  4.3818542e-01
  2.4615097e-01
  3.0757529e-01
  2.8017193e-01
 -7.0798928e-01
  4.6156213e-01
 -4.0986985e-01
  1.1375760e-01
  6.7370963e-01
  2.0621584e-01
 -2.1417018e-02
 -5.0405055e-01
 -2.4277668e-01
  5.0421077e-01
  1.0835105e-01
 -4.0942460e-02
  4.2015761e-02
 -8.9075342e-02
  3.2312328e-01
 -3.4118551e-01
  4.7846749e-01
  2.8061515e-01
  3.7230641e-02
 -4.9585822e-01
 -3.9174825e-01
 -2.4542667e-01
 -3.9757121e-01
 -1.8457437e-01
 -6.4610583e-01
  6.8712598e-01
  4.4000447e-01
  5.8136505e-01
 -1.3150209e-01
  6.2583828e-01
 -4.7291756e-01
  2.5030002e-02
  1.6496868e-01
 -5.7958555e-01
  4.0357620e-01
 -1.9215092e-01
  5.0108276e-02
  3.1406754e-01
  7.2310472e-01
 -3.5858685e-01
 -4.1806102e-01
 -4.7504133e-01
  1.0475678e-01
 -2.2855175e-01
 -7.1356022e-01
 -1.5310585e-02
 -5.2906710e-01
 -2.6569399e-01
 -7.3792619e-01
 -3.2734928e-01
 -6.6953063e-01
 -6.1320806e-01
 -7.7435479e-02
  8.1384367e-01
  3.6758238e-01
  2.2472973e-01
 -1.2681594e-01
  3.2511258e-01
  7.4844635e-01
 -5.3265113e-01
 -2.4234980e-01
 -5.6805655e-02
 -1.5379936e-01
  2.6221794e-01
  1.8571219e-01
  7.9696782e-02
 -5.9636784e-01
 -7.3366678e-01
  6.3388461e-01
  6.3378859e-01
 -6.2565245e-02
 -2.7806377e-01
  7.5801298e-02
  1.2388165e-01
 -4.0981597e-01
 -5.4567337e-02
 -1.0849272e-01
 -3.0700770e-01
  1.2744987e-01
 -1.4983729e-01
 -6.4736950e-01
  2.0236801e-01
  3.0734882e-01
 -1.4781803e-02
 -2.7419642e-02
 -9.0375945e-02
  3.4097022e-01
 -3.8003001e-02
 -6.7050010e-02
 -7.9010881e-02
 -6.1541033e-01
  4.5501682e-01
 -6.4677157e-02
  3.1059858e-01
 -1.4412944e-01
  1.2909979e-01
 -2.4135014e-01
  2.3636329e-01
  6.1394000e-01
 -8.4869856e-01
 -7.7316725e-01
 -6.9959670e-01
 -5.9415683e-02
 -6.4942405e-02
 -2.8448206e-01
 -3.2863668e-01
 -9.3999520e-02
 -8.4461224e-01
 -2.5711131e-01
 -1.6698259e-01
 -2.1910948e-01
  5.0816145e-02
  6.8843305e-01
  1.2532097e-01
  1.7915851e-01
  5.2880818e-01
  2.6445079e-01
  3.0920544e-01
  1.3551354e-01
 -2.6243088e-01
  2.8634268e-01
 -4.1130506e-02
  7.0088267e-01
  1.4090350e-01
 -9.2756301e-02
  4.2590763e-02
  6.0468888e-01
 -4.1697536e-02
  1.6829669e-02
  3.1835395e-01
  6.5168071e-01
 -1.3218530e-01
  7.1462613e-01
  1.7465779e-01
 -4.6947128e-01
  2.7156779e-01
 -5.9336156e-02
 -5.9628308e-02
  8.7189436e-01
 -4.1760916e-01
 -9.2654929e-02
 -7.0420426e-01
 -3.6596498e-01
 -4.0559854e-02
  7.2171545e-01
 -5.5934429e-01
  5.2924111e-02
  4.7010660e-01
 -3.9712948e-01
 -4.4406843e-01
 -7.6502097e-01
  2.2963190e-01
 -6.6380090e-01
  2.8727922e-01
 -7.1776742e-01
  3.1887509e-02
  6.7098397e-01
  3.9570430e-01
  3.4224057e-01
 -7.3209965e-01
  2.9783845e-01
 -6.1610579e-01
 -1.6860925e-01
 -1.9678131e-01
 -1.8232200e-01
 -1.9605082e-01
  2.7087438e-01
  8.6364394e-01
  1.3618788e-01
 -6.3987809e-01
  1.6065675e-01
  8.3331335e-01
  1.7962830e-01
  2.6088777e-01
  3.4111351e-01
 -1.7729533e-01
 -3.5746872e-01
  2.5594410e-01
  6.6389906e-01
  8.2957715e-01
  6.2249869e-02
  4.7493446e-01
 -2.8811803e-01
 -4.0939742e-01
  6.4640999e-01
  2.5095445e-01
  2.5282413e-01
  3.5837600e-01
 -1.9688066e-02
 -3.3420876e-02
  1.5001556e-01
 -1.5029721e-01
  6.2531960e-01
  3.2698643e-01
 -4.1937187e-02
 -4.1391104e-01
  3.7765640e-01
  2.4367969e-01
  2.9423401e-01
  1.5316564e-01
  3.7795082e-01
 -6.1026931e-01
 -1.5059929e-01
 -8.5082829e-02
 -2.9719594e-01
  2.7405435e-01
 -3.6159554e-01
  3.8908455e-01
 -3.1912279e-01
 -4.3140683e-01
  2.0868383e-01
 -1.0661993e+00
 -1.2343004e-02
 -4.7016427e-01
  7.5047398e-01
 -5.9072673e-01
 -2.4317592e-02
  2.3803747e-01
 -1.8524733e-01
  9.5682286e-02
 -9.4970435e-01
  3.3656067e-01
  4.2593256e-01
 -2.9832846e-01
  3.6189392e-01
  3.3028471e-01
 -3.0393720e-01
 -1.4225911e-01
 -2.1934420e-02
  5.2673894e-01
 -4.8766506e-01
 -1.2917647e-01
  9.1762647e-02
  5.4084414e-01
 -1.5969972e-01
  1.5857694e-01
  6.2419984e-02
  1.1270976e-01
 -1.5033378e-01
  4.9981427e-01
  7.8256860e-02
  2.1874860e-01
  4.4235796e-01
 -2.6888707e-01
  3.2462251e-01
  1.4491482e-01
  5.0997233e-01
 -2.1994968e-01
 -1.4570946e-01
 -4.7395337e-01
 -4.2997828e-01
 -5.1410779e-02
  3.7713069e-01
  1.0888256e-02
  1.2680210e-02
  2.1886623e-01
  6.8442941e-01
 -2.0640802e-01
  1.8786082e-01
 -3.5249507e-01
  5.0327790e-01
 -4.4189912e-01
  3.9116725e-01
 -5.0138998e-01
 -2.5063697e-01
  2.2507828e-01
  6.3151941e-02
 -6.6600746e-01
  4.4527096e-01
 -6.7468703e-01
 -1.0102828e+00
 -2.4481165e-01
  3.8029340e-01
 -2.1527839e-01
 -2.8257310e-01
 -2.5927714e-01
 -4.5215601e-01
 -3.3905149e-01
 -3.2020238e-01
 -2.2057658e-01
 -5.4397911e-01
 -8.9182980e-02
 -4.0900427e-01
 -8.2863122e-03
  1.9008064e-01
  9.7131781e-02
 -1.1286814e+00
 -2.5757991e-02
  4.0327102e-01
  1.6363597e-01
  8.6842384e-03
 -2.4947020e-01
  4.5029315e-01
  2.0378223e-01
 -6.3731331e-01
 -2.1211171e-01
  6.8920814e-03
 -2.5295907e-01
 -1.0090227e-01
  2.9959422e-01
  4.8480678e-01
  5.3621463e-02
 -7.5943512e-01
  3.7522924e-01
 -2.6567876e-02
  3.6118191e-01
 -3.0839917e-01
  3.9724118e-01
  1.2665522e-01
  3.5945264e-01
  3.7443033e-01
  5.5364323e-01
  2.6793063e-02
 -3.7637651e-03
  6.4496040e-02
  4.5561317e-01
 -4.0262020e-01
 -1.8900338e-01
  1.9517317e-03
  2.8592134e-01
 -2.0938325e-01
  3.0572021e-01
  2.4274522e-01
  2.7630541e-01
 -5.2027494e-01
  6.3536179e-01
  2.4166924e-01
 -6.8175238e-01
 -4.4071525e-01
  5.7332784e-02
  2.7825528e-01
  3.3805913e-01
  5.5409085e-02
  4.1292187e-02
 -5.2012354e-03
 -5.2973342e-01
  3.8363573e-01
  3.4768376e-01
 -3.3084330e-01
  8.7036550e-02
  2.9254198e-01
  6.7717755e-01
  2.9251570e-01
  1.8157473e-01
 -3.2782069e-01
  1.9628653e-01
  4.3638590e-01
 -2.2776408e-01
  4.6958596e-01
  4.7517353e-01
  2.2026539e-01
 -3.8617143e-01
 -2.7036652e-02
  2.8409190e-02
  4.9735343e-01
 -7.6012634e-02
  3.2808402e-01
  4.1066289e-01
 -1.6521855e-01
 -2.4974778e-01
  7.1714753e-01
 -9.0046510e-02
  7.0095825e-01
 -4.3793842e-01
 -3.0226758e-01
  2.5071892e-01
  5.1116735e-02
 -9.6768707e-02
 -6.6102087e-01
  9.9029249e-01
 -4.3161029e-01
  1.1610714e-01
 -6.0815588e-02
 -1.9911692e-02
  4.7346717e-01
 -2.8939247e-01
  2.4830578e-01
  1.9749461e-01
 -5.1884401e-01
  3.8902336e-01
  5.5919200e-01
  7.8570820e-02
  1.2342608e-01
  3.7391019e-01
 -5.5787575e-01
  3.5148722e-01
 -4.6544796e-01
 -8.3591960e-02
  3.9819643e-01
  4.8175025e-01
 -1.7659967e-01
  3.7564737e-01
  2.5836200e-01
  1.2004548e-01
 -5.6838803e-02
 -1.9243240e-01
 -1.0452456e-01
 -2.9588044e-01
 -8.2883352e-01
 -5.8271900e-02
 -7.1116674e-01
  5.8437265e-02
  6.8682700e-02
  2.3065479e-01
  7.7416837e-02
  6.5925252e-01
  5.5609003e-02
  3.2300267e-01
 -2.8332314e-01
 -2.6167136e-01
  5.8434361e-01
 -3.0957273e-01
  3.8073567e-01
 -4.3953475e-02
  4.6007687e-01
  5.0371540e-01
 -1.1324950e-01
  4.8373985e-01
 -6.7444429e-02
  1.9481419e-01
 -2.7269274e-01
  1.1247814e-02
  2.0868754e-01
  6.2366411e-02
 -2.2242057e-01
 -1.9018373e-01
 -2.9162657e-01
  1.7012624e-01
 -9.9820477e-01
  5.1135248e-01
 -2.0813744e-01
 -1.8232539e-03
 -5.0193131e-01
 -9.8416775e-01
  5.0647461e-01
 -1.8413705e-01
  3.7036461e-01
 -6.6013747e-01
  5.5091977e-01
  1.2553337e-01
  1.0327850e-01
  1.0784668e-01
 -3.4326613e-01
 -5.8086890e-01
 -7.5880980e-01
 -4.1043562e-01
  9.8063305e-02
  3.5629416e-01
 -1.1328533e-01
  3.0417511e-01
 -5.3242874e-01
 -1.7448390e-01
 -1.0726873e-02
 -5.0499463e-01
 -6.6214907e-01
 -1.5828738e-01
 -3.0490357e-01
  2.2239310e-01
  2.5063756e-01
 -3.6222357e-01
  5.7592076e-01
  6.1764717e-01
 -5.2863114e-02
 -4.3625191e-02
  2.8852411e-02
  6.8245614e-01
 -2.1510917e-01
  1.8463889e-01
 -3.2060984e-01
 -2.1032111e-01
 -5.8500302e-01
  4.0788096e-01
  4.8470184e-02
 -2.9185113e-01
 -3.1135488e-01
  4.2130578e-01
 -3.0095035e-01
  4.6484977e-02
  7.3898174e-02
 -6.3586175e-02
  3.2395968e-01
 -3.0099729e-01
  1.4034089e-01
 -3.7756225e-01
 -3.9419228e-01
 -2.6998222e-03
 -3.2519445e-02
 -2.1225402e-01
 -1.3628261e-01
  5.3918016e-01
  3.5117051e-01
  4.9127275e-01
  1.2359084e-01
  9.6439026e-02
  2.1907973e-01
 -4.9422818e-01
  3.5288996e-01
  9.7200114e-01
 -1.2516171e-01
 -3.5295226e-02
 -4.6166778e-01
 -2.4848455e-01
 -7.5322725e-02
  3.0759969e-01
  5.8073694e-01
 -2.7561569e-01
 -1.8004194e-01
  1.4776951e-02
 -5.5467296e-01
  4.4618618e-01
  7.0434433e-01
 -2.6532429e-01
  2.7911641e-02
 -5.5449897e-01
 -4.5861456e-01
 -4.2230475e-01
  3.9578742e-01
  2.9240528e-01
  2.0484662e-01
  2.9289466e-01
  5.5890274e-01
  4.3385670e-02
  5.0523514e-01
 -3.7374577e-01
  1.7559797e-01
  2.4754833e-03
 -8.7694979e-01
 -2.2523719e-01
  6.3971214e-02
  6.3605618e-01
  2.3461294e-01
 -2.1285209e-01
 -9.2760377e-02
 -5.5019665e-01
 -1.6350749e-01
 -6.3374627e-01
 -9.0817422e-02
  2.6123914e-01
 -1.5857145e-01
  2.8078657e-01
  6.0133606e-01
  3.0048770e-01
 -1.4753862e-01
 -3.8133681e-01
 -2.9391438e-02
  1.3446082e-01
 -1.6084194e-01
 -5.0523591e-01
 -3.1810230e-01
  9.7433396e-02
  1.0767021e-01
 -7.8068268e-01
 -2.1691212e-02
  5.5083547e-02
 -1.1458476e-01
  3.2299328e-01
 -1.5806447e-01
 -3.0812305e-01
  1.3785130e-01
 -3.1181100e-01
 -2.5758475e-01
  1.0359705e-01
  5.9327766e-02
 -3.0912608e-02
 -4.5237532e-01
 -2.5493771e-01
 -1.7763335e-01
  1.5638280e-01
  6.7856647e-02
 -1.9401740e-01
 -2.5571385e-01
  1.5483084e-01
  7.4422561e-02
  3.2747832e-01
  4.9304169e-02
 -6.5567750e-01
  1.8941845e-01
  6.1397427e-01
 -2.7409095e-01
  4.3584704e-02
 -7.1361482e-01
 -4.5739979e-02
 -2.0031837e-01
 -4.1831985e-01
 -2.4943140e-01
  1.5865855e-01
  5.5575974e-02
  4.7260618e-01
 -3.7930018e-01
  8.2060486e-02
 -3.8563904e-01
  1.1200651e-01
 -2.2180675e-01
 -6.9480407e-01
 -4.1718733e-01
 -3.0600047e-01
 -1.6762811e-01
  4.2873001e-01
 -5.2418691e-01
 -3.5386699e-01
  5.3119552e-01
  1.8388957e-01
  8.8028468e-02
 -4.8730087e-01
  4.4732660e-01
 -3.1502107e-01
  3.2870793e-01
 -3.3700764e-01
  4.8470262e-02
 -1.4715359e-01
  4.9231827e-01
  3.1863430e-01
  8.3736293e-02
  1.8190764e-02
  4.1850743e-01
  9.9810272e-02
  4.7725239e-01
  3.1072289e-02
  5.2825129e-01
  5.0405765e-01
 -4.1970941e-01
 -3.3187750e-01
  6.6758431e-02
  2.9187899e-02
  4.2112499e-02
 -4.4435525e-01
 -4.6390089e-01
  1.2638465e-01
 -5.3217256e-01
 -6.9704545e-01
  2.5704467e-01
 -2.2551972e-01
 -1.1332922e-01
 -3.5629743e-01
  1.6814926e-01
 -5.2000427e-01
 -2.3363313e-01
 -5.1345706e-01
  2.2823717e-01
  1.1825880e-01
  3.9662638e-01
  4.8539177e-01
  4.5345813e-02
 -4.1554055e-01
  7.6667517e-02
 -4.8445225e-01
 -4.1593620e-01
 -2.2916678e-01
 -3.2220352e-01
  5.7146752e-01
  4.4403952e-01
 -2.3489180e-01
  2.1792215e-01
 -4.0842286e-01
 -5.2738208e-01
  4.2526552e-01
 -1.3466035e-01
  8.7516069e-01
 -1.8046357e-02
  5.7009196e-01
  5.5283713e-01
 -4.0148255e-01
  2.8942540e-01
  9.9818444e-01
  4.7736591e-01
 -5.2027261e-01
  1.9415967e-01
 -3.9890997e-02
  1.0955102e-01
 -6.9283199e-01
 -5.2862018e-01
 -1.3576466e-01
 -9.4973929e-02
 -7.6319002e-02
 -1.3037543e-01
  3.4843171e-01
 -2.9287738e-01
 -6.1378455e-01
  5.7017648e-01
 -2.3625942e-01
 -1.0208458e-01
 -2.9788500e-01
 -4.5513086e-02
  2.2434999e-01
 -1.4524336e-01
 -2.7000612e-01
 -2.0897347e-01
  2.0114765e-01
 -3.5277188e-01
  9.2626855e-02
 -3.3198163e-02
  5.6712961e-01
  9.3243152e-02
 -2.6824558e-01
 -1.4042512e-01
  1.9688222e-01
 -3.8109452e-01
 -7.3323250e-01
 -4.3340519e-01
  3.7434793e-01
  2.3027182e-01
 -5.8026552e-01
  6.3062084e-01
  4.3931547e-01
 -2.3721309e-01
  5.6677628e-01
  1.1760877e-02
  1.0608760e-01
 -2.8683007e-01
 -8.3161697e-02
  4.6547747e-01
  3.5804671e-01
  1.3157541e-01
 -1.8930289e-01
  3.7110108e-01
 -5.9571230e-01
 -2.2661014e-01
 -1.4733426e-01
 -8.3260101e-01
  3.8465101e-01
  6.3103966e-02
 -5.1976538e-01
 -2.0496483e-01
 -2.0271727e-01
 -3.0282053e-01
  6.1744928e-01
 -7.7563727e-01
  1.9205606e-01
 -2.3285623e-01
 -6.3435429e-01
  8.2600772e-01
  1.3106140e-01
  1.7069207e-01
  5.4066503e-01
  2.7144024e-01
  2.3757683e-01
 -9.5186956e-02
  1.9336087e-01
 -3.2727346e-02
  2.1060944e-01
  9.6907550e-01
  9.1219112e-02
 -4.7570571e-01
  3.0699540e-02
 -3.8886976e-01
  1.5318786e-01
  3.1960413e-02
  3.8655436e-01
  1.8593009e-01
  4.4191211e-01
 -7.8162807e-01
 -1.7208070e-01
 -3.0046588e-01
 -6.5342712e-01
  6.2810618e-01
  2.6588160e-01
  6.8881547e-01
 -2.1120404e-01
 -6.7122412e-01
  3.0949739e-01
  2.3943299e-01
 -1.7194036e-01
  2.4002641e-02
 -2.1206746e-01
  2.1936291e-01
  9.6416724e-01
  4.0868109e-01
  1.3291629e-01
  3.9408615e-01
  2.7654812e-02
  5.4566854e-01
 -3.3376282e-01
 -5.6987441e-01
 -5.9194672e-01
  1.3989761e-01
 -2.7938199e-01
  6.8896747e-01
 -3.7998134e-01
 -7.5887769e-02
  1.9671017e-01
  1.6583201e-02
  2.7022064e-03
  4.0189725e-01
  8.5298009e-02
 -4.1263950e-01
 -3.0271560e-01
  7.5675726e-02
  2.4921896e-01
 -7.3576532e-02
 -5.8300287e-02
 -9.2935108e-02
 -3.4160101e-01
  1.0115949e-01
  3.8509819e-01
  5.7964259e-01
  4.6203580e-01
 -1.5197507e-01
  7.0053518e-01
 -4.8705631e-01
  2.1246463e-01
  5.9733963e-01
 -3.3435878e-01
 -4.4403061e-01
 -1.4397737e-01
  2.5222835e-01
 -2.9807138e-01
  3.0612290e-01
 -3.1420320e-02
  9.5749252e-02
  4.3513450e-01
 -2.2602776e-01
 -4.5436424e-01
 -1.1384807e-01
 -3.8611060e-01
  6.9209151e-02
  5.1201189e-01
  1.5800148e-03
 -4.0606532e-01
  3.1867987e-01
  7.4199155e-02
  1.6795443e-01
 -3.9287871e-01
 -3.7756193e-02
  1.7067301e-01
 -3.5727733e-01
  2.2050852e-01
  3.4822933e-02
  1.0044247e-01
 -8.1296736e-01
  5.9182143e-01
 -8.2635112e-02
 -3.1759731e-02
 -1.3125281e-01
  3.6630124e-01
 -4.5157808e-01
 -2.6432437e-01
  2.0197563e-01
  1.5121977e-01
  2.8730884e-01
  3.0627683e-02
  8.4782314e-01
  6.2683022e-01
  5.1551044e-02
 -1.2698464e-02
 -3.9916018e-01
  5.8123028e-01
  1.1185303e-01
 -3.7459716e-01
  5.6816977e-01
  3.1549853e-01
  1.3393478e-01
 -7.9943919e-01
 -2.0179990e-01
  8.2765847e-02
 -5.8554065e-01
 -5.3074968e-01
  3.0115756e-01
  6.5707338e-01
 -4.7023124e-01
  2.5585896e-01
  3.8673970e-01
 -1.7768964e-02
 -8.1066382e-01
 -2.9109797e-01
 -6.0368855e-02
  2.8706223e-01
  5.5948907e-01
 -2.5528747e-01
  5.7199437e-02
 -5.2655861e-03
  1.0089102e-01
 -8.0287829e-02
 -1.9627133e-01
 -1.8926731e-01
 -3.2824951e-01
 -2.0654203e-01
  6.1317652e-01
 -7.4828416e-02
  1.7799945e-01
  2.6813096e-01
 -8.2890576e-01
  2.1574011e-01
  1.1546589e-01
 -5.6394565e-01
  1.8990995e-01
 -4.6287605e-01
  2.7002417e-02
  1.2266183e-01
 -3.5682613e-01
 -1.6566414e-01
  4.8608410e-01
 -8.7498657e-02
  2.3435071e-01
  2.0113349e-01
  3.0040419e-01
  4.6901488e-01
 -1.9016840e-01
  2.1092710e-01
 -2.9990101e-01
  3.2482556e-01
  3.6267889e-01
 -2.2530563e-01
 -1.1300497e-01
 -2.2158593e-01
  3.9413816e-01
  1.9178849e-01
  2.5424156e-01
  2.5931466e-01
 -3.0192280e-01
  5.8206695e-01
 -4.3722880e-01
 -2.3537818e-01
  3.7782037e-01
  6.8145193e-02
 -6.2661982e-01
 -6.8188208e-01
  3.8608760e-02
 -9.1526851e-02
  3.5431188e-01
 -9.4413507e-01
 -6.6110440e-02
  8.1387497e-02
 -2.8486776e-01
  3.7669268e-01
 -1.8218620e-01
  2.1978432e-01
  4.0582663e-01
  5.3292048e-01
  1.6553982e-01
  2.0794198e-01
 -5.0352275e-01
  2.9994315e-01
 -1.7835861e-01
 -1.9664919e-01
  1.1710052e+00
  3.2168368e-01
 -1.4553505e-01
 -3.9768693e-01
  1.0122414e-01
 -8.8248438e-01
 -3.8644195e-01
 -5.2983230e-01
 -4.0183073e-01
  2.3914896e-01
  7.6648206e-02
  5.7682109e-01
  1.4857665e-01
  2.0128162e-01
 -2.7762391e-03
  2.7954653e-01
 -1.3140655e-01
 -2.9531428e-01
  4.2669156e-01
  6.7504302e-02
 -3.9197114e-01
  8.2105398e-03
  4.6704799e-01
 -8.0381945e-02
 -6.3125825e-01
  1.6664061e-01
 -6.3431042e-01
 -1.8537344e-01
 -9.7198635e-03
 -2.6243889e-01
  2.9364869e-01
 -5.2932911e-02
  2.0895189e-01
  1.7395444e-01
  1.3861209e-02
  3.6870781e-01
  3.6623424e-01
  5.1188838e-01
  8.2078689e-01
  4.0100545e-01
  4.8526868e-01
  1.9918610e-01
  1.9614691e-01
 -2.9611632e-01
 -3.6162573e-01
  5.3116068e-02
 -5.1427859e-01
 -2.9449585e-01
 -1.7515707e-01
  1.0121071e-01
  1.2177899e-02
 -2.6277301e-01
  8.5209495e-01
 -2.9070902e-01
  1.1411346e-03
 -1.5701264e-01
  5.7114959e-02
 -4.7714677e-01
 -3.5914186e-01
  6.4952672e-02
  6.6867054e-01
 -3.3308345e-01
  3.9881414e-01
 -4.3927184e-01
 -3.9523041e-01
 -4.8878413e-01
  4.2312562e-01
  6.0926360e-01
 -2.3879711e-01
  3.8005677e-01
 -5.8308923e-01
 -1.1588469e-02
  1.3295388e-01
  4.9514055e-01
 -5.3695526e-02
  5.1169372e-01
  3.7080687e-01
  8.7724829e-01
  1.9386072e-01
  1.4979197e-01
  3.0812278e-01
  2.8267848e-01
 -1.8900587e-01
  2.9926389e-02
  2.8232925e-02
  2.7762616e-01
  3.1794614e-01
 -3.6690632e-01
 -3.0283359e-01
  4.9863520e-01
 -2.0639187e-01
  9.3509711e-02
 -3.8493627e-01
  2.2391939e-01
  3.7467510e-01
 -6.7854768e-01
  2.0423499e-01
 -1.2677601e-01
 -1.4917788e-01
  1.9555874e-01
 -1.4648113e-01
 -4.3562153e-01
  5.5255342e-01
 -4.1636252e-01
  8.0135390e-02
 -3.7117431e-01
 -6.9483078e-01
  6.1949551e-01
  3.7734360e-01
  6.9749534e-01
  9.8528981e-02
  6.4139301e-01
 -5.6575894e-01
  3.3839759e-01
 -1.7366636e-01
  5.1459467e-01
  1.1675991e-01
 -1.4792377e-01
 -3.0805632e-02
 -5.3734027e-02
 -4.0573728e-01
 -3.4344015e-01
 -4.3930292e-01
  3.8361695e-01
  3.6716664e-01
  1.4949742e-01
 -4.4090408e-01
 -3.7229997e-01
 -9.3707246e-01
 -2.8066590e-01
 -1.0125642e-01
 -4.6505159e-01
 -2.3936881e-01
  2.7978569e-01
 -1.7141104e-01
  2.9513985e-01
 -3.3441049e-01
  4.0218151e-01
 -4.8744580e-01
  2.7564019e-01
  2.5710058e-01
  2.4489938e-01
 -1.3616277e-01
 -1.2294617e-02
 -1.9948244e-01
 -1.6244820e-01
  2.8881457e-01
 -5.7243720e-02
  5.2841341e-01
 -1.8779984e-01
  7.2013304e-02
 -3.3199793e-01
 -8.0200523e-02
 -5.6465894e-02
 -5.1838970e-01
  3.7329385e-01
  3.5299438e-01
 -3.9203584e-02
 -4.3077528e-01
 -1.4383256e-02
 -3.0478820e-01
 -3.7095091e-01
 -4.5054960e-01
  3.3469087e-01
  2.1535663e-02
 -4.2669511e-01
  5.7757640e-01
  1.0965437e-02
 -2.9282278e-01
 -2.4215798e-01
  1.3984816e-01
  3.7917942e-01
 -7.0389695e-02
 -1.8937263e-01
 -3.5189188e-01
  4.9454701e-01
 -1.9416100e-01
  8.2297921e-02
 -3.9209339e-01
  6.7184454e-01
 -3.8074908e-01
  1.5885068e-01
  1.2516308e-01
 -4.9476838e-01
 -8.3704031e-01
  8.9163810e-02
 -3.9788663e-02
  3.4015689e-02
 -2.2062510e-02
 -5.5446529e-01
 -2.8601947e-01
  2.9056934e-01
 -4.3607962e-01
  5.0723010e-01
 -4.0426189e-01
 -5.4134476e-01
  6.3241053e-01
 -4.0336475e-01
  4.1807514e-01
  8.9832589e-02
 -3.4073833e-01
  1.3205940e-01
 -2.4211726e-01
 -4.4888899e-01
 -3.0796692e-01
  3.2179263e-01
 -3.5882691e-01
 -5.6250656e-01
  3.5635215e-01
  3.5842416e-01
 -2.5343949e-01
 -6.6088516e-01
 -2.4742217e-01
 -5.2231264e-01
 -1.1066201e-01
 -1.4249974e-01
 -5.2633852e-02
 -2.2780858e-01
 -5.6612051e-01
  3.9832303e-01
 -5.0972360e-01
  1.4699963e-01
  1.7651600e-01
  6.0144401e-01
  1.7576590e-01
 -1.3210870e-01
 -2.4464159e-01
 -6.1126387e-01
 -8.0926967e-01
  2.0096913e-01
  4.4956705e-01
 -1.5881167e-01
 -2.0557979e-01
 -2.6213905e-01
  6.6541344e-01
  8.8923424e-04
 -4.1281185e-01
 -2.4065679e-01
  5.8392125e-01
 -1.1213768e-01
  2.3738040e-01
 -3.0201721e-01
 -8.3481118e-02
 -2.2181134e-01
  2.7414984e-01
 -3.4276950e-01
  5.9500670e-01
 -6.0683364e-01
 -5.5507529e-01
 -1.6903344e-01
  2.5585118e-01
  1.5971199e-01
 -3.4508637e-01
 -1.0562306e-02
 -1.5304953e-01
  5.9449852e-01
 -2.3114188e-02
 -3.5465643e-01
  5.1501632e-01
  1.1239450e-01
  5.8586228e-01
  2.3410499e-02
 -4.1696221e-01
  6.3611293e-01
  2.7378890e-01
  2.0593587e-01
 -2.8628457e-01
  4.9781930e-01
 -1.9903481e-02
  7.8200257e-01
 -7.6482713e-02
 -3.6191908e-01
 -3.2397065e-01
  5.4491576e-02
  2.1540000e-01
 -4.8226437e-01
  3.1680558e-02
  2.3714627e-01
 -2.3643950e-01
 -1.4130175e-03
  6.1932039e-01
  6.7639530e-01
 -4.7061369e-01
 -2.6157826e-01
 -3.6713511e-01
  4.8200238e-01
  1.6887963e-01
 -9.9078007e-03
  5.5317503e-01
  5.9384835e-01
  1.3051823e-01
  3.0925629e-01
  3.1876281e-01
 -8.4827960e-02
 -1.7999527e-01
 -2.6428327e-02
  1.8989390e-01
 -3.1056005e-01
  4.4958454e-01
  1.3445890e-01
  2.1873270e-01
 -3.6671174e-01
 -1.7035337e-01
 -1.6928951e-01
 -2.1013156e-01
  5.7533032e-01
  2.6133761e-02
 -2.3684472e-01
 -6.3050993e-02
 -4.8386857e-01
 -6.2429768e-01
 -3.3311585e-01
  2.0478535e-01
 -4.5000666e-01
 -6.4786381e-01
 -6.9727391e-02
  3.4501851e-01
 -5.4753512e-01
  2.1356109e-01
 -3.1752181e-01
  3.0926162e-01
 -9.3015951e-01
  5.2950686e-01
 -3.2535243e-01
  1.5270157e-01
 -5.0983149e-01
 -1.1359986e-01
 -1.6769111e-01
 -3.4472832e-01
 -4.3278810e-01
 -4.1030648e-01
 -3.2330215e-02
  1.0805877e-01
 -1.0277385e-01
 -2.4702385e-01
  5.7590270e-01
  7.8307986e-02
 -4.0272087e-01
 -2.2949491e-02
  3.7310785e-01
  1.9951655e-01
  2.7164221e-01
 -5.3169012e-01
  9.6166484e-02
 -2.1254332e-01
  8.7659732e-03
 -4.1732198e-01
  6.3025993e-01
 -3.0953109e-01
 -6.2812352e-01
 -4.2061150e-01
  7.9721145e-02
  1.6810746e-01
  1.4595780e-01
 -2.1292996e-01
  2.9896778e-01
 -5.6598604e-02
 -2.5228223e-01
 -4.8389098e-01
  3.4621483e-01
  1.8543011e-01
  4.9598011e-01
 -7.1389806e-01
 -1.5918958e-01
  1.7413038e-01
 -1.1197153e-01
  2.3567457e-01
  1.6666323e-01
  2.4244386e-01
 -5.3671259e-01
 -2.4541587e-01
 -1.8501970e-01
 -4.3614239e-02
 -2.3486851e-01
  1.3954632e-01
  2.1857120e-02
 -2.8114507e-01
  1.5406561e-01
  1.5651369e-01
 -1.2368976e-01
 -5.4306489e-01
 -5.4407597e-02
 -1.7013152e-01
  8.3627701e-01
  2.0708480e-01
 -1.7111804e-01
 -4.2549664e-01
  1.4345750e-01
  9.4066805e-01
 -1.8142685e-01
 -3.0674192e-01
  2.3667581e-01
 -1.7344585e-01
  1.6658288e-01
  6.2605870e-01
  4.3682301e-01
 -1.8817624e-01
  8.1249811e-02
  2.2600901e-01
  4.6354198e-01
  3.3431748e-01
  4.6217483e-01
  4.2101938e-02
 -2.6311594e-01
 -8.5105456e-02
 -2.3368943e-01
 -4.9347264e-01
  1.3812210e-01
 -7.6243138e-01
 -1.8000403e-01
 -6.0374397e-01
  4.2319062e-01
 -1.6058394e-01
  3.4433231e-03
  9.0639867e-02
  3.8705379e-01
  3.8033646e-01
  4.6709925e-01
  4.4702083e-01
 -5.3296846e-01
  7.3066711e-01
 -4.6844763e-01
 -6.1385190e-01
 -5.8522588e-01
 -1.7638390e-01
 -3.6166710e-01
 -3.1395382e-01
 -1.9372616e-02
 -6.9775097e-02
  7.9765528e-02
  7.4484146e-01
 -2.6696891e-01
 -5.2760258e-02
 -5.5954272e-01
  5.4602526e-02
 -5.8840287e-01
 -3.4086263e-01
  1.1410286e-01
  5.9289008e-02
 -3.2314956e-02
  1.2125915e+00
 -4.0101141e-01
  4.1904187e-01
 -3.4659106e-01
  1.1638078e-01
  6.8486549e-02
 -7.8655913e-02
  2.8653157e-01
  7.2504520e-01
 -2.5908417e-01
  9.2012435e-02
  6.1046798e-02
 -1.6366339e-01
  3.8601360e-01
  4.1393417e-01
 -4.4194132e-01
  5.1949066e-01
  6.0914330e-02
  3.2738024e-01
 -4.1671166e-01
  7.5491533e-02
 -3.2493612e-01
 -3.0181205e-01
 -2.4012014e-01
 -8.7360740e-02
 -1.9009681e-01
  3.0052757e-01
 -2.7680248e-02
  6.5580791e-01
  5.0252539e-01
  4.4320291e-01
 -5.2824664e-01
  1.0326644e+00
  3.5619617e-01
 -8.3787745e-01
 -6.0572720e-01
  1.0275348e-01
  2.7098641e-01
 -6.0292229e-02
  3.0943969e-01
 -2.2336137e-01
  3.0878198e-01
  1.0005475e-01
  2.3504667e-01
 -6.5819401e-01
  3.5750300e-01
 -6.9544405e-01
 -1.8012062e-01
 -1.6638489e-01
 -5.8041483e-01
  5.9931809e-01
 -3.1171730e-01
 -4.4027263e-01
  2.5221911e-01
 -2.3202834e-01
  4.0870124e-01
 -3.6643744e-03
  5.6604129e-01
  8.6422300e-01
  4.1195923e-01
 -1.6445960e-01
 -7.6939720e-01
  7.2531390e-01
  5.5086339e-01
  6.3497663e-01
  6.0216910e-01
  5.1491791e-01
 -3.6081624e-01
  3.0259654e-01
 -1.1809320e-01
  2.7089494e-01
 -7.6364458e-01
  5.2662715e-02
 -8.8885494e-02
  3.6243522e-01
 -1.5584347e-01
  2.6622853e-01
  1.1907540e-02
 -1.0169351e-02
  3.4082273e-01
  4.9820068e-01
  5.3231210e-01
  6.2317419e-01
  2.6161873e-01
 -4.1502160e-01
 -1.7715518e-01
  6.1771832e-02
 -1.2584700e-01
 -5.3611690e-01
 -8.9273930e-01
 -7.0870858e-01
  7.2920603e-01
  4.5182616e-01
  2.7503508e-01
  3.0168831e-01
 -2.4458742e-01
  4.5459574e-01
 -2.4836893e-01
 -3.0044299e-01
 -1.5351944e-02
 -7.4245679e-01
  5.1063791e-02
 -2.8327936e-01
 -2.8904417e-01
 -7.1683282e-01
 -2.7873147e-01
 -2.5899056e-01
 -1.5328746e-01
 -4.4247186e-01
 -8.0011255e-01
 -1.0930356e-01
  2.3499210e-01
  5.8030492e-01
  3.5605395e-01
  4.5508170e-01
 -2.3728102e-01
 -8.3194268e-01
  4.1333377e-01
  1.0298819e-01
 -4.2118236e-01
 -1.5900396e-03
  2.7552903e-01
  6.4831340e-01
  2.8692916e-02
 -6.1530036e-01
 -2.7893093e-01
  3.2870221e-01
 -3.4824383e-01
  1.9528729e-01
 -3.3396873e-01
  1.7160004e-01
 -1.5012324e-01
 -4.3449257e-02
  7.0540535e-01
  3.2809508e-01
 -3.4539959e-01
 -5.2601457e-01
 -4.8120968e-02
  2.6180506e-02
 -2.2457214e-01
  3.4942096e-01
 -1.3266420e-01
  2.8665617e-01
 -2.5600752e-01
  1.5541413e-01
 -1.3122046e-01
  3.3599515e-02
  5.8694936e-02
 -4.5487848e-01
  6.6004902e-01
 -2.6683778e-01
 -2.0056705e-01
 -1.6385202e-01
 -8.5797377e-02
 -6.2059745e-02
 -3.2331309e-01
 -2.2598544e-01
 -3.7666208e-01
  2.7998373e-01
 -3.8702431e-01
 -5.5627865e-01
 -1.9796784e-01
 -6.1458391e-01
  3.4750429e-01
 -2.3142298e-01
 -1.6603345e-01
  3.7010986e-01
  1.8458270e-01
 -3.5171181e-02
 -2.0157123e-01
 -3.2935724e-01
  8.7596796e-02
 -2.6260734e-01
 -5.1343036e-01
 -5.2647001e-01
 -6.1970741e-01
  4.6245712e-01
  2.2197962e-03
 -6.7858562e-02
  1.6338110e-01
  7.6543435e-02
 -2.9539898e-01
  3.2450852e-01
  1.2890173e-02
  3.4814095e-01
  1.2780076e-01
 -4.3023378e-01
  2.5906765e-01
 -9.1183126e-02
  5.2174807e-01
 -7.7246022e-01
  2.4725002e-01
 -2.4545687e-01
  5.6708759e-01
  2.4980974e-01
 -1.7383023e-01
 -5.8772802e-02
 -6.4652666e-02
 -2.6415530e-01
  8.8795871e-02
  5.6083834e-01
 -5.6191522e-01
  5.0598070e-02
  6.1525688e-02
  9.7920018e-01
 -2.3072010e-01
  9.1563231e-01
 -2.3424365e-01
 -9.2144631e-02
  4.7328264e-01
 -6.6687942e-01
 -1.2690692e-01
 -4.4822961e-01
  7.5061344e-02
 -1.5722853e-01
 -8.4276628e-01
 -2.3455463e-01
  4.2912352e-01
  6.3928211e-01
  3.3372012e-01
  8.1527263e-02
 -3.9381436e-01
  2.2978020e-01
 -3.0683854e-01
 -8.1758296e-01
  6.8207413e-01
 -3.0439571e-01
  6.8068314e-01
  3.0289575e-01
  3.8301092e-01
 -4.8514950e-01
  2.2606771e-01
  1.6583839e-01
 -9.9012405e-02
 -2.5089240e-01
 -8.4570050e-01
  1.0243410e-01
  3.2977891e-01
 -5.1630914e-01
 -5.4872692e-01
  3.2834494e-01
 -2.7977908e-01
 -3.5753587e-01
  3.6226997e-01
 -7.0314276e-01
 -3.7525037e-01
  4.9357644e-01
  2.1388188e-02
  4.2920148e-01
  2.2891617e-01
  3.5165423e-01
  8.6726010e-01
  1.1549537e-01
 -2.6841313e-01
  4.8820564e-01
 -2.4431653e-01
  2.7053314e-01
 -3.3490041e-01
 -1.0024545e-01
  3.6778602e-01
 -5.0721139e-01
  9.9451311e-02
  1.2546250e-01
 -1.0599337e+00
 -4.6430254e-01
  7.8605002e-01
 -2.6737833e-01
  1.2480462e-01
 -6.9885433e-02
 -8.8057882e-01
  2.7356482e-01
 -5.7651961e-01
  4.4503951e-01
  1.7960328e-01
 -2.9807413e-01
  1.0168926e-01
  5.3724200e-03
 -3.2080573e-01
  2.1458444e-01
  5.2090967e-01
 -5.2300587e-02
  3.2830158e-01
  3.6995599e-01
 -1.9063495e-02
 -4.4041455e-01
  1.7646818e-01
  4.1168839e-01
  1.6402233e-01
 -2.6324987e-01
 -2.1987212e-01
 -1.7331885e-01
 -3.2171708e-01
 -2.6246905e-01
  2.6798087e-01
  7.3588705e-01
 -5.1696444e-01
  2.6661985e-02
  1.2454048e-01
 -7.8936058e-01
 -7.7824511e-02
 -4.0217268e-01
 -7.5108759e-02
  4.5143643e-01
 -4.1933820e-01
 -4.9014211e-01
 -2.9159549e-01
 -1.6982505e-01
  6.7794693e-01
 -2.3346116e-01
  7.1720195e-01
 -4.6746007e-01
  8.5878503e-01
 -2.6534587e-02
 -2.4188004e-01
 -1.7450109e-01
  2.4823210e-01
  4.9835441e-01
 -1.7185450e-01
  1.0866539e-02
  3.5358034e-03
 -6.3419479e-01
 -2.9429483e-01
 -2.4891821e-01
  7.5408898e-02
  2.3844703e-01
 -1.4128047e-01
  2.3699038e-01
 -3.5681412e-02
 -3.3874175e-01
  1.3747118e-01
  2.1044008e-02
  1.4891352e-01
  2.6830247e-01
  1.7179057e-02
  2.5472958e-02
  1.0921086e+00
  1.9433607e-01
 -2.1285009e-01
  2.2913758e-01
 -6.9804168e-01
 -1.1273944e-01
  1.1001650e-01
 -4.5424727e-01
  3.9080925e-02
  3.4598419e-01
 -1.6238892e-01
 -2.1342725e-01
 -1.1902701e-01
  7.7438366e-01
 -7.4423989e-03
  4.9897289e-01
  3.4899455e-02
 -3.6404622e-01
 -2.5455371e-01
 -2.0075923e-01
  4.8293710e-02
 -1.4357097e-01
  5.3311628e-01
  1.1571144e-01
 -2.1589118e-01
 -3.4840408e-01
  2.0956044e-01
 -3.7466386e-01
  1.1929477e+00
 -9.3845701e-01
 -1.6191781e-01
  7.1662337e-01
 -4.4869277e-01
  3.4460327e-01
 -5.1157683e-01
  6.5700114e-02
 -3.1936902e-01
 -1.5642366e-01
 -2.4383163e-01
  7.8410584e-01
  6.6681844e-01
  5.6690222e-01
 -4.6558264e-01
  5.0349653e-01
 -4.2285049e-01
 -4.8415112e-01
 -7.5325206e-02
  4.8673218e-01
  1.9885752e-01
  4.6088049e-01
  6.8398464e-01
  1.0055879e-01
  1.0073359e+00
  3.8198268e-01
  7.5308338e-02
  8.6401784e-01
 -9.9960767e-02
 -9.3797728e-02
 -6.7471308e-01
 -2.4645111e-01
  3.1312791e-01
 -6.2270480e-01
 -2.0653711e-01
  8.1638366e-01
 -4.3212092e-01
  2.5116339e-01
  2.6495400e-01
  1.0187359e-01
  6.9177657e-01
 -4.1908848e-01
 -8.2939327e-02
 -1.5319300e-01
  3.7459967e-01
 -5.9575719e-01
 -2.6445356e-01
 -6.1189169e-01
 -4.5494485e-01
  2.2596912e-01
 -3.9367515e-01
  5.8342594e-01
 -3.7229162e-01
 -4.4243649e-01
  1.6625071e-01
 -2.6463753e-01
 -3.2491982e-04
  3.5241646e-01
 -5.6907415e-01
  2.7620706e-01
  4.1078424e-01
  4.3880635e-01
  1.8508182e-01
 -1.0329626e-01
 -2.5670819e-02
 -6.7697752e-01
  3.3633062e-01
  4.5560434e-01
  3.8042748e-01
 -5.7366836e-01
 -9.0983436e-02
 -3.5798857e-01
 -1.6469663e-01
 -1.7379856e-01
  2.7221513e-01
  1.3711947e-01
 -3.9798665e-01
 -5.0032198e-01
  4.1270316e-02
  2.9661044e-01
 -2.9029566e-01
  4.0219954e-01
 -2.7021858e-01
 -2.3551774e-01
 -4.4616312e-01
 -3.7043315e-01
 -6.4808798e-01
  2.7385604e-01
 -2.6306602e-01
  3.7319008e-01
  2.9630804e-01
 -6.4433360e-01
  5.2709323e-01
 -4.3835527e-01
  3.8084667e-02
 -7.5479996e-01
 -4.3414199e-01
  3.5683289e-01
  1.9503038e-01
  4.9862602e-01
  1.3761880e-01
  3.2479163e-02
 -1.6475376e-01
 -3.7826276e-01
  1.7571008e-01
  2.9604781e-01
 -5.4079366e-01
 -6.0303241e-01
 -2.6225328e-01
 -2.7966639e-01
  6.2273771e-01
  4.2501050e-01
  8.3733782e-02
 -6.3036454e-01
  3.3998713e-02
  4.9821891e-02
  1.2122579e-01
 -4.1354388e-01
  3.5647064e-01
 -3.0095449e-01
  3.3664782e-02
 -5.7947421e-01
  6.5647250e-01
 -7.1693525e-02
  4.3047529e-01
 -4.3194056e-01
  4.3336537e-01
 -1.8761611e-01
  1.5485814e-01
 -4.3826634e-01
  3.5482171e-01
 -2.4173495e-01
 -9.0037245e-01
  7.9515971e-02
 -4.3015400e-01
 -8.5883543e-02
  2.7622038e-01
  5.5731237e-01
 -4.2554310e-01
 -3.0481565e-01
  7.8901634e-02
 -4.0681440e-01
 -1.8261503e-01
 -1.9421558e-01
 -3.9420867e-01
  1.4238234e-01
  1.3188270e-01
 -9.2851542e-02
  6.5588421e-01
  4.4884634e-01
 -8.4143734e-01
  3.6906713e-01
 -1.1199076e-01
 -2.2056656e-01
 -1.6873574e-01
 -3.2466832e-01
  3.2989591e-01
  3.8184136e-01
 -1.8494565e-02
  2.2566706e-02
 -7.1821868e-02
 -9.6146241e-02
 -5.6445467e-01
  3.3659595e-01
 -1.2943336e-01
  2.8812587e-01
  1.7806450e-01
  2.9538345e-01
 -5.7468349e-01
 -2.5417703e-01
  3.4803709e-01
  2.2960235e-01
  4.4203430e-01
 -3.4828982e-01
 -3.0197960e-01
 -3.7900969e-01
  4.2955726e-01
 -1.5203393e-01
  6.0444266e-01
 -4.5183223e-01
 -6.9748111e-02
 -1.3563335e-01
 -6.5892386e-01
  1.6040960e-01
  2.5913262e-01
  1.1327545e-01
 -9.8004657e-01
 -7.0214832e-01
  4.3514392e-01
  8.6651599e-01
 -3.8166165e-01
 -1.0240729e-01
 -4.9971560e-01
 -4.2675436e-04
 -1.1479604e-01
  2.1440248e-01
  5.4444814e-01
 -2.5406337e-01
 -2.5909671e-01
 -1.0170415e-02
 -3.2081324e-01
  2.4701506e-01
 -1.3060436e-01
  2.7903866e-02
  5.7278883e-01
 -2.0178699e-01
 -4.7137320e-01
  2.0880662e-01
 -6.3810617e-01
  4.1553396e-01
  4.1205752e-01
  4.1908351e-01
  1.6227903e-02
 -3.5547215e-01
 -1.3392037e-01
 -4.9303633e-01
 -5.3197414e-02
 -3.0198175e-01
 -5.3397316e-01
  5.2105093e-01
  6.8797725e-01
 -2.2076286e-01
  6.9023803e-02
  5.8221781e-01
  3.1564432e-01
 -1.7458409e-01
 -4.4287020e-01
  7.3262584e-01
  1.4880723e-01
 -5.7037210e-01
 -2.7321833e-01
  7.1795933e-02
 -3.6618200e-01
 -7.8407001e-01
 -5.5711639e-01
 -1.7346747e-01
  4.0864971e-01
  8.0842173e-01
  1.2870239e-01
 -5.1936442e-01
 -3.1989402e-01
  4.7891480e-01
  4.6861622e-01
  2.9449737e-01
 -7.4250415e-02
 -4.3803267e-02
 -2.4133003e-01
 -2.0781015e-01
 -1.1614185e-01
  4.8741066e-01
  2.3828568e-02
  5.3998739e-02
  6.6445577e-01
 -2.8305203e-02
 -2.7743214e-01
 -4.9044931e-01
 -4.6764594e-01
 -1.2281620e-01
  9.0242296e-02
  2.2877723e-01
 -3.9901551e-02
 -1.3697578e-01
 -2.3823713e-01
 -2.6386791e-01
 -1.7245331e-01
  2.2459206e-01
 -2.9868010e-01
  1.5784508e-01
 -3.6492100e-01
 -6.2916821e-01
 -2.5815642e-01
  3.6155966e-01
 -5.8912951e-01
  7.1443594e-01
 -2.9664433e-01
 -1.3310547e-01
  7.2749510e-02
 -5.0577265e-01
  5.3629154e-01
  3.4396222e-01
  3.6717534e-02
  5.2696520e-01
 -4.8618801e-02
  4.4453001e-01
  3.2833624e-01
 -6.6771203e-01
  2.9095984e-01
 -9.1271430e-01
 -1.8909276e-01
 -5.2493358e-01
 -2.7495724e-01
 -4.5883018e-01
 -8.0624938e-02
  1.6346556e-01
 -3.3190763e-01
 -1.9473242e-02
  2.5755471e-01
 -4.9977064e-01
  4.1525817e-01
 -9.9055976e-02
  8.8268198e-02
 -4.4684350e-01
  2.9067981e-01
 -5.5809784e-01
 -3.7637231e-01
  2.0865200e-01
  1.5698373e-02
  1.5296589e-01
 -3.9804316e-01
 -6.0844624e-01
  4.3602985e-01
  3.9319336e-01
 -2.1613798e-01
 -2.9099095e-01
  6.1173153e-01
  3.5803920e-01
 -1.9517913e-02
 -2.0690879e-01
  3.8844475e-01
  3.8443083e-01
 -3.2409367e-01
 -2.1698987e-01
  4.5626950e-01
 -8.8695094e-02
  5.2579200e-01
 -1.1621167e-01
 -4.9268195e-01
 -2.7268855e-02
 -1.6907600e-01
 -3.3340061e-01
  1.8311070e-01
 -1.5909377e-01
 -1.2939931e-01
  1.4042072e-01
  5.7625610e-01
 -1.0810861e-01
  1.2597230e-01
 -2.5291887e-01
  9.9804312e-02
 -5.9987009e-01
  1.7515315e-01
 -3.8812496e-02
  4.2227387e-01
 -1.3329037e-01
 -6.7383480e-01
  3.5004735e-02
 -3.2970071e-01
 -2.2025290e-01
 -4.7650486e-01
 -3.8419181e-01
 -3.2015088e-01
  3.4019753e-01
  2.7265331e-01
  1.3125983e-01
 -1.7766421e-01
  1.8079111e-01
  1.7068461e-01
  1.8214669e-02
  1.0767653e+00
  2.9402852e-01
  1.8206960e-01
  3.4954420e-01
 -6.5686530e-01
 -8.8841781e-02
  3.4281559e-02
 -4.2336071e-01
 -2.7106366e-01
  4.2509013e-01
 -2.5414589e-01
 -1.0453977e-01
  2.9425257e-01
 -7.4353397e-01
 -1.1277454e-01
 -5.9043950e-01
 -4.4450569e-01
  1.3334711e-01
  1.4243670e-01
  4.8670810e-01
  5.2716017e-01
  1.5186849e-01
 -3.6372542e-01
 -8.9214951e-02
  1.1309072e-01
  2.5316527e-01
 -6.7283112e-01
 -3.4386593e-01
 -3.4232584e-01
  7.6972353e-01
  4.6797562e-01
  1.0715222e+00
 -8.1205457e-02
  1.6527817e-01
  3.4076712e-01
 -3.8665253e-01
 -4.8423767e-02
  2.4018483e-01
  6.4547390e-02
 -5.8508074e-01
 -4.8847012e-03
 -3.7753505e-01
  8.2796574e-02
 -2.7821761e-01
  1.8806837e-01
  1.0062653e-01
  6.3189274e-01
  4.6059388e-01
  2.1672502e-01
  2.1726073e-01
 -4.3637168e-01
 -5.7663653e-02
  1.2157154e-01
 -2.2067656e-01
  5.9514141e-01
  1.6094711e-02
 -8.3384317e-01
  1.2565717e-01
 -7.3873222e-01
 -6.2077636e-01
 -2.4992800e-01
  6.4350867e-01
  8.8421518e-01
  1.3887800e-01
  3.5352774e-02
 -3.9246914e-01
 -3.9536941e-01
  3.3959812e-01
  7.6186436e-01
  4.3173584e-01
 -5.3074127e-01
  2.1659656e-01
  2.1882273e-01
 -7.4733442e-01
  4.0905967e-01
  1.1798237e-01
 -2.4954189e-01
 -2.3412032e-01
  4.7627193e-01
 -5.8779679e-03
 -2.2321153e-01
  7.0054626e-01
 -1.3779005e-01
  6.2582493e-01
 -7.8601852e-02
 -7.8892684e-01
  2.3641938e-01
 -5.4533315e-01
 -2.2714823e-01
 -1.7330989e-01
 -1.7402868e-01
  2.0292053e-01
  2.4120913e-01
 -5.9832704e-01
 -2.2471704e-01
 -3.6379451e-01
  5.9500527e-01
 -3.2947922e-01
 -3.1540817e-01
  5.0353324e-01
 -8.3821207e-01
 -3.7629125e-01
  4.5933840e-01
  4.0671998e-01
  8.1020005e-02
 -8.6334348e-01
  4.6397913e-01
 -6.3303418e-02
  5.6123382e-01
  5.7008266e-03
 -4.2879733e-01
  3.4364444e-01
 -1.4432347e-01
  9.4484174e-01
 -1.8447123e-01
 -4.1905083e-02
  9.1107726e-02
  1.5257466e-01
 -4.8368627e-01
 -1.9977842e-01
  2.9139611e-01
  1.7775619e-01
 -6.9630158e-01
  3.5529867e-02
 -6.0068327e-01
 -8.5383616e-02
  2.4785152e-01
 -1.2566820e-03
  2.1580112e-01
 -1.4001021e-01
  4.1040677e-01
 -5.8441174e-01
  8.4949410e-01
 -5.8048613e-02
  3.2305825e-01
  2.5875306e-01
 -7.9982601e-02
  4.7593531e-01
  2.5433046e-01
 -1.7345761e-01
 -2.3733655e-01
  1.2967180e-01
 -1.7968650e-01
  1.3939840e-01
  4.4493061e-01
  2.0704171e-01
  1.0451655e-01
  2.1021694e-01
 -2.7979961e-01
  2.2028439e-01
  1.1890631e-01
  1.5887070e-02
 -5.9458202e-01
 -8.1812143e-03
  6.3410687e-01
  4.3691221e-01
  8.4125549e-03
 -4.6354705e-01
  3.5685024e-01
 -1.6779457e-01
  3.5273397e-01
 -3.2883969e-01
  3.9231208e-01
  8.8391304e-02
 -2.6585981e-02
  8.3032228e-02
 -2.2749317e-01
  4.4956383e-01
 -1.5144993e-01
  4.1855055e-01
 -1.3340721e-01
 -6.0337234e-01
  3.2553732e-01
  4.4756687e-01
  2.2051999e-01
 -5.1775448e-02
  5.6793183e-01
  2.8283307e-01
 -1.0154663e-01
  6.0068578e-01
  1.0749323e-01
 -7.0728534e-01
  3.3923231e-02
 -1.2267698e-01
  1.1482350e-01
  5.1909840e-01
 -1.3044453e-01
  4.5720869e-01
  6.8526432e-02
  1.4229128e-01
 -1.1221468e-02
 -7.7407405e-02
 -7.7527320e-01
 -1.2066093e-01
  4.8921788e-01
  9.1611540e-01
 -3.8717353e-01
  5.8980840e-01
  1.2835786e-01
  1.8953182e-02
  4.6729594e-01
  1.7552239e-01
  7.4938715e-01
 -4.6002030e-01
 -1.4126302e-01
  4.8219010e-01
  3.5144675e-01
  6.7420673e-01
  3.6216345e-01
 -1.9855332e-01
 -2.5529683e-02
 -2.1537393e-02
  3.0891947e-02
 -7.4385151e-02
  3.4709346e-01
 -3.3263093e-01
 -5.4749314e-02
  4.7421181e-01
  2.1530549e-01
  3.3263847e-02
 -3.0582324e-01
  6.7470014e-02
  4.6597469e-01
  8.2213432e-02
 -7.4667674e-01
 -9.2893672e-01
 -4.7837314e-01
  2.1816732e-01
 -3.2107413e-01
 -7.9943454e-01
  9.0512252e-01
  1.6974650e-01
  5.7293773e-02
 -5.8065844e-01
 -2.8602466e-01
  7.7756912e-01
 -7.1731441e-02
  2.7603579e-01
 -9.3565643e-02
 -1.3017473e-01
 -3.5049146e-01
 -5.9245460e-02
  2.4826115e-01
  6.3946366e-01
  5.1439685e-01
  3.6572412e-01
 -2.3457570e-01
 -1.5496515e-01
  6.8394613e-01
  2.5760117e-01
 -1.0447855e-01
 -1.5492946e-01
 -2.2295745e-01
 -1.1006773e-02
 -3.9984334e-01
 -2.1500510e-01
  4.7580987e-01
 -4.3138832e-02
  7.1475588e-02
 -5.9985465e-01
 -2.6535010e-01
 -6.5245152e-02
 -3.0163190e-01
  4.1084209e-01
  4.5887418e-02
  1.7626086e-01
  4.4693416e-01
  4.0073571e-01
 -2.6660180e-01
 -1.4037965e-01
  1.5986528e-01
 -5.9696656e-01
 -8.2504070e-01
  1.9881290e-01
 -7.8909732e-02
 -3.6312804e-02
 -4.6117732e-01
 -2.6980913e-01
 -6.6140229e-01
  1.2157288e-01
 -4.1246724e-01
  3.6313751e-01
  4.0801969e-01
  1.0444985e-01
  1.2477021e-01
  1.5341964e-01
  6.9973385e-01
  8.1478894e-02
 -1.5727662e-01
  3.8949467e-02
  3.9746237e-01
  2.0926519e-01
 -4.1419631e-01
 -6.4900398e-01
 -1.1638002e-01
 -6.3966697e-01
 -4.8825890e-01
 -3.1706709e-01
 -1.1299864e-01
 -7.9265696e-01
  2.8903669e-01
 -1.3540946e-02
  1.0083454e+00
  6.4164549e-02
  4.1680053e-01
  7.4833816e-01
  5.0659841e-01
  3.3569485e-01
  2.6060307e-01
  4.3632358e-01
  4.0507334e-01
 -1.5379664e-01
  2.3108259e-01
 -2.3203982e-01
 -4.3463445e-01
 -2.2401124e-01
 -2.9594937e-01
  3.1846851e-01
  4.1985266e-02
  1.8742156e-01
 -1.5716815e-01
 -2.8760904e-01
 -3.0687904e-01
  4.4465306e-01
 -1.1227520e-01
  2.7716726e-01
 -1.4200944e-01
 -8.9184880e-01
  4.3830028e-01
  5.7314163e-01
  2.8775302e-01
  2.9012865e-01
  2.3778534e-01
  1.2002257e-01
  5.4331946e-01
  4.4264522e-01
  3.8576496e-01
  5.6959826e-01
 -9.8666057e-02
 -7.3385023e-02
  5.8004677e-01
 -1.8863687e-01
 -3.2941371e-01
  9.1103390e-02
  7.8493118e-01
  5.3380257e-01
 -5.0280017e-01
  1.8318501e-01
 -8.4859997e-02
  1.1442144e-01
 -3.0345070e-01
 -1.7559409e-02
  2.1797800e-01
 -2.0235822e-02
 -1.8872842e-03
  4.5880246e-01
 -6.8432593e-01
 -5.0832504e-01
 -3.7752859e-02
  3.5925162e-01
 -7.5987518e-01
  6.7865968e-01
 -3.8793713e-01
 -3.5173962e-01
  6.1255038e-01
 -1.1319710e-01
 -2.8168225e-01
  2.5527251e-01
 -6.7354590e-02
  2.3732907e-01
 -3.4736237e-01
  7.8768119e-02
  3.3847046e-01
  5.4464221e-01
  3.4292245e-01
  6.0043192e-01
 -2.0837782e-01
  5.3038418e-01
 -4.2440824e-02
  4.3020403e-01
  2.5206092e-01
  3.1971595e-01
 -1.3570622e-01
  6.4159200e-02
  5.5515265e-01
  3.8729122e-01
  1.8966198e-02
 -1.7062198e-01
 -4.8185796e-01
  3.5889715e-02
  3.1271872e-01
 -5.0586605e-01
 -4.5327967e-01
  3.7023887e-01
 -3.4667671e-02
 -6.6432491e-02
  2.7219525e-02
 -7.1474195e-02
  1.5449148e-01
  3.7121866e-02
 -1.8030973e-01
 -4.8148054e-01
 -7.3791057e-01
  3.3259457e-01
 -5.0739580e-01
  5.0266010e-01
 -2.5594646e-01
 -8.9095980e-03
  3.2105571e-01
 -2.5521272e-01
 -8.4239870e-02
  4.8496732e-01
  4.3152530e-02
  2.2446953e-01
  6.0937956e-02
  3.8107820e-02
 -4.4985110e-01
 -1.7803065e-01
 -2.1981472e-01
 -4.6899045e-01
  2.2312514e-02
  3.9686805e-01
 -4.3909799e-02
 -2.0917296e-01
 -4.6233749e-01
 -8.4662330e-01
  6.5271938e-01
 -4.6809188e-01
 -2.8478071e-02
  3.4660555e-02
  7.1337193e-01
 -7.0254880e-01
 -2.4994098e-01
 -5.6904393e-01
 -3.6782575e-01
  4.2095226e-01
 -6.1220384e-01
 -7.2719663e-01
 -5.0709701e-01
  4.9706705e-02
 -4.8974890e-01
  2.2665285e-01
  2.1005620e-01
  8.0767268e-01
  4.2419991e-01
 -6.4641488e-01
 -1.5598281e-01
 -2.3934448e-01
  3.0903926e-01
 -2.1615845e-01
 -6.0379319e-02
 -1.2513424e-01
  2.9972535e-01
 -1.5439741e-01
  5.3961468e-01
 -1.6082337e-01
  5.5399668e-01
 -7.1162224e-01
  1.9112285e-02
  4.9518776e-01
  2.8150868e-01
 -2.4813180e-01
 -3.1143248e-01
  4.6890494e-01
  6.7345738e-01
  3.2620227e-01
  9.7244173e-02
 -4.3631628e-01
 -7.4646986e-01
 -7.9886608e-02
  2.2083138e-01
  5.4993510e-02
  1.0507303e-01
  4.5105225e-01
  7.9777777e-02
  3.9150751e-01
  8.0367729e-02
  2.0136140e-01
 -2.3064502e-01
  4.2697719e-01
  2.7716279e-02
 -3.2828996e-01
  3.2131150e-03
 -3.1278008e-01
 -3.3005786e-01
 -4.1879117e-01
  7.6375708e-02
 -1.3943411e-01
 -1.1046796e-01
 -4.2016941e-01
  2.0949917e-01
  4.0966618e-01
 -1.5087737e-01
 -2.0354974e-01
 -1.7993890e-01
  2.5814179e-01
  2.5370711e-01
  3.2408392e-01
 -2.2405908e-03
 -3.4069324e-01
 -3.7709552e-01
 -5.1346171e-01
 -1.8499401e-01
 -9.3470526e-01
 -1.4192587e-01
  4.6552256e-01
  3.4520176e-01
  2.6255316e-01
 -1.1721186e-01
 -2.1092975e-01
 -8.8949747e-02
  4.3619868e-01
  5.2572769e-01
  5.1827826e-02
  5.1171046e-01
 -3.3392444e-02
 -4.4903284e-01
 -7.6229177e-02
  6.9646031e-02
  5.4956925e-01
  2.2530812e-01
  2.7851650e-01
  5.0627992e-02
 -4.5308527e-01
  6.5740138e-02
  4.4152260e-01
 -6.6166413e-01
 -8.4266134e-02
 -2.3169160e-02
  5.9386200e-01
 -3.2996726e-01
  6.5363228e-02
  3.6472094e-01
 -3.5461786e-01
 -6.5569949e-01
  3.5338271e-01
  2.6696494e-01
  2.3633012e-01
  8.3794326e-02
  2.9620707e-01
  3.4892681e-01
  7.2734749e-01
  2.0392482e-01
  3.1267184e-01
  5.5702146e-02
  7.8301184e-02
 -2.2670977e-02
  5.1240700e-01
  1.1563733e-01
 -7.3542827e-01
  2.0608532e-01
  1.8362929e-01
 -2.5751519e-01
  5.3914046e-01
  2.2459821e-01
 -1.0301545e-02
 -3.0165857e-01
 -5.5519843e-01
 -1.8453941e-02
  1.1414637e-01
  7.2841831e-03
  5.1613647e-01
  2.7331117e-01
  4.2072481e-01
 -1.1698065e-01
 -1.1521272e-01
  3.6248362e-01
  3.8627869e-01
  7.6707768e-01
 -7.8494519e-02
  2.2530052e-01
 -2.1898212e-01
 -1.0502087e-01
 -3.9199030e-01
 -8.0221735e-02
 -6.0391277e-01
 -2.8579545e-01
 -9.6855693e-02
  3.0623639e-01
 -1.6980137e-01
  3.1734392e-01
 -3.0764788e-01
  1.7297797e-01
  8.2310401e-03
  2.6177493e-01
 -1.0035491e-01
  3.8516051e-01
 -4.2196861e-01
  1.1822674e-01
  2.8298551e-01
  6.1233848e-01
 -2.4489173e-01
  9.7484255e-01
  1.6282359e-01
 -3.4433886e-01
  5.6925511e-01
 -2.2714107e-01
  4.3346092e-02
 -5.0444537e-01
  2.1830985e-01
 -1.5094437e-01
 -5.6894231e-01
  9.0573043e-02
 -4.0060151e-01
 -1.2727989e-02
 -2.5703067e-01
 -2.4322510e-01
  2.1725157e-01
 -2.7889660e-01
 -1.5673567e-02
 -2.3931172e-01
  1.8181504e-01
  4.8168968e-02
  2.6755065e-01
 -3.1074509e-02
 -3.3210391e-01
 -1.3263792e-02
  1.1403167e-01
  6.0432374e-01
  2.5874308e-01
  4.6999484e-02
 -3.5842922e-01
  4.4497009e-04
  1.0679121e-01
  6.6754699e-02
 -1.0318036e-01
  8.7904826e-02
 -3.9348143e-01
  6.2996513e-01
 -2.7567884e-01
  5.2717662e-01
  5.1943153e-01
 -7.7221125e-02
 -3.5242301e-01
 -2.8485227e-01
  3.9446577e-02
  8.5845387e-01
  2.0285496e-01
 -3.4048092e-01
 -1.7465721e-01
  2.2073103e-01
  2.7168465e-01
 -2.8877896e-01
  3.7882370e-01
 -1.0753373e-01
  2.4356091e-01
  4.6403575e-01
 -1.9210255e-01
  1.0311806e-01
 -7.6993531e-01
  6.8090463e-01
  6.0655594e-01
 -5.0951302e-02
 -3.9105529e-01
  3.4855476e-01
  3.6835033e-01
 -3.9618275e-01
 -6.7495400e-01
 -3.1322455e-01
 -7.5137800e-01
 -2.3052096e-04
 -2.6038250e-01
 -3.2568127e-01
  5.2232057e-02
  8.2130152e-01
 -5.6480360e-01
  2.1752514e-01
 -3.4687415e-01
  2.9801971e-01
  1.1217941e-01
 -4.2639837e-02
 -1.6153324e-01
 -8.1074037e-02
  1.8051213e-01
  3.7455305e-01
  1.8597862e-01
  9.0389103e-03
 -1.2019446e-01
 -2.8123283e-01
  3.9751968e-01
 -2.4831690e-02
 -2.8232810e-01
 -2.4766380e-01
  6.0669637e-01
 -1.2750018e-01
 -4.4961175e-01
  4.8469338e-01
 -8.4574014e-01
  7.6479375e-01
  6.9649744e-01
  5.7635015e-01
  2.7504259e-01
 -2.0817468e-01
 -4.8476836e-01
  7.1186686e-01
 -4.3043593e-01
  8.3672889e-02
 -3.5687691e-01
  4.0463817e-01
 -4.7179323e-01
 -5.6082302e-01
 -3.9001176e-01
  3.6911219e-01
 -1.5460713e-01
  4.5118377e-02
  1.0059478e+00
  3.8126651e-03
  2.8129849e-01
  7.7525660e-02
 -4.9686581e-01
  9.4403543e-02
 -4.1765183e-02
  1.1799850e-01
 -1.8936912e-02
  8.3305314e-02
 -6.7593038e-02
 -4.1149986e-01
 -6.9570911e-01
  3.5785639e-01
  3.5116547e-01
 -3.8171589e-02
 -4.6560368e-01
  3.7060589e-01
  1.8693754e-01
  1.0616504e-01
 -1.4380053e-01
  2.8601870e-02
  1.3465060e-01
  3.2544619e-01
  3.4055871e-01
  3.3012307e-01
  4.3260029e-01
  4.9008101e-02
  1.0886743e-01
  1.2688100e-02
  8.5659839e-02
 -5.7293868e-01
  3.1296244e-01
  6.7356598e-01
  4.9906856e-01
  6.8820141e-02
 -3.6819768e-01
 -1.8667600e-01
 -3.2944018e-01
 -3.9396189e-02
  1.1603987e+00
 -3.8233608e-01
 -5.4763544e-01
 -2.0896529e-01
  4.1645885e-01
 -4.0793037e-01
  3.3666340e-01
 -1.1837004e-01
 -2.1770278e-01
 -2.0737121e-01
  4.4660029e-01
  1.3089474e-01
  1.0768647e-01
  2.9844761e-02
 -6.7624974e-01
  3.3192101e-01
  3.6571935e-01
  4.4110382e-01
  5.0945175e-01
 -5.3530896e-01
 -7.6797873e-02
  5.1537651e-01
 -1.9625798e-01
  5.7259911e-01
  5.6606300e-02
 -1.1572805e-01
 -1.7406315e-01
  1.8427569e-01
  6.5313226e-01
  8.4256828e-02
 -1.0110799e-01
  6.8602228e-01
  4.4060814e-01
  2.0710841e-02
  5.3089297e-01
  2.9314381e-01
  4.7059232e-01
 -6.4563525e-01
  7.1734190e-01
 -3.0408129e-01
  5.0028580e-01
 -6.6182649e-01
 -2.2102240e-01
 -5.7543027e-01
  9.0586737e-02
  2.0884585e-01
  2.5408316e-01
 -9.4305164e-01
 -3.2310817e-01
 -6.1237550e-01
  1.9474456e-01
 -3.5649672e-01
  8.0150507e-02
  2.9068273e-01
 -3.2780260e-01
  1.3974726e-01
 -3.7682852e-01
 -9.6279055e-02
  5.0595272e-01
  1.2897849e-02
 -6.6769361e-01
 -1.4145721e-02
 -4.9960229e-01
 -5.1053035e-01
 -4.2628950e-01
 -2.3397058e-03
  4.6206748e-01
 -1.6481154e-02
 -4.2301491e-01
 -3.7597764e-01
  4.0118769e-02
  1.9448772e-01
  4.3036187e-01
 -3.5219574e-01
 -4.2785320e-01
  2.0921202e-01
 -1.1849829e-01
 -2.0119163e-01
 -4.6468377e-02
 -2.1876261e-01
 -4.6493050e-01
 -2.5229901e-01
 -5.9535050e-01
 -1.0991886e-01
 -5.6363653e-02
  8.4445402e-03
 -3.2220575e-01
  2.7428168e-01
 -8.4094983e-01
 -2.6956120e-01
 -1.7616212e-01
 -1.8645002e-01
 -1.5687868e-01
  4.2282319e-01
  3.4025645e-01
  1.0769133e-01
  5.6634635e-01
 -4.0132234e-01
 -4.0197799e-01
  7.8522527e-01
  4.5248508e-01
  9.7464938e-03
  3.4865052e-01
  1.7881030e-01
 -8.4453815e-01
  2.5840673e-01
 -2.4566628e-02
  7.5539619e-01
  3.6800513e-01
  1.3170901e-01
 -1.4857984e-01
 -2.8056648e-01
  3.9933771e-02
  3.2062271e-01
  3.6672133e-01
 -1.6090871e-01
  5.1512182e-01
 -4.1273531e-01
 -9.4807245e-02
 -5.9017795e-01
 -2.4160860e-01
  1.8591821e-01
 -4.0707147e-01
  1.4824669e-01
 -1.3367859e-01
  4.0837216e-01
  6.4179420e-01
  5.1341826e-01
 -2.8763703e-01
  6.5941475e-02
 -6.3487247e-02
  5.3529948e-01
 -6.0460663e-01
  2.9922901e-02
 -4.4847271e-01
  1.0380566e-01
  1.5378177e-01
 -7.9206213e-02
  2.7413476e-01
 -4.0385193e-01
  3.7836722e-01
  1.6834429e-01
 -6.6686559e-01
  3.2639778e-01
 -3.4900537e-01
 -3.2834142e-02
  3.7741935e-01
 -4.9522141e-01
  9.4891191e-02
 -3.1202105e-01
 -6.3579547e-01
 -1.2481180e-01
 -6.0275543e-01
 -8.5936880e-01
 -2.4431112e-01
 -8.6332422e-01
  3.0927807e-01
  2.2091013e-01
 -6.8650186e-01
 -4.4204131e-01
 -4.6732104e-01
 -6.3307124e-01
 -2.4044932e-01
  2.7723810e-01
  4.7763270e-01
  1.8679826e-01
  3.4240443e-01
 -3.4581020e-01
 -6.2521988e-01
  4.4902784e-01
 -5.9221965e-01
  5.0744808e-01
 -6.9068581e-02
 -4.4329703e-01
  1.8658023e-01
 -6.4747304e-02
 -3.3145398e-02
 -4.5557445e-01
 -3.2105741e-01
 -2.7485639e-02
 -2.3366278e-01
  8.8994634e-01
  1.1107285e-01
 -2.4795538e-01
 -2.7181494e-01
 -3.7883908e-01
 -1.8272373e-01
 -7.3712237e-02
 -2.2857910e-01
 -5.0354254e-01
  8.6169556e-02
  1.6268697e-01
 -2.1163031e-02
 -2.1503414e-01
  6.9220759e-02
  4.2182112e-01
 -2.1197312e-01
  2.6387075e-01
 -6.0184568e-02
 -5.3088647e-01
 -2.2202267e-01
  8.6761005e-03
 -1.5137250e-02
  2.6183581e-01
 -2.5139460e-01
  3.2235891e-02
 -3.6870134e-01
  2.7533612e-01
 -1.7850529e-01
  5.2098835e-01
  3.0413139e-01
 -3.1316766e-01
 -3.5779923e-04
 -3.7164021e-01
 -1.3464600e-01
 -3.1663588e-01
  4.7536626e-01
 -3.5465258e-01
  5.1613599e-02
  2.5371087e-01
 -2.8794760e-01
  3.3416578e-01
  1.5161811e-01
  7.6348819e-03
  4.8831010e-01
  2.6562196e-01
 -2.0531206e-01
 -2.7402911e-01
 -1.2021755e-01
 -1.2087621e-01
  4.1739571e-01
 -5.7371879e-01
 -3.0516011e-01
  2.9258823e-01
  2.5659412e-01
  3.8179773e-01
 -8.7504871e-02
 -3.5486952e-04
  1.6135204e-01
 -1.7373699e-01
 -1.6722454e-01
  4.9795172e-01
 -2.7131158e-01
 -4.1626342e-02
 -1.1488571e-01
  6.1113620e-01
  4.7460529e-01
 -7.6214916e-01
 -9.3206413e-02
 -1.7342786e-01
  5.9952945e-01
  6.8550879e-01
  1.7849655e-01
 -5.4129416e-01
  3.8424900e-01
  2.7644730e-01
  3.9379349e-01
  2.4514455e-01
  1.9829360e-01
 -2.0491338e-01
 -5.9867489e-01
 -8.0241275e-01
  8.3500095e-02
 -5.1241130e-02
 -2.2518964e-01
  3.6331284e-01
 -3.5402127e-02
  4.2824620e-01
 -3.7735108e-01
  8.5808173e-02
  3.1347147e-01
 -3.1977776e-01
 -9.9431559e-02
 -9.8261040e-01
  5.0958566e-02
  2.3569553e-01
 -1.2088596e-01
  5.1530853e-02
  2.4018654e-01
  1.2779087e-03
 -2.7965009e-01
 -5.7728100e-01
 -2.7965209e-01
 -2.3234531e-01
 -1.0033023e-01
 -3.6280245e-01
  5.6433231e-01
  2.6182213e-01
 -1.7241333e-01
  9.1689661e-02
 -1.2223871e-01
  3.5579752e-02
 -2.4701014e-01
 -7.2185469e-01
  2.5167492e-01
 -2.6954493e-01
 -5.6794953e-01
  2.6156016e-02
 -5.7815388e-02
  5.5865228e-01
 -2.5049943e-01
  3.4363672e-01
 -1.4154275e-01
  2.1537688e-01
  6.7556036e-01
 -7.1023715e-01
  2.8705418e-01
 -3.0019259e-01
 -2.6108399e-03
  9.8788366e-04
 -4.1556245e-01
 -5.4388827e-01
 -4.5731729e-01
  1.1281177e-01
  2.7952829e-01
  5.6198341e-01
  3.1884080e-01
 -1.4778022e-01
  3.0568531e-01
  5.0922340e-01
 -1.6636562e-01
 -2.8645799e-02
  1.0032257e-01
 -1.7192170e-01
 -8.6922079e-02
  2.6302192e-01
 -3.5732493e-01
 -2.3942196e-01
 -3.8788518e-01
  3.7312001e-01
 -2.7868739e-01
  3.5721478e-01
  4.9445912e-01
 -6.1251856e-02
  1.3651763e-01
  6.2008172e-01
 -2.0615494e-01
 -2.0473264e-01
 -1.9897407e-01
  8.4729508e-02
 -2.1731820e-02
 -5.5330384e-01
  3.2994109e-01
  3.2930586e-01
  5.0978187e-02
  5.6845006e-03
 -2.4240005e-01
 -5.4584801e-01
  2.0836237e-01
 -2.7378374e-01
  1.0678118e-01
 -2.8424245e-01
  5.3798862e-02
  8.0426753e-01
 -1.5820587e-01
  4.7635123e-02
  1.4313105e-01
  4.6059754e-01
  4.7179252e-01
  8.1071183e-02
 -4.8427019e-01
  3.9595789e-01
 -2.8664547e-01
  1.5808147e-01
 -4.1022027e-01
  4.0670797e-01
 -4.5165008e-01
 -4.6602517e-01
  1.3578172e-01
  4.6331316e-02
  3.8885301e-01
 -2.1024330e-01
 -2.6326296e-01
  4.5320861e-02
 -1.0093570e-01
 -5.9471976e-02
  8.6677391e-03
 -8.0056876e-02
 -2.6265725e-02
 -2.3389159e-01
  2.9426545e-02
  4.3946514e-01
  1.5387817e-01
  3.9308995e-01
 -4.5329651e-01
 -6.1503011e-01
  3.0982807e-01
  2.2856003e-01
  6.6233385e-01
 -2.1400051e-01
 -1.3661185e-01
  2.9191542e-01
 -9.7096041e-02
  7.5179017e-01
 -6.5001875e-01
 -7.6410371e-01
  2.8149900e-01
 -5.3659803e-01
  6.3647456e-02
  6.8860620e-01
 -1.8628323e-01
 -2.0804444e-01
 -6.8363798e-01
  6.5789446e-02
 -4.3941939e-01
  3.0582511e-01
  1.5445168e-01
  1.5602306e-01
  1.9036937e-01
  3.7455541e-01
  6.1509222e-01
  2.3063573e-01
  9.3879856e-02
  1.5609711e-01
 -5.0286961e-01
  4.4643316e-01
  3.1388903e-01
  2.2982645e-01
 -5.7734984e-01
  1.1859185e-01
  1.5052268e-01
 -1.7044115e-01
 -4.8065108e-01
 -2.1434203e-01
 -6.1197299e-01
 -4.2477089e-01
  3.7825343e-01
 -2.8123781e-02
  1.2567210e-01
 -2.3257408e-01
  4.0170413e-01
 -3.4479786e-02
  4.8759368e-01
  6.0381681e-01
 -1.7759682e-01
 -1.2809169e-01
 -5.3082705e-01
 -7.8839727e-02
  1.6355830e-01
 -2.3230805e-01
 -6.6553378e-01
  5.6633961e-01
 -2.0347203e-01
 -3.2180211e-01
  4.1612260e-02
  8.0556875e-01
  3.9295822e-01
  3.0731845e-01
 -5.7287436e-02
 -4.0545276e-01
 -5.4734111e-01
 -1.4974168e-01
  1.6352490e-02
  1.0092038e-01
  1.5096821e-01
 -3.6278975e-01
  6.0407245e-01
 -1.4748874e-01
 -3.4144580e-01
  1.0207706e-01
  2.9341131e-02
 -1.8107453e-01
  5.7180309e-01
  2.4753259e-01
 -7.9925567e-02
 -1.1299793e-01
  1.9278642e-02
  5.8505744e-01
  7.8204229e-02
  4.0494186e-01
 -4.1867164e-01
  7.5407699e-02
  6.9246674e-01
 -2.4015287e-01
  1.4867018e-01
  1.7735985e-01
  3.8267726e-01
  3.9836195e-01
  3.8196847e-02
 -2.3877379e-01
 -3.5226998e-01
 -2.5249964e-01
  3.9585197e-01
  3.3643690e-01
 -1.8352881e-01
 -1.9918469e-01
 -6.1808866e-01
 -4.2549029e-01
  2.6607937e-01
 -1.6068980e-01
  8.3324373e-02
 -7.6422282e-02
 -4.5826152e-01
 -5.7186770e-01
 -5.8937466e-01
 -7.1976823e-01
  7.5156346e-02
 -6.3882902e-02
  6.1655380e-03
  1.2491932e-02
  2.9032201e-01
  1.2684712e-01
  6.9445193e-01
 -5.1407087e-01
  8.6357296e-01
  3.8821000e-01
 -6.7714125e-01
 -4.7677180e-01
 -8.6249000e-01
 -1.0116508e-01
 -4.3202794e-01
  1.6096759e-01
 -3.1512195e-01
 -5.8980584e-02
 -1.6215089e-01
 -2.5154516e-01
  6.7044604e-01
  7.5269735e-01
  2.2438487e-01
 -3.7266955e-01
 -1.4454688e-01
  2.8196198e-01
 -4.8106277e-01
 -2.0768628e-01
  4.4251046e-01
 -4.3158880e-01
  1.1021550e-01
  6.1377794e-01
 -3.9776289e-01
  1.2095080e-01
 -2.1770230e-01
 -1.7367232e-01
 -2.2644572e-01
 -6.4245749e-01
  5.8898050e-01
 -3.3939475e-01
  1.5873331e-01
  8.1076795e-01
 -4.7931400e-01
  5.2651227e-01
 -1.6539210e-01
 -6.2597349e-02
  2.1371631e-01
  3.1023729e-01
  2.2277348e-01
 -6.7220700e-01
  7.3105288e-01
  1.7091872e-01
 -6.5103662e-01
  7.0359148e-02
 -2.3268962e-01
 -3.6231339e-02
 -4.0609398e-01
  3.2671636e-01
 -3.9953730e-01
 -1.4190426e-01
  4.6189032e-02
  5.8722138e-01
 -5.0643897e-01
  2.3770061e-01
 -1.7962426e-01
  1.2394311e-01
 -3.6618164e-01
  5.9776768e-02
  2.9908949e-01
  1.7131931e-01
  2.2162411e-01
  1.5444838e-02
 -2.7815649e-01
  4.2273778e-01
  3.3748299e-03
 -4.4612028e-02
 -7.7161270e-01
  4.3487984e-01
 -6.8775639e-03
  2.6885939e-01
  9.3198740e-01
 -4.1340378e-01
  1.4689894e-02
  6.1113799e-01
  3.0601680e-01
 -3.4549013e-03
  3.4858859e-01
 -2.2114156e-01
 -3.6285242e-01
  4.6182986e-02
  6.8063438e-03
  6.8777844e-02
 -1.6201594e-01
  2.1189778e-01
 -2.1315884e-02
 -3.6753923e-01
  6.3692611e-01
  4.2592096e-01
 -1.8940493e-01
  1.3589065e-01
 -1.4549486e-01
  6.1179596e-01
  1.8676597e-01
 -2.1874438e-01
 -3.2100774e-02
  1.2210823e-01
 -2.6367587e-01
  4.0531099e-02
  1.0653140e-01
 -3.4996703e-02
  1.3346857e-01
 -7.5049567e-01
 -2.7214244e-01
  3.6934292e-01
  6.1112795e-02
 -3.6970556e-01
  3.0080101e-01
  8.9285338e-01
  4.7211587e-01
  5.0491761e-02
 -4.1323677e-01
 -6.0156310e-01
 -2.8428844e-01
  2.9118982e-01
 -3.1292352e-01
 -1.1088621e-01
 -1.7953131e-01
  2.4755305e-01
  2.0972419e-01
 -3.8710386e-01
 -4.7568020e-01
  2.4827674e-02
 -1.9927915e-02
 -5.2753752e-01
  7.3957980e-02
 -3.9617538e-01
 -3.1719655e-03
  2.2167882e-01
  5.3287846e-01
 -2.1209176e-01
  1.0372719e-01
 -3.7720060e-01
 -5.9052813e-01
  2.4948160e-01
 -3.6342964e-03
  4.7847977e-01
  3.6218736e-01
  4.7551912e-01
 -5.7741624e-01
  1.3880357e-01
  3.0269849e-01
  3.5454524e-01
  1.3701846e-01
  1.3896435e-01
  3.1559429e-01
  1.7296694e-01
 -2.9193982e-01
 -3.5693043e-01
 -3.6319655e-01
  2.5620902e-01
  6.1233974e-01
  6.8134701e-01
 -2.6170492e-01
  2.2003342e-01
  2.1429290e-01
 -3.0680430e-01
  4.2685449e-02
 -1.6698837e-03
 -1.5475731e-01
 -2.9464714e-02
  8.1954803e-03
 -5.5686090e-02
 -5.5122602e-01
 -1.3937858e-01
 -5.9277302e-01
  3.1682479e-01
 -3.4065109e-01
  2.3222581e-01
 -4.6111397e-02
  1.9653639e-01
  2.2487000e-01
 -1.1713158e-01
  3.8359460e-01
  3.7536702e-01
 -1.0942087e-01
  2.9333314e-01
 -2.6616582e-01
 -9.5474565e-01
 -3.1976551e-01
  5.3964055e-01
  3.5101801e-01
  4.7529179e-01
  7.8511015e-02
 -1.8947706e-02
 -3.8630721e-01
 -1.7720775e-01
  4.8974931e-01
 -4.9142712e-01
 -7.3005509e-01
 -2.2605598e-01
 -9.5272928e-01
  1.4247757e-01
 -8.8444881e-02
 -1.1886726e-01
 -9.7160712e-02
 -8.3540417e-03
  6.7629778e-01
  3.8357675e-01
 -4.5812997e-01
  6.0732264e-02
  2.0515642e-01
  5.2344471e-01
  5.5559766e-01
  6.8287659e-01
  3.6563006e-01
  1.0109973e-01
 -7.3609091e-02
  4.6536741e-01
 -3.6973843e-01
 -3.6802304e-01
  8.3725713e-03
  3.6407426e-01
  2.4008958e-01
  5.1132423e-01
 -4.2246103e-02
  6.6500926e-01
 -2.8454310e-01
  1.0918675e-01
  4.0931311e-01
 -2.3824097e-01
 -8.9936125e-01
  8.5974976e-02
 -2.5322071e-01
 -2.9469079e-01
  3.1703696e-01
 -2.5538144e-01
  2.8468886e-01
  1.0611464e-01
  7.0280030e-02
 -4.0632600e-01
  2.6969272e-01
  1.7569505e-01
 -2.2475563e-01
  6.2632322e-01
  3.2781309e-01
 -3.6782742e-02
  3.0073175e-01
  8.5095501e-01
  1.2198389e-01
 -3.5423556e-01
  6.4301208e-02
  5.1131256e-02
 -6.8210733e-01
 -4.8807526e-01
  7.3659807e-02
  5.3006804e-01
  2.8486198e-01
 -2.5929081e-01
  2.7963154e-02
 -2.9031703e-01
  4.2256393e-02
  2.6580518e-01
 -6.0428679e-01
 -3.0668786e-01
  1.9878712e-01
  6.6476956e-02
 -5.1331085e-01
  5.1060939e-01
  3.6528167e-01
  4.7329357e-01
  4.4052428e-01
 -5.2744615e-01
  4.9435452e-02
 -6.2288535e-01
 -7.1593836e-02
  4.4777244e-01
  2.6111253e-02
 -5.5354846e-01
 -1.8161549e-01
  1.7631841e-01
  6.7256160e-02
  2.2179130e-01
 -1.8794534e-01
 -2.2248465e-01
  2.1068175e-01
 -1.0967790e-01
  6.2248147e-01
 -4.8841864e-01
 -1.6099437e-01
  6.8823196e-02
 -1.7169058e-01
 -1.8396035e-01
  1.3659881e-01
  2.7562335e-01
 -4.9044393e-02
  1.6456306e-01
  4.0587652e-01
  3.5233063e-01
  6.4714962e-01
 -2.6187804e-01
  3.0318528e-01
  2.7008960e-01
 -1.5159428e-01
  5.7484843e-02
  1.6487096e-01
  3.0895326e-02
  6.7937225e-03
 -3.9914244e-01
 -5.3632069e-01
  4.7786650e-01
  5.0762969e-01
 -5.1322347e-01
 -1.3455778e-01
  1.1025849e-01
 -5.6946445e-01
 -2.8267717e-01
  5.2608418e-01
 -1.0124523e-01
  3.3676693e-01
  1.6962162e-01
 -4.1437101e-01
  1.2108265e-01
  1.6680230e-01
  3.8323113e-01
 -2.8690821e-01
 -2.1884736e-01
 -7.3951173e-01
  5.5368388e-01
  5.8102834e-01
  4.7883591e-01
 -1.6499606e-01
  3.1850839e-01
  9.6421927e-02
 -3.4922791e-01
 -1.0627610e-01
  2.2061478e-01
  3.2874724e-01
 -1.6855390e-01
 -1.0160324e-01
  1.8456940e-01
  2.5756973e-01
 -1.8641785e-01
  1.8780664e-01
  1.3856764e-01
  5.2719575e-01
  2.9948828e-01
 -2.5974557e-01
  5.2483368e-01
  7.4764147e-02
  3.8326326e-01
  1.9859403e-01
  1.1618204e-01
  8.5926995e-02
 -3.4495074e-02
  2.7546021e-01
 -4.1211152e-01
  2.0355609e-01
 -5.2439821e-01
  2.1477060e-01
 -5.7727987e-01
  4.2842202e-02
 -7.2541341e-02
  5.6351691e-01
  2.5264122e-02
  4.8249036e-01
 -3.9864081e-01
 -4.6989152e-01
  3.8659620e-01
 -2.6522927e-02
  1.7367812e-01
  5.3275224e-02
  3.4984714e-01
 -1.9959368e-01
  2.5413167e-01
 -3.7795223e-02
 -7.7454284e-02
  1.8232445e-01
 -9.3190932e-01
 -7.1518850e-01
 -2.6475546e-01
 -3.6632884e-01
 -8.6164975e-01
  1.8223253e-01
 -2.8392266e-02
  3.2462138e-01
 -8.7065011e-02
 -2.0572494e-01
 -4.7557282e-01
 -4.1771290e-01
  7.8905791e-01
  8.4870994e-01
 -1.4360583e-01
  8.6962682e-01
 -1.2856276e-01
 -4.0410015e-01
 -8.4561276e-01
 -7.2562671e-01
 -4.2825210e-01
  3.9772201e-01
 -8.3454654e-02
 -1.5825140e-01
 -2.4395031e-01
  4.4250476e-01
 -5.0662845e-01
 -2.8535640e-01
 -1.1248394e+00
 -4.4496529e-02
 -3.8236517e-01
  1.3058242e-01
  1.3316970e-01
 -7.2111867e-02
  1.8351132e-01
  5.3413665e-01
  6.4345479e-02
 -7.2837859e-01
 -2.3442736e-01
  7.0815581e-01
 -8.2904115e-02
 -2.8753275e-01
 -1.0160629e-01
  5.7242244e-02
 -4.6368787e-01
 -4.7780728e-01
  2.8277618e-01
  5.3770536e-01
  2.9035383e-01
  1.7466143e-01
 -5.8412009e-01
  4.4146279e-01
 -3.6207893e-01
  6.4218968e-01
 -6.2403008e-03
 -2.3598325e-01
 -1.3955322e-01
 -2.9198104e-01
 -5.1387630e-02
  2.2416864e-01
  4.5974186e-01
  1.2131659e-01
 -5.8753830e-01
 -2.6927584e-01
 -5.0014764e-01
  1.5097320e-01
  3.8018140e-01
 -5.6563914e-01
  6.4168745e-01
 -1.9236651e-01
  3.3643705e-01
 -8.2543689e-01
  2.9086744e-02
 -9.4650018e-01
 -5.3780758e-01
 -4.0487564e-01
  1.8390684e-01
 -4.9614102e-01
 -6.2141752e-01
 -5.5805504e-01
  3.8248461e-01
  3.6163113e-01
 -1.6319311e-01
  3.2934016e-01
 -6.6542637e-01
 -1.0750710e-01
 -6.2001675e-02
 -4.6069312e-01
 -5.0780445e-01
  1.8629608e-01
 -4.0907243e-01
  3.4881569e-02
 -2.4029852e-01
 -2.9926351e-01
  3.3888289e-01
  7.2828233e-03
  8.4989563e-02
 -3.0183691e-01
  3.4713560e-01
 -2.6909888e-01
  7.1513079e-02
 -3.1506485e-01
 -1.0149441e+00
 -4.0447319e-01
  7.3646295e-01
 -5.6578577e-01
 -5.8467194e-02
  6.8741220e-01
 -1.3147242e-01
 -5.8628023e-01
 -4.7110018e-01
  2.2990400e-02
 -1.0039847e-01
  4.4518828e-01
 -4.3369046e-01
 -1.0510148e-01
 -8.4928167e-01
 -2.6476312e-01
 -1.8477280e-02
 -6.8240291e-01
 -4.5308059e-01
  6.6023880e-01
 -3.5565060e-02
  1.6944601e-01
 -1.9734098e-01
 -2.1201244e-01
  2.8103095e-01
 -1.5984707e-01
 -4.8932147e-01
 -3.9005864e-01
  5.4958618e-01
  8.3883673e-02
  1.1341196e-01
  4.7144744e-01
 -1.6929209e-04
 -2.4102239e-01
  1.5266281e-01
  1.6929683e-01
  4.8235226e-01
 -2.2673100e-01
  4.3591383e-01
  2.0911661e-01
  7.3842961e-01
  2.2352657e-01
  3.2106053e-02
  6.6571492e-01
  4.2446077e-01
  1.1480209e-01
 -7.2023588e-01
 -1.0061838e-01
  6.4492851e-01
  1.2863311e-01
 -5.1752341e-01
  6.0234237e-01
  1.6295530e-01
  3.6316946e-01
 -2.8725088e-01
  9.1783518e-01
 -2.8589493e-01
 -1.0946245e-01
 -3.1800914e-01
 -1.7954871e-02
  5.5104989e-01
 -5.6050849e-01
  1.0161824e-01
  7.7352494e-01
  1.8434995e-01
  7.4337685e-01
 -4.9300659e-01
 -3.2342485e-01
  5.5790715e-02
  6.0193524e-02
 -1.9136479e-01
  1.2801218e-01
 -1.1536635e-02
  6.3392840e-02
 -2.1155146e-01
 -4.3953031e-02
 -6.3100323e-02
 -8.3558559e-01
 -5.5383611e-01
  2.5191620e-01
  1.8495689e-01
  1.2575805e-01
  3.0797461e-01
 -4.1125616e-01
  2.7293167e-01
 -2.6047128e-01
 -5.0070333e-01
  1.6598488e-01
 -4.1930175e-01
 -2.3710221e-01
  2.8954327e-01
 -4.1999555e-01
  1.0964348e-02
  9.5321298e-02
 -9.6263856e-02
  1.8216385e-01
 -2.8056604e-01
  5.2713575e-03
  4.0043867e-01
  4.4512251e-01
 -1.4860806e-01
 -5.1361918e-01
  3.7537995e-01
  2.6798624e-01
 -1.4962758e-01
 -1.8264717e-01
 -3.2684997e-01
  4.5695156e-03
 -1.7886916e-01
 -2.1609606e-01
 -5.3303826e-01
 -2.4225067e-01
 -5.6665069e-01
 -1.1279050e-01
  8.7716527e-02
  5.3718609e-01
 -6.3575017e-01
  1.3996415e-01
  7.2208166e-01
  7.6539367e-03
 -1.7451228e-01
 -2.6843363e-01
  8.4061764e-02
 -4.2381275e-01
  3.2175422e-01
  1.7882748e-01
  1.5325485e-01
 -5.3603065e-01
  4.6356708e-01
  7.0900697e-01
  9.0875141e-02
 -3.7520714e-02
 -5.9947670e-02
 -1.0800123e-02
 -1.3766468e-01
 -8.0090061e-02
  2.8805330e-01
 -3.1688038e-02
  1.9880453e-01
  3.1089443e-01
  5.5560714e-01
 -1.1668874e-02
 -1.9899924e-01
  3.0211127e-01
 -4.8884529e-01
  7.6102042e-01
  2.4145171e-03
  2.8143022e-02
 -7.3892117e-01
  2.8362760e-01
  1.9766748e-01
 -2.4978384e-01
 -8.9950509e-02
  4.2076203e-01
 -1.7542753e-01
 -3.5656011e-01
  3.9478070e-01
  1.8440199e-01
 -9.0930387e-02
  3.0557662e-01
 -3.5058610e-02
 -7.4068379e-01
  3.9104819e-01
  2.4763286e-01
  3.3264336e-01
  3.7257716e-01
  9.5469147e-02
  2.5965410e-01
 -4.2101035e-01
  3.3007205e-01
 -1.3566384e-01
 -9.1405165e-01
  3.1460640e-01
 -5.6646436e-01
  6.0752761e-01
 -2.1750252e-01
 -4.0604436e-01
 -6.7379043e-02
  1.9851337e-01
 -5.1725447e-02
 -6.8064654e-01
  3.9220822e-01
 -6.9283229e-01
 -8.0878429e-02
 -3.1621501e-01
  2.5309587e-01
  1.2658298e-01
 -6.4329016e-01
 -1.8058452e-01
 -2.4283603e-01
  7.5724721e-04
 -3.9457661e-01
 -4.7187129e-01
 -2.2475776e-01
  4.8054341e-02
 -3.0624342e-01
 -3.5254270e-01
  3.6939198e-01
  2.3933461e-01
  1.6933590e-02
 -4.2928657e-01
  5.3174723e-02
 -5.2528304e-01
 -2.4939460e-01
 -3.9111277e-01
 -3.3593091e-01
 -1.0263252e-01
  3.5767579e-01
 -3.7803036e-01
  5.6291032e-01
  6.3483298e-01
 -8.1563398e-02
  4.9184531e-01
 -2.7127359e-02
  6.9856977e-01
 -8.7985910e-02
  2.4903582e-01
 -2.7194721e-01
  5.1737303e-01
 -5.9018308e-01
  1.9308971e-01
 -9.9933124e-01
  1.6535491e-02
  5.0489092e-01
 -1.1042648e-01
  1.6294205e-01
  1.1068784e-01
  4.7756925e-01
  3.6549330e-01
  4.2357594e-01
 -5.1464397e-01
  2.6619184e-01
  2.1753658e-01
  1.0062922e+00
 -8.6333461e-02
 -1.2026802e-01
  2.5127843e-02
  4.4574389e-01
  4.1805959e-01
  4.3440843e-01
 -3.6920595e-01
  4.4511265e-01
  3.2927859e-01
  4.0447399e-01
  4.7240965e-02
  2.0089968e-01
 -5.0447017e-01
  1.2672742e-01
 -5.4743558e-01
  5.9712756e-01
 -1.3506830e-01
  1.7348589e-01
  1.1335194e-02
  2.9788613e-02
 -1.7735113e-01
  2.9110026e-01
 -4.7346473e-01
  2.8459233e-01
 -6.3393182e-01
 -2.3340173e-01
 -2.4456492e-01
  1.1520166e-01
 -3.2040334e-01
  2.6661757e-01
 -2.4183185e-01
  5.8467716e-01
 -6.6418517e-01
 -7.8171271e-01
 -5.2077651e-01
 -1.9534421e-01
 -4.0198913e-01
 -6.4915694e-02
 -1.6199048e-01
 -3.2820937e-01
  7.9692602e-01
 -4.3103091e-02
  4.7145486e-01
  8.4238374e-01
 -2.9940292e-02
  4.9364179e-01
  8.9070842e-02
 -5.2883446e-02
  2.9762176e-01
 -4.6463048e-01
 -4.1880086e-04
  4.0760690e-01
 -2.4967650e-01
 -2.4046819e-01
 -1.6640770e-01
  3.7828097e-01
 -1.4630304e-01
  9.2659757e-02
 -4.6085519e-01
  6.4309835e-01
 -7.7107199e-02
 -4.7749448e-01
 -4.0457579e-01
  6.4413053e-01
  6.9086951e-01
 -1.4859648e-01
  3.0222082e-01
  1.9698843e-01
 -5.7507491e-01
 -8.5522830e-02
 -1.2089908e-02
 -3.7667996e-01
  5.1699281e-03
  1.1860764e-01
 -3.9150459e-01
 -7.5345844e-01
  7.9105154e-02
  1.5597837e-01
  5.1247466e-01
 -4.8993218e-01
  6.4287060e-01
  2.6643980e-01
 -3.8895577e-01
  1.1957900e-01
  2.7921107e-01
 -3.0756593e-03
  6.0430244e-02
  6.8614709e-01
  1.3534258e-01
 -4.6508145e-01
 -1.7387068e-01
 -1.3245633e-01
 -5.2248651e-01
 -5.0738627e-01
 -4.8489833e-01
  6.8553978e-01
  2.1392284e-01
 -5.4917395e-01
 -1.9761464e-01
  8.1086598e-02
 -4.2521590e-01
 -4.6516293e-01
 -2.9635015e-01
 -8.4162682e-01
 -1.4943112e-02
  4.9605951e-01
  1.6939333e-01
 -8.3368912e-02
 -5.6534886e-01
  4.4315213e-01
 -5.3026915e-01
  4.8734298e-01
  2.5583217e-01
 -7.0009196e-01
  2.2995576e-02
 -3.5556889e-01
 -4.8890343e-01
  2.8434917e-01
 -2.0442531e-07
 -8.1505880e-02
  1.4453070e-01
 -1.2286491e-01
 -3.5294938e-01
  2.0890795e-01
  1.2199596e-02
  1.8380049e-01
  1.5390530e-01
 -3.1537646e-01
 -1.6687793e-01
 -1.7875329e-02
  6.2427592e-02
 -8.3510652e-02
 -2.0204604e-01
 -5.1783539e-02
  5.4708785e-01
 -2.2178972e-01
  3.7476408e-01
  5.8566362e-01
  3.4882537e-01
 -1.8455797e-01
  5.6990659e-01
 -1.9104880e-01
  2.6302582e-01
  4.2432256e-02
 -3.4318173e-01
 -8.6028263e-02
  6.8993732e-02
 -3.2068187e-01
 -4.4296843e-01
 -5.3764176e-02
 -1.1675195e-01
  1.2939572e-01
 -7.1250534e-01
 -2.6820016e-01
 -6.7238756e-02
  2.5466410e-02
  4.7515219e-01
  3.2457966e-01
  4.1010422e-01
 -2.6897323e-01
 -5.5126858e-01
 -1.2375426e-01
 -3.4617302e-01
 -3.0285403e-01
  1.7027974e-01
  5.1353574e-01
 -3.2343429e-01
  3.6349684e-01
  7.3984906e-02
 -5.2594638e-01
  2.3630819e-01
 -2.6243970e-01
 -9.1398489e-01
  3.0597252e-01
 -4.8786581e-02
  1.7500821e-01
  1.9427261e-01
  2.8168765e-01
 -7.5704530e-02
  1.4515498e-01
  7.2404310e-02
  1.0285543e-01
 -1.6086973e-01
  3.6287650e-01
  4.3074882e-01
 -2.7254689e-01
  1.3400537e-01
  3.2760242e-01
 -5.0468260e-01
  2.1809556e-02
  3.6235443e-01
  1.0288753e-01
 -6.8941343e-01
 -3.2241650e-02
  1.4238954e-01
 -4.1847816e-01
  2.5353986e-01
  3.5566247e-01
 -3.6457020e-01
  2.6461899e-01
 -4.3235239e-01
  2.6801145e-01
  1.6500226e-01
 -5.2055500e-02
  2.9675499e-01
 -7.8826606e-01
 -6.5455353e-01
 -4.9590969e-01
  1.8623281e-01
 -1.8474182e-01
 -1.2396379e-01
 -7.1998835e-01
  4.1160327e-01
 -2.3415709e-01
 -6.3165629e-01
  2.7503222e-01
 -5.1299107e-01
 -3.3005860e-01
  4.1672122e-01
  8.0123797e-02
 -5.0930560e-01
  3.8604537e-01
 -1.6906869e-01
  1.3576971e-01
 -3.5173692e-02
  1.7673686e-01
  1.6276570e-01
 -1.7122559e-01
  5.8482045e-01
 -1.3177729e-01
  5.6355011e-01
 -3.0009958e-01
  4.3345299e-01
  2.5473487e-01
  2.3931161e-02
 -9.5529467e-02
  4.7571725e-01
 -1.4610134e-01
 -2.2651363e-02
  5.3670567e-02
 -3.1046754e-01
  1.0418550e-01
 -6.4853996e-01
 -2.2568986e-01
 -3.0117917e-01
 -2.9515946e-01
 -6.1776018e-01
  3.8053226e-01
 -1.3441572e-01
 -2.3874587e-01
  3.3745500e-01
 -1.3674042e-01
  1.7569211e-01
 -2.3437440e-01
 -3.2143396e-01
 -3.3418486e-01
 -8.4417097e-02
  1.5395162e-01
 -2.6624396e-02
  6.2488992e-02
 -6.0660613e-01
 -2.2148931e-02
  1.9816706e-01
  1.2028395e-01
  3.9499454e-02
  6.7179672e-02
 -1.6095121e-01
 -7.0556623e-01
 -3.1893507e-02
  4.9480057e-01
 -4.2652398e-01
 -4.8002082e-01
 -2.1229941e-01
 -1.7428167e-02
 -3.6845255e-01
 -4.0185606e-01
 -1.0748381e-01
  3.8482690e-01
  4.6621594e-01
 -3.0262581e-01
 -2.3437288e-02
  5.1665199e-01
 -1.0620075e-01
 -4.1144031e-01
  2.7384579e-01
 -1.2737165e-01
  5.4363925e-02
  3.2830954e-02
 -6.1150384e-01
  4.5722568e-01
  1.5757278e-01
 -7.0983879e-02
  3.0211097e-01
  2.4103925e-02
 -4.1078269e-02
  2.1611793e-01
 -6.5340602e-01
  8.9429133e-02
  2.1384206e-02
  6.1068926e-02
 -1.2924179e-01
  7.2921896e-01
  5.0561592e-02
 -2.2240770e-01
 -3.5589582e-01
 -7.5115591e-01
 -6.2023103e-04
  7.9211272e-02
  1.9995846e-02
 -5.4118323e-01
 -1.2896106e-02
  1.8147990e-02
  9.9814892e-02
 -3.0245069e-01
  3.3942550e-02
 -2.9811558e-01
 -2.3508799e-01
  1.8731886e-01
  5.6163806e-01
  4.3395177e-02
  3.0529016e-01
  2.8228605e-01
  4.1474164e-02
 -4.7764096e-02
 -6.6960052e-02
 -3.7299564e-01
 -7.3893601e-01
 -8.9178473e-02
  8.2974210e-03
 -1.9554958e-02
 -5.2237767e-01
  8.2950330e-01
  4.8332535e-02
  5.0451416e-01
  2.1429795e-01
  6.3405234e-01
  4.9704894e-02
 -2.4668446e-01
  2.1482587e-01
  6.3205343e-01
 -7.4655890e-02
  3.7054625e-01
  4.9037206e-01
  7.8841947e-02
 -6.8997782e-01
  4.5783579e-01
 -7.6898873e-01
 -5.1674968e-01
  3.0269355e-01
  1.5566631e-01
 -4.9162322e-01
 -1.2763318e-01
  4.2940166e-02
 -2.7816623e-01
 -2.5808953e-02
 -7.0503378e-01
  1.4460522e-01
 -2.1068349e-02
 -2.8183141e-01
 -2.1088606e-01
  2.8227520e-01
 -6.2509865e-01
  3.7237078e-01
  5.8124286e-01
 -2.3728429e-01
 -3.9326429e-02
 -1.0536665e-01
 -4.1766417e-01
  5.0937466e-02
  3.7830848e-01
 -8.8327192e-02
  7.3904321e-03
  8.4944032e-02
  3.4765059e-01
  1.2008660e-01
  1.6230521e-01
  4.1369092e-01
  6.7890537e-01
 -1.5044034e-02
 -5.0543819e-02
  1.7162621e-02
 -3.9860326e-01
 -3.8319755e-01
 -1.9461751e-01
  1.8270366e-01
 -2.1704370e-01
 -8.0454326e-01
  2.7404759e-02
 -3.5550082e-01
  7.1225986e-02
  7.1520394e-01
 -1.2808724e-01
  3.5551101e-01
 -9.2295915e-01
  2.1478859e-01
  6.3574153e-01
  2.5585884e-01
 -2.7658069e-01
  2.9324755e-01
  2.0317492e-01
  3.0475190e-01
  4.0162623e-01
  6.4443266e-01
 -2.4142022e-01
  8.6949021e-04
  6.1765385e-01
 -9.4445604e-01
  1.8498433e-01
 -1.5035769e-01
  1.9256788e-01
 -2.9729089e-01
 -1.4419486e-01
 -6.5648824e-02
  5.2278362e-02
  3.7478670e-01
  1.0780237e-01
 -4.6875745e-01
 -4.4835162e-01
 -1.7017645e-01
 -2.4097353e-01
  3.4667999e-01
  7.4300468e-02
  5.8285874e-01
  2.6125363e-01
  5.0055367e-01
  4.6354872e-01
  4.0290770e-01
 -6.2330949e-01
 -5.1939982e-01
 -3.9863157e-01
 -5.1093256e-01
  7.9941952e-01
 -2.6877272e-01
 -3.1123489e-02
 -1.2316903e-01
 -1.0450438e-01
 -2.9272318e-02
 -4.2103079e-01
  5.8708674e-01
 -5.2476579e-01
  1.1144906e-01
  6.6978157e-02
  4.4728681e-02
  5.1599398e-02
  3.0264848e-01
  2.7981728e-01
  4.5027983e-01
 -8.5377121e-01
  3.9442024e-01
 -8.1762955e-02
 -4.0066782e-01
  7.0913559e-01
  3.1959683e-01
 -1.3379636e-01
 -1.3127559e-01
  2.0047197e-01
 -1.3851856e-01
 -3.2379624e-01
  3.6216390e-01
  6.5179095e-02
 -8.5222656e-01
  9.8950714e-03
  7.7356970e-01
 -3.0514753e-01
 -3.8845119e-01
  5.6235003e-01
 -2.0738167e-01
  2.0420395e-01
  4.5283446e-01
 -2.8264415e-01
 -3.0262259e-01
 -4.7680855e-01
 -4.4331846e-01
  3.1004697e-01
 -2.4560720e-01
  2.4621964e-02
  6.4610529e-01
  1.8150364e-01
 -5.6228584e-01
 -1.3702603e-01
 -3.3831054e-01
 -4.9626616e-01
 -3.2989714e-01
 -9.7233444e-02
 -6.0280931e-01
 -6.3120347e-01
 -1.0233580e+00
 -5.1711786e-01
  5.0943089e-01
  4.4705495e-01
  3.0270129e-02
 -6.1680114e-01
  3.5270564e-02
 -1.2989554e-01
  2.4382217e-01
 -1.4644545e-01
  4.5989585e-01
  6.1344141e-01
  6.4945012e-02
  3.9382994e-01
  9.4128624e-02
  6.7068562e-03
  2.7970960e-03
 -4.2368419e-02
 -4.1806790e-01
 -6.7865705e-01
  4.1688137e-02
 -4.4499919e-02
  2.0819259e-01
  6.2122196e-01
  3.2228968e-01
 -2.4574429e-01
  3.9380741e-01
 -9.6925840e-02
 -3.5842878e-01
  3.6271214e-03
 -5.0414968e-01
  1.0169950e-01
  6.0783261e-01
 -7.2271228e-01
  3.8238350e-01
 -3.0110934e-01
 -5.9017617e-01
 -2.9617846e-03
  3.1331131e-01
  3.4325027e-01
 -2.5835377e-01
 -5.1019531e-01
  3.4470832e-01
  1.7319891e-01
 -4.7289431e-03
  3.2658789e-01
 -5.9361750e-01
 -3.5010695e-01
  1.2547222e-01
 -3.4304172e-02
 -3.1910482e-01
 -4.3854079e-01
  2.3410875e-01
 -5.5585492e-01
 -6.4614326e-01
 -9.0424255e-02
 -4.9185178e-01
  3.2151204e-01
 -1.4160539e-01
 -3.1248145e-02
 -3.2550079e-01
 -2.4653016e-01
  3.8675463e-01
  3.4319195e-01
  1.1980946e-01
 -1.0955662e-02
  3.2842904e-02
  2.6227900e-01
 -7.4151450e-01
  2.2966123e-01
 -2.7103308e-01
 -4.7055531e-01
 -8.2780778e-02
 -4.0794924e-01
  4.0578246e-01
 -1.9345456e-01
 -4.3157125e-01
  1.5554076e-01
 -1.3232075e-02
 -2.8593686e-01
  1.6054779e-01
 -2.1540873e-02
  4.4470859e-01
 -3.4232643e-01
  3.0125010e-01
  5.1057035e-01
  2.1103975e-01
 -1.8323144e-01
  3.0319944e-01
 -9.2747957e-03
  5.5024073e-02
  5.3633058e-01
 -3.8472354e-01
 -2.2642648e-01
 -3.2249144e-01
  9.0760998e-02
 -3.2504839e-01
 -2.6745522e-01
  2.9225325e-02
 -7.5485319e-01
 -4.3736595e-01
 -4.5106840e-01
 -1.6236764e-01
  1.3806827e-01
  3.4774584e-01
  1.8201137e-01
  6.3074291e-01
 -3.0967763e-01
 -4.9573842e-01
 -2.9743731e-01
 -6.7744792e-01
 -2.7529758e-01
  2.5106263e-01
 -2.7692068e-01
 -2.0946292e-02
 -7.3673522e-01
  3.2379317e-01
  3.5895813e-01
 -1.4775738e-01
  8.8774435e-02
 -3.5348740e-01
  2.5580895e-01
  4.0694672e-01
 -7.1921069e-03
 -1.8217641e-01
 -2.3382148e-01
 -6.5482432e-01
 -1.0488758e-01
 -7.2525150e-01
 -8.4110260e-02
 -2.5555629e-01
 -9.8119855e-02
  3.0066329e-01
  1.5890151e-02
  1.1228503e-01
 -6.7583412e-02
 -5.3992271e-01
 -7.3165470e-01
  2.8076071e-01
  6.3646895e-01
  4.8904258e-01
 -9.9447036e-01
 -5.6009668e-01
  3.9413631e-01
  5.0402731e-03
  8.2608648e-03
  1.8496892e-01
 -2.4219547e-01
 -4.1307327e-01
 -1.7312483e-01
 -1.6532934e-01
  1.6889524e-01
 -1.1331195e-01
 -1.4983067e-01
 -5.4149365e-01
 -6.4073539e-01
  4.1108352e-01
  5.9662599e-02
  1.7014537e-03
  4.9806857e-01
  1.4966923e-01
  4.0442854e-02
  6.2264901e-01
 -2.4860871e-01
  2.4759871e-01
 -1.7107815e-02
 -3.1699419e-01
  1.8311708e-01
  1.6683355e-01
  4.3687141e-01
  3.3955938e-01
 -4.3446928e-01
 -1.1797543e-01
  3.5998911e-01
 -3.6568934e-01
 -2.6358813e-01
  3.3384216e-01
  5.7738131e-01
 -6.6994816e-01
 -4.7924611e-01
 -2.3336568e-01
 -1.2919645e-01
 -1.0859541e-01
 -1.5535215e-01
  1.9147716e-01
 -6.4744949e-01
 -3.6724380e-01
  5.6478977e-02
  1.3269463e-01
 -1.0079779e-01
 -4.2517847e-01
  5.6436467e-01
 -5.4041833e-01
 -5.3212690e-01
 -3.6352843e-01
 -5.3038061e-01
 -8.6660033e-01
  5.5145508e-01
  5.0561213e-01
  5.9054071e-01
 -1.9475281e-02
  3.8149709e-01
 -2.4117398e-01
 -1.4639539e-01
 -2.8126845e-01
  9.9660791e-02
 -4.6119165e-01
  5.8081150e-01
  3.5876969e-01
 -2.3098925e-01
  3.2832769e-01
  2.4548134e-01
 -4.7177285e-01
  5.6233031e-01
  2.6757261e-03
 -3.7590581e-01
 -3.6481699e-01
  2.7613768e-01
  5.0622523e-01
  1.5175737e-01
 -3.1581506e-01
  1.0006572e-01
 -5.8116865e-01
  5.5257618e-01
 -3.3410144e-01
 -2.9253000e-01
 -2.7701706e-02
 -3.8001290e-01
  8.3657093e-02
 -2.1653053e-01
 -8.1052536e-01
 -4.1885853e-01
 -2.2702057e-02
  7.5331181e-03
 -1.7138265e-02
 -5.1060992e-01
  3.8506590e-02
  2.5734025e-01
  2.2880793e-01
 -6.4397043e-01
 -2.8855571e-01
 -4.3133050e-01
  8.0474317e-01
  2.7246642e-01
 -1.5079170e-01
  6.2972081e-01
  1.2883465e-01
 -1.2112693e-01
 -5.5986947e-01
  6.6633523e-01
  3.0250341e-01
 -9.7294644e-02
  5.7993788e-01
  1.0815360e-01
  2.1573640e-01
 -2.1210873e-01
  6.2644267e-01
 -6.8764031e-02
  1.0887892e-01
  2.8142706e-03
  2.8513652e-01
  3.7282392e-02
 -3.7211159e-01
  9.6003294e-02
  5.9432238e-01
  1.1073190e-01
 -1.0225754e-01
 -4.7044656e-01
 -1.2638576e-02
  7.4391705e-01
  5.7752803e-03
  9.0917200e-02
 -1.4868769e-01
 -1.0168718e-01
  4.9354410e-01
 -8.7996972e-01
  5.8586884e-01
 -4.6542925e-01
  1.9108365e-01
  1.8026675e-01
  1.7519042e-02
 -3.5931945e-02
 -3.3458218e-02
  5.2935523e-01
  3.2729807e-01
  2.0211689e-01
  5.8417505e-01
 -2.9281434e-01
 -1.7861553e-02
  9.6174970e-02
 -4.3187685e-02
  4.7552025e-01
 -1.2210508e-01
  3.0550224e-01
  5.2674580e-01
  2.8829793e-02
  8.1462157e-01
 -5.5206090e-02
 -1.5563145e-01
 -4.4894406e-01
  7.7357459e-01
 -5.0932240e-01
 -2.6260632e-01
 -5.8232909e-01
 -2.0666274e-01
 -8.5663490e-02
 -8.0066401e-01
  1.4359978e-01
 -5.5334228e-01
  4.8069537e-01
  3.4249845e-01
 -1.2121481e-01
  2.5987116e-01
 -1.4295383e-01
  8.8714349e-01
 -1.0140381e+00
 -5.8106713e-02
 -6.8884498e-01
 -5.1590866e-01
  2.0197810e-01
  2.4863155e-01
 -1.3091594e-01
  1.2740090e-01
 -5.0596438e-02
  6.7412597e-01
  2.8599285e-02
  1.7605889e-01
 -3.9268583e-01
  2.8271687e-01
  4.3491507e-01
  1.1838409e-01
 -2.1633601e-01
  5.9662998e-01
 -2.1056014e-01
 -4.4388272e-02
  2.9846287e-01
 -8.3664663e-02
  3.3040506e-01
  7.8745186e-03
 -5.3363889e-03
  5.8518165e-01
 -8.9845195e-02
 -3.0659047e-01
  4.0424091e-01
 -1.1313884e-01
  3.3418328e-01
  1.2484533e-01
  3.0122317e-02
  3.7143117e-01
 -1.4816973e-01
  7.4301660e-04
 -3.1066418e-01
  2.5786519e-01
  1.5968318e-01
  7.5621784e-02
 -6.3243955e-01
 -5.0160003e-01
  1.5624559e-01
  2.9311460e-01
 -1.7388365e-01
 -9.9323817e-02
  5.8307290e-01
  5.0784439e-01
  1.8778482e-01
 -2.7800709e-01
 -2.2771369e-01
 -2.5318619e-02
 -4.6761563e-01
 -1.2896881e-02
 -7.6698259e-02
  1.6476889e-01
  2.0289408e-01
 -1.0051376e+00
  1.2039725e-01
  3.1147894e-01
  4.7636887e-01
  1.0314959e-01
  1.1242051e-01
  2.5020185e-01
 -1.1192387e-01
 -4.6254453e-01
  5.1804948e-01
 -1.2000021e-01
  8.1820682e-02
 -1.8697383e-01
  2.0948155e-01
 -1.4986339e-01
  2.6356480e-01
  1.9635931e-01
  9.8611169e-02
 -1.8785256e-01
 -2.3290288e-01
  6.0410851e-01
 -4.1975886e-02
  8.2174146e-01
  1.1265562e-01
  3.7745118e-02
  4.0175393e-01
 -1.4559904e-01
 -6.8705976e-01
  2.5564700e-01
 -1.0954287e-02
  3.2168463e-02
  6.6753227e-01
  2.4697561e-02
  3.0838117e-01
 -4.0224975e-01
  9.6015543e-01
  4.7475469e-01
  2.2135752e-01
 -2.6204747e-01
  2.4238355e-01
 -8.5116178e-02
 -1.3172934e-02
 -1.6875216e-01
  4.3174535e-01
 -1.7532933e-01
 -8.6365259e-01
  8.2296789e-01
 -8.3480172e-02
  7.1286571e-01
 -4.1724062e-01
 -3.7501258e-01
  1.2887438e-01
  9.1955438e-02
  9.8763935e-02
 -5.8192140e-01
  4.7204882e-02
  6.6020787e-03
  5.1044520e-02
  4.9997005e-01
  2.8368831e-01
  1.2210323e-01
 -1.8269147e-01
 -8.2672089e-02
  3.5226643e-01
  5.8642280e-01
  2.2519965e-02
  8.9932710e-01
  2.9130432e-01
 -2.8417897e-01
 -7.1414471e-02
 -1.8632814e-01
 -4.2117429e-01
  3.0972764e-01
  1.4669646e-01
  1.1703596e-01
 -3.0363962e-01
  5.8596092e-01
 -1.3370672e-01
 -8.7076657e-02
  8.7389827e-01
 -1.3667600e-01
  2.7596509e-01
  3.1450427e-01
 -1.6915712e-01
 -9.9931017e-02
 -1.1541952e-01
  5.1308280e-01
 -3.1930798e-01
  1.8333417e-01
 -2.8739652e-01
 -1.3396704e-01
  2.9047990e-01
  2.3766011e-01
 -1.7303422e-01
  3.7283602e-01
  2.2053663e-01
  5.0003272e-01
 -2.2310720e-01
 -2.2826499e-01
  3.7395003e-01
  5.6298500e-01
  5.4095477e-01
  5.0131297e-01
  3.6531788e-01
 -4.6617597e-02
 -3.9392608e-01
 -3.4798217e-01
 -2.9878029e-01
 -3.7375280e-01
 -4.9581900e-01
  2.1443042e-01
  2.5640473e-01
  5.7354575e-01
 -8.7545913e-01
  8.3797258e-01
 -1.2153831e+00
 -8.4274210e-02
 -1.3280550e-01
  2.3169500e-01
  4.5510757e-01
 -1.9306067e-01
 -3.3182460e-01
 -3.3851919e-01
  3.4938279e-01
 -2.0006216e-01
  5.9187837e-02
  7.9589295e-01
  1.2002788e-01
 -3.1453171e-01
  2.3029907e-01
 -3.2772288e-02
  3.4548235e-01
  3.0986539e-01
  1.5642492e-01
 -1.5011534e-01
  2.2149682e-01
  2.2770171e-01
 -9.0942234e-02
  1.6124865e-01
  1.0749219e-01
 -6.7077732e-01
 -5.5099612e-01
 -2.3464322e-02
 -1.1892144e-01
  2.3071525e-01
  2.6394886e-01
 -1.8165661e-01
  5.7736981e-01
  3.6040783e-02
 -3.8840371e-01
 -2.0785728e-01
  3.9622551e-01
 -4.4194162e-01
  2.1654063e-01
 -2.5427318e-01
 -3.1292960e-01
 -3.3324882e-01
 -5.4481077e-01
  3.6287966e-01
 -2.9015505e-01
  1.7397225e-01
  5.6430024e-01
 -3.4976471e-02
  6.7352301e-01
  3.6282283e-01
  9.6626237e-02
  3.7574401e-01
  4.0611660e-01
  1.3715160e-01
  2.6191896e-01
  1.1638800e-01
  4.0911958e-01
 -3.2262665e-01
  1.3456173e-02
 -4.6908535e-02
  1.8334410e-01
 -1.6541401e-01
  7.2747535e-01
  2.3774174e-01
  4.7177520e-01
  2.5573871e-01
  2.5006318e-01
 -5.1165625e-02
 -4.1883233e-01
  2.0722046e-02
 -3.3818984e-01
  4.7205898e-01
 -2.1412230e-01
  2.2662537e-01
  6.6320084e-02
 -6.0653564e-02
 -1.0511688e-01
 -1.9268844e-02
  4.6857375e-01
 -8.0829665e-02
 -1.7573282e-01
 -9.4138347e-03
  6.9000065e-01
  8.5269734e-02
  4.7698557e-01
 -1.0264017e-01
  2.3326142e-01
  5.3598113e-02
  8.0294067e-01
 -2.3446050e-01
 -6.3553381e-01
 -4.9545231e-01
 -8.4642297e-01
 -3.2560495e-01
  5.8378863e-01
  8.1440266e-03
  9.2112593e-02
 -4.1077787e-01
 -1.1550419e-01
  6.3613009e-01
  2.0744707e-01
  1.4966804e-01
 -6.1252844e-01
  5.5260152e-01
  5.5298954e-01
  1.2345561e-01
 -1.9201069e-01
 -6.7029673e-01
  2.9646197e-01
 -6.2606472e-01
 -4.7969535e-01
 -2.9591757e-01
 -2.6591569e-03
 -4.5046157e-01
  2.9811308e-01
 -5.9244776e-01
  4.9690306e-01
 -2.8425756e-01
  7.1150512e-02
 -3.0019212e-01
 -1.5922639e-01
 -1.5093243e-01
 -1.0131066e-01
 -7.2533387e-01
  5.0825393e-01
 -3.3342791e-01
  1.0079491e-01
  1.5214689e-01
 -7.3890460e-01
  2.4179947e-01
 -7.0188843e-02
  6.5254174e-02
 -2.9954809e-01
  4.3006465e-02
 -1.3626800e-01
  5.8067203e-01
  8.1936038e-01
 -3.8363326e-01
 -1.4217919e-01
  4.5396256e-01
  1.8415749e-03
  5.3742297e-02
 -4.5299518e-01
 -2.4913816e-01
  3.0138549e-01
 -3.1511739e-01
 -3.4696031e-01
  7.5682133e-02
 -2.4534619e-01
  5.3274389e-02
 -2.1460558e-01
 -2.4340442e-01
  2.2061500e-01
  2.4160451e-01
 -5.3252113e-01
 -1.8083394e-02
 -2.4921271e-01
 -2.7925652e-01
 -3.0770344e-01
 -5.9845752e-01
 -3.8296279e-01
 -7.7618122e-01
 -1.7802605e-01
 -2.3639956e-01
  9.7899497e-02
 -2.5761387e-01
  9.7554103e-02
  7.9550341e-02
 -3.3520121e-02
  4.0806168e-01
  9.0294622e-02
  5.0585255e-02
  2.1064207e-01
 -1.7128327e-01
 -5.2530408e-01
 -5.2521467e-01
  1.1458543e-01
  1.8584919e-01
  2.0390302e-03
  3.8029164e-02
  2.8858316e-01
  3.2843274e-01
 -1.5036374e-01
  5.9329772e-01
  1.9429818e-01
 -3.2888040e-02
 -6.0176495e-02
  2.9066712e-01
 -1.3453522e-01
  2.3847163e-01
  1.2447278e-01
 -8.9893687e-01
 -6.0913801e-01
  4.3942121e-01
 -3.9145437e-01
  1.2218229e-01
 -2.0243675e-01
 -2.4376066e-01
 -2.9298195e-01
 -1.4076772e-01
 -5.4103452e-01
  3.5720590e-01
 -3.1991157e-01
  4.7904733e-01
 -1.8853825e-01
  2.7904248e-01
 -4.4072643e-01
 -5.3308941e-02
  5.9221143e-01
 -3.0310941e-01
  3.5869366e-01
 -1.4509022e-01
 -1.6663131e-01
  5.6748492e-01
 -5.1207811e-01
 -4.2411590e-01
  7.7850029e-02
 -3.5209209e-01
 -1.0035903e+00
 -1.8197994e-01
  2.8208801e-01
  3.8189363e-01
  8.8194594e-02
  4.2554969e-01
  7.6607543e-01
 -2.4951427e-01
 -1.6690749e-01
 -4.6004695e-01
  4.4543171e-01
 -5.5387372e-01
  1.8080384e-02
  1.3879028e-01
 -1.3223773e-01
 -3.4316670e-02
  5.6498802e-01
  2.1921843e-02
  1.6417716e-01
  4.9113321e-01
  6.9543403e-01
 -2.8432980e-01
  4.8868677e-01
 -1.5393560e-01
  4.9861100e-01
 -5.2559644e-01
  6.1765558e-01
  5.7187045e-01
  4.9159527e-03
  2.6985669e-01
  4.3765014e-01
 -5.4519153e-01
 -5.1829898e-01
  9.6757829e-01
  5.9305906e-02
 -4.3095265e-02
 -6.5902483e-01
  2.6808929e-01
 -2.9794380e-02
  1.0699592e-01
 -1.8014985e-01
  2.7974865e-01
 -9.8879039e-02
  4.4520456e-01
 -7.0722473e-01
 -6.9306213e-01
  3.3275265e-01
  2.4437827e-01
 -7.5430638e-01
 -1.8395716e-01
  4.0953401e-01
 -6.0375609e-02
  5.5432487e-01
  5.9983969e-02
  3.4295234e-01
 -3.6413854e-01
  3.0261964e-02
 -5.2038276e-01
 -5.6472152e-02
  7.5813904e-02
 -1.2105973e-01
 -1.6868126e-01
 -1.6738738e-01
 -4.6286243e-01
 -2.3138525e-01
 -1.0146365e-01
  3.7970550e-02
  3.5206485e-01
  1.5160190e-01
 -3.9230129e-01
  1.4129419e-02
 -6.7231005e-01
 -3.6443394e-01
  6.1245435e-01
  4.4554940e-01
 -5.7520419e-01
 -4.3128943e-01
 -8.0575630e-02
  4.5116976e-02
 -2.4516270e-01
 -8.6940631e-02
 -6.4124596e-01
 -2.1527381e-01
  3.2851186e-01
  3.1150556e-03
 -6.2914777e-01
 -9.2920780e-01
  1.4797859e-01
  2.7507302e-01
 -6.0309544e-03
  2.4136852e-01
 -5.6757671e-01
 -8.8464153e-01
  9.1750950e-02
  1.8024763e-01
 -6.2318176e-01
 -1.7430936e-01
 -2.4420257e-01
  3.5506153e-01
  1.2577614e-01
 -1.7037748e-01
  1.8212149e-01
  2.0371833e-01
  3.8548395e-01
 -2.3357174e-01
 -3.7931156e-01
  7.2966301e-01
 -3.1413630e-01
  5.2439589e-02
  3.6689582e-01
 -8.6074412e-01
  6.5435296e-01
  3.9542049e-02
 -7.0950413e-01
  3.3802253e-01
 -2.1079685e-01
  1.9771926e-01
 -6.9338965e-01
 -3.1273812e-01
 -2.7017117e-01
 -1.4168920e-01
  2.9837552e-01
  4.9602056e-01
  4.9870208e-02
  2.1536666e-01
  9.0541020e-02
 -9.7552180e-02
 -2.1779673e-01
  3.7757748e-01
  4.2801738e-01
 -1.9828373e-01
 -3.9722610e-01
  9.8392889e-02
  2.1175168e-01
  1.8127948e-01
 -3.3697656e-01
  9.4961119e-01
  1.0340825e-01
 -3.3875239e-01
 -1.8533831e-02
  1.4362079e-01
  1.7339927e-01
  6.4386094e-01
 -7.9013360e-01
  5.5785733e-01
  7.3134506e-01
  9.2361867e-03
  6.3862181e-01
 -8.6641140e-02
 -3.6122245e-01
 -7.8081340e-01
  2.0684643e-01
  3.4576771e-01
  5.2180815e-01
  6.3433945e-01
  8.0314822e-02
 -5.1700985e-01
  1.4995949e-01
  8.6011493e-01
 -1.0938650e+00
 -3.7245917e-01
  5.4625791e-01
  1.7618221e-01
  3.3507767e-01
  1.0470824e-01
  6.6945678e-01
 -2.4609196e-01
  7.4752197e-02
  1.8259338e-01
  5.0542015e-01
 -1.4566948e-01
  1.6909254e-01
  1.3024881e-01
 -4.3137109e-01
 -3.7861848e-01
 -2.0769399e-01
 -3.9447427e-01
 -2.1327084e-01
  7.8851503e-01
 -5.6351948e-01
  1.1117992e-01
  5.4600233e-01
 -4.0205169e-01
  1.7977333e-01
  3.2827905e-01
 -5.3269362e-01
 -2.6698333e-01
  1.7392790e-01
  3.7366472e-02
 -5.7220352e-01
 -3.0741799e-01
 -3.1626165e-02
 -2.9177141e-01
  2.3434978e-02
  2.5232586e-01
  1.7361669e-01
 -3.3080822e-01
  2.7689509e-02
  3.7680537e-01
 -3.5719103e-01
  3.5854420e-01
 -7.0584613e-01
  2.3556860e-01
  4.3856820e-01
  5.5349094e-01
  5.5426996e-02
 -1.6245537e-01
  6.0153455e-02
  3.7464866e-01
  3.6044317e-01
  1.3482800e-01
  1.1635999e-01
 -3.1571352e-01
  2.5011545e-01
  5.0723195e-01
 -3.8875535e-02
 -1.1867934e-01
  4.0869382e-01
  3.8985789e-01
 -2.3426956e-01
 -4.2395973e-01
  3.1816864e-01
  3.6735797e-01
 -2.7647728e-01
  3.5467815e-01
  1.0814981e-01
 -5.0685756e-02
  2.1105915e-02
 -2.3222946e-01
  3.6488917e-01
 -8.0177069e-02
  6.4357144e-01
 -9.7542846e-01
  1.1350843e-01
  5.2161944e-01
 -8.4099501e-01
 -7.1228996e-02
 -4.8319861e-01
 -1.2373920e-01
  4.4671124e-01
  2.0495319e-01
 -1.0629632e-03
 -1.8692179e-01
  1.6896275e-01
 -6.1254799e-01
  5.4181117e-01
 -1.6077822e-01
  3.5085204e-01
 -7.6773471e-01
  4.3598059e-01
 -1.1921753e-01
 -7.4731672e-01
 -7.9922900e-02
  6.8220425e-01
 -2.5108743e-01
 -4.1581607e-01
 -1.8418747e-01
 -1.5442555e-01
 -2.7168235e-01
 -7.8105682e-01
  1.9604756e-01
 -2.0044073e-02
  1.4309970e-01
 -3.3069029e-01
 -2.5922377e-03
 -2.7340910e-01
 -4.9811670e-01
  1.4286406e-01
  2.7037138e-01
 -5.7254601e-01
 -6.5828091e-01
  8.1702542e-01
  2.8793160e-02
  6.3697803e-01
  1.7776233e-01
 -3.8176939e-01
  6.2741429e-01
  2.0223993e-01
 -2.3313779e-01
 -1.6617532e-01
 -1.8110789e-01
  4.0975627e-01
  3.3584574e-01
  1.8357329e-02
  4.4866398e-01
  2.9857475e-01
  3.2017642e-01
 -5.3659552e-01
  9.5602348e-02
  4.5529556e-01
  3.5417426e-01
  1.7578819e-01
 -7.4741626e-01
 -3.7016764e-02
 -1.5333867e-01
 -2.2245894e-01
  1.8587312e-01
 -1.3596436e-01
 -1.1823517e-01
 -4.9421522e-01
  4.8658451e-01
  6.5189791e-01
  5.2891278e-01
 -2.9478356e-02
  6.1157960e-01
 -2.0579331e-01
 -9.1777816e-02
 -5.3491199e-01
  5.7105803e-01
 -6.1175400e-01
 -3.8784808e-01
 -3.4306645e-02
 -5.2710938e-01
  1.9121078e-01
  1.3945609e-02
  5.0183392e-01
  7.4000728e-01
 -4.7951832e-01
 -5.5837661e-02
 -1.2136646e-01
 -2.7949354e-01
  8.2888573e-01
 -3.0051675e-02
  2.3589045e-01
  2.1685067e-01
 -4.8616463e-01
 -4.8130158e-01
  6.5757853e-01
 -4.1491714e-01
 -3.5632950e-01
 -1.4137077e-01
  4.6744293e-01
  9.5439598e-02
  1.1474169e+00
 -2.9516315e-01
  2.6878631e-01
  6.1942436e-02
  2.1841459e-02
 -2.8422791e-01
 -1.7705053e-01
 -8.2396731e-02
  9.3654878e-02
 -1.0162926e-01
  4.6849969e-01
 -7.0790127e-02
  3.2684070e-01
  2.5699767e-01
 -1.2871480e-01
 -4.1304362e-01
 -2.5870255e-01
 -1.1638390e-01
 -5.8042085e-01
 -3.7301183e-02
  2.0133612e-01
  3.2695186e-01
  5.3867027e-03
 -3.7975796e-03
 -2.5863671e-01
  3.8423151e-01
 -4.1004932e-01
  5.3185266e-01
  6.2340271e-01
 -5.5959249e-01
 -3.1131089e-01
  1.2802589e-01
  6.7278069e-01
  2.3192915e-01
  1.1209313e-01
  5.2077329e-01
 -7.9138473e-02
 -1.5353368e-01
 -8.3993471e-01
 -3.2332966e-01
  8.9519307e-02
 -1.1092718e-01
  3.4518290e-01
 -4.7139370e-01
 -9.4975531e-02
 -7.6211810e-02
 -3.6036438e-01
  1.2486023e-01
  8.8707268e-02
  1.0523398e-01
 -5.5339582e-02
  2.7649668e-01
  9.0878144e-02
  5.5341721e-01
  6.8830237e-02
 -5.6854701e-01
 -4.0726137e-01
 -8.5527197e-02
 -3.3255801e-01
  2.3260605e-01
 -5.3813592e-02
 -6.7697531e-01
 -1.0954931e-01
 -1.1113429e-01
  9.5128585e-03
 -4.9065620e-01
  9.6774980e-02
  6.0160935e-01
 -1.1511988e-01
 -2.4470750e-02
  1.8461391e-01
  1.7651409e-01
 -5.9301533e-02
  1.8934511e-01
  7.0265874e-02
 -2.3546155e-01
 -2.5348026e-01
 -1.7804623e-02
 -6.0170736e-02
 -2.3718219e-01
 -2.9413071e-02
  1.3706872e-01
  3.5070655e-01
 -1.9650871e-01
 -7.2258115e-01
 -1.8678898e-01
 -8.4281556e-02
  4.7566566e-01
  6.5479800e-02
 -6.3739344e-03
  4.2822874e-01
 -2.2888900e-01
  2.3784649e-02
  5.9041079e-02
  4.6102989e-02
 -7.0321955e-02
  6.9962308e-02
  2.7393663e-01
 -5.2946657e-03
  5.3480083e-01
 -2.7354187e-01
  3.7835950e-01
  2.3774819e-01
 -5.8425462e-01
  1.9180156e-01
 -5.0310498e-01
  4.4351444e-01
 -3.9556712e-01
  6.4357817e-02
 -1.4268348e-01
 -1.4568554e-01
  2.6202816e-01
  7.5989738e-02
  4.9225637e-01
 -6.2264460e-01
 -8.1901684e-02
 -1.0414564e-01
 -6.1923248e-01
  1.3945034e-01
  2.9715735e-01
 -8.3008379e-02
 -2.3543362e-01
  2.3781146e-01
  3.7922499e-01
  3.0401433e-01
 -9.0682435e-01
 -4.4884592e-01
  1.9406766e-01
 -5.6613177e-01
 -4.3359354e-01
 -2.2734068e-01
  8.2630867e-01
  1.3606994e-01
  1.3346529e-01
  2.6104090e-01
 -2.5131828e-01
  2.5359306e-01
  3.0339849e-01
  2.4970782e-01
 -5.8059597e-01
  4.1648045e-01
  2.3257678e-02
  7.2567505e-01
 -7.6115176e-02
  2.2088346e-01
 -4.6402439e-01
  4.1090935e-01
 -1.8985081e-01
 -3.6725253e-01
 -4.9299353e-01
  9.6532993e-02
  2.2011937e-01
  1.4453292e-01
 -3.9232743e-01
  8.3574057e-02
  3.7100899e-01
 -2.6398304e-01
 -2.8831804e-01
 -1.0789619e-01
  1.5218973e-01
 -3.7671256e-01
  2.7684417e-01
 -5.5736013e-02
  1.2494065e-01
 -2.2349110e-01
  3.4527791e-01
  3.6753184e-01
 -2.5547481e-01
  4.4587758e-01
  4.2898905e-01
  8.0173928e-01
  2.5362974e-02
 -7.1651533e-02
 -1.3084057e-01
  8.6394584e-01
 -1.3435286e-01
 -1.5649235e-01
 -2.4628526e-01
  7.2428860e-02
 -1.1256023e-01
  1.8898281e-01
  8.3114296e-02
 -1.2485275e-01
  1.6820529e-01
  3.6246908e-01
  2.3445748e-01
 -1.0580541e+00
 -5.0243157e-01
 -3.1695333e-01
  2.3019603e-01
 -1.6292496e-01
  1.9176308e-02
  5.8131796e-01
 -4.6579400e-01
 -1.0193793e-01
  8.1587225e-02
  1.5923567e-02
 -6.2915903e-01
 -2.0543016e-01
 -3.1831366e-01
  3.4662706e-01
 -3.6314243e-01
 -1.6217911e-01
  5.1556259e-01
  6.6740498e-02
 -1.7961323e-01
  1.7945106e-01
  5.1885539e-01
  8.2807434e-01
 -7.7917017e-02
  2.7433276e-01
  6.6494644e-02
  2.9733467e-01
 -7.7560320e-02
  1.9710788e-01
 -1.8950935e-01
  8.1999791e-01
 -1.4122584e-01
 -5.1391006e-01
  2.8691071e-01
 -4.4918001e-01
 -4.7290987e-01
 -6.7831290e-01
 -2.5139222e-01
 -6.8114251e-01
  4.5442082e-02
 -6.9881368e-01
 -1.9414113e-01
 -7.0090547e-02
 -2.9018396e-01
 -3.8009766e-01
 -2.8314024e-01
 -1.0969360e-01
  5.5347824e-01
 -4.4453725e-02
 -8.1227437e-02
  1.8149020e-01
  2.8068545e-01
  5.0938165e-01
  5.6556088e-01
 -1.0340016e-01
 -5.0724030e-01
 -7.4401349e-02
 -7.5056750e-01
 -2.1284357e-02
  2.7400311e-03
