nep3_polarizability 3 Ba Zr O 
cutoff 8 4 161 21
n_max 8 6
basis_size 12 12
l_max 4 2 0
ANN 50 0
  2.6404160e-01
  2.2048112e-02
 -6.0280597e-01
 -4.1106629e-01
  4.7254077e-01
 -3.5536692e-01
 -1.4043123e-01
 -3.0089220e-01
  1.5568560e-01
 -3.1457323e-01
  3.5468525e-01
  3.2017982e-01
 -5.9293732e-02
 -4.6107259e-01
  2.7091378e-01
  5.4959521e-02
  7.5045817e-02
  3.2819247e-01
  1.6860993e-01
  6.2649935e-02
 -2.8468224e-01
  6.7308739e-02
 -4.7304133e-01
  1.1062282e-01
  4.0927169e-01
  3.5068551e-01
 -4.7597694e-01
  1.1061582e-01
  6.5367454e-01
 -2.2896086e-01
  1.7792854e-01
 -2.6809210e-01
 -1.2642086e-01
  1.4332625e-01
 -4.3014520e-01
  5.6094182e-01
 -3.3642668e-01
  3.1871948e-01
  9.3038595e-01
 -7.2131924e-02
  2.5403059e-01
 -3.7062410e-01
  8.5047799e-01
  1.3070931e-01
  1.0518178e-01
 -6.4343673e-01
  4.1375744e-01
 -5.1739150e-01
 -1.0239998e-01
 -2.3357582e-01
  3.0322859e-01
  9.4712749e-02
  1.3762948e-01
  1.7371318e-01
  5.9066437e-02
 -4.0508233e-02
 -3.4197295e-01
 -2.8169996e-01
 -1.6007631e-01
  2.0586802e-01
  3.8904482e-01
  8.3481824e-01
  5.1816094e-01
 -2.7234438e-01
  3.4525901e-02
  6.5240520e-01
  1.2248129e-01
 -5.6719786e-01
  4.8820248e-01
  3.3107215e-01
 -8.0152348e-02
  4.6975213e-01
  2.3600943e-02
 -7.7802783e-01
  3.8820136e-01
  1.3709892e-02
 -5.8565354e-01
 -3.5350630e-01
 -1.3075581e-01
 -3.9488071e-01
  2.0183909e-01
  2.9494458e-01
 -3.7352037e-01
  5.3237522e-01
  1.0596520e+00
 -5.4400891e-01
 -2.1662703e-01
  7.0961934e-01
  4.5917057e-03
 -1.9944298e-01
  1.0233668e+00
  1.3105281e-01
 -2.0609272e-01
 -2.2170177e-01
  3.8039041e-01
  4.1665111e-02
  5.1546097e-01
 -1.9593030e-01
  4.0833378e-01
 -5.3420842e-01
  7.2265096e-02
 -4.3279707e-01
  2.1778414e-01
  4.9000683e-01
  4.1231942e-01
  3.9004108e-01
  1.5767874e-01
 -7.0675510e-01
  6.6507053e-01
 -4.8255274e-01
  3.4239817e-01
  5.8958578e-01
 -1.3180391e-01
 -1.5678164e-02
  2.3868011e-01
  4.8945287e-01
  3.8884640e-01
 -5.5139500e-01
  9.9549055e-02
 -1.3564959e-02
 -1.8389067e-01
  3.1752279e-01
  3.7483752e-01
 -8.2664467e-02
  2.5966585e-01
 -4.4585118e-01
  3.5362297e-01
 -9.1209954e-01
 -2.4562085e-01
 -2.2400346e-01
 -6.8212670e-01
  1.2105229e-01
  2.3915103e-01
  5.1172495e-01
 -4.5806080e-01
  3.8398880e-01
 -1.4456932e-01
  7.4130371e-02
  4.5048571e-01
  1.4150426e-01
  9.9081981e-01
  2.3860505e-01
 -5.2486336e-01
 -3.0706203e-01
  2.7392948e-01
 -4.1242260e-01
  5.1613218e-01
  3.6295351e-01
  1.7242990e-01
  3.8397026e-01
  2.3558426e-01
 -7.3759902e-01
 -4.7960198e-01
 -7.6060367e-01
 -7.2718585e-01
  2.9213205e-01
 -4.1354612e-01
  3.7482265e-01
 -9.7591043e-02
 -8.3916420e-01
 -2.9595253e-01
  5.9932125e-01
 -6.9267046e-01
  9.4331719e-02
 -1.0101258e+00
 -1.7560858e-02
  2.7634907e-01
  2.1440740e-01
 -3.6122528e-01
  2.0515443e-01
 -3.1828654e-01
  3.6956093e-01
  1.7138201e-01
  3.8040500e-02
 -2.7520970e-01
  4.9972409e-01
  6.4332217e-01
  2.5222164e-01
  4.3602911e-01
 -5.7961363e-01
  1.9239286e-01
  4.3196645e-01
  2.5863901e-01
  7.2485876e-01
 -4.2834726e-01
  9.0681422e-01
  2.3669574e-01
  3.2933347e-02
 -7.3276675e-01
 -4.9771005e-01
 -6.3359372e-02
  5.1217145e-01
  3.5140955e-01
  4.6503052e-02
  8.6313464e-02
  1.2446862e-01
 -3.9914471e-01
  6.8209571e-01
  8.1859279e-01
  1.9666675e-02
  4.0985158e-01
 -4.0153128e-01
  4.7126418e-01
  6.9242626e-01
  7.3858041e-01
 -2.6914939e-01
  6.3753092e-01
  5.3822786e-02
  3.8124400e-01
 -1.6979903e-01
 -5.6217033e-01
  5.6076849e-01
  5.8938438e-01
 -3.0826995e-01
  3.7817386e-01
 -4.9553344e-01
 -4.3782771e-01
  6.1840808e-01
 -6.4568408e-02
 -4.6398771e-01
 -4.6174344e-01
 -9.5933594e-02
  8.0517769e-02
  2.7296701e-01
 -4.1966904e-02
  1.7516139e-01
 -3.8543960e-01
  3.3114173e-02
 -4.1703030e-02
 -6.0434240e-01
 -2.6882857e-02
 -5.1794916e-01
 -4.4216388e-01
  2.1613984e-01
 -6.6189992e-01
  1.2736464e-01
  1.8373975e-01
  7.3458456e-02
  2.0039898e-01
 -4.4894394e-01
 -2.2587791e-01
 -4.1998271e-02
 -2.4944586e-01
 -8.0061650e-01
 -6.3222104e-01
 -4.2899546e-01
 -3.9307378e-02
 -4.0473038e-01
 -4.8002470e-01
 -1.8905553e-01
 -3.6776152e-01
  1.8986750e-01
 -1.0528901e-01
 -1.3093585e-01
  5.0644308e-01
  7.5200677e-02
 -1.2475762e+00
 -5.1856571e-01
  1.4491424e-01
 -1.5400706e-01
  7.5204723e-02
  2.0739323e-01
 -7.3555470e-01
 -3.6296017e-02
 -3.1678793e-01
  5.0852644e-01
  2.5392160e-01
  2.2547710e-01
 -2.5411019e-01
  3.4003294e-01
  5.4811142e-02
  2.3767589e-01
  2.3028147e-01
 -2.2509113e-01
 -3.6739585e-01
 -5.0357527e-01
  6.6429448e-01
 -4.6510249e-01
 -2.3469819e-01
 -5.1831271e-02
  4.6694562e-01
 -2.6032966e-01
  8.5491672e-02
 -6.5776336e-01
 -1.6292566e-01
 -2.7752879e-01
 -7.4334003e-02
  1.1883155e-01
  1.4399131e-01
  6.5624648e-01
  5.6105298e-01
  3.3719426e-01
  4.5783710e-01
 -2.6012123e-01
  1.9881362e-01
 -2.7339974e-01
 -6.9138050e-01
  4.9750134e-01
  7.8565009e-02
  3.8752866e-01
 -4.4779685e-01
 -5.2377194e-02
  3.6522490e-01
 -7.9796076e-01
  4.6408394e-01
 -6.8640310e-01
  1.2407558e-01
 -7.3251054e-02
  9.7488806e-02
 -3.0751202e-02
 -3.4262919e-01
 -2.4668485e-01
 -6.7681000e-02
 -4.4746017e-01
  2.6919341e-01
  4.4626287e-01
 -8.9675277e-02
  7.4418053e-02
  3.3604357e-01
  1.4158770e-02
 -3.8330606e-01
  4.4329914e-01
  7.0419359e-01
  7.8689444e-01
 -5.6863189e-02
 -6.2008512e-01
  4.6823874e-01
  2.3106441e-02
  2.6949278e-01
 -6.5674013e-01
 -5.1656038e-01
 -2.0011649e-01
 -4.4318223e-01
  3.0236351e-01
 -6.0913358e-02
 -2.3686729e-02
  1.0345690e+00
  4.5975681e-02
  1.4768553e-01
 -4.1557640e-02
 -5.7692719e-01
  1.0079679e+00
  2.6833567e-01
  8.5969716e-01
 -8.7127656e-01
  3.8314196e-01
  2.6944369e-01
 -1.5157900e+00
  6.1694789e-01
 -4.3515363e-01
  2.0239744e-02
  2.2261105e-02
  4.9915504e-01
  2.3222519e-01
 -8.4763098e-01
 -1.8196109e-01
  4.9221501e-02
 -3.9346015e-01
  1.2391701e+00
  5.6711161e-01
 -2.0076051e-02
  8.5349798e-02
  4.3848625e-01
  2.1757707e-01
 -1.2353107e-01
 -3.1103003e-01
  6.1565506e-01
  2.8481964e-02
 -4.4522068e-01
  5.3345841e-01
 -3.6147192e-01
 -4.3671268e-01
 -5.0153834e-01
 -5.5616617e-01
 -6.4945176e-02
  1.0680726e+00
 -2.9979250e-01
  7.3125231e-01
  5.5778968e-01
 -3.9022762e-01
 -2.6319686e-01
 -2.8979549e-01
 -1.2739779e+00
 -2.2630030e-01
 -5.9192872e-01
  6.6730976e-03
 -6.3710880e-01
  7.6110554e-01
  2.2572260e-02
 -3.0424130e-01
  2.0796479e-01
 -1.5386188e-01
  3.1189132e-01
 -3.6714053e-01
 -1.9919929e-01
  3.6572969e-01
 -4.0469444e-01
  7.0833737e-01
  6.1916232e-01
  4.4659388e-01
  1.6797975e-01
  7.4629568e-02
 -2.8802553e-01
  2.4206078e-01
  2.2519180e-01
  2.5981504e-01
 -1.2648077e-01
 -7.3211402e-01
 -4.2097232e-01
 -4.9779284e-01
 -1.9310050e-01
  4.7782516e-01
 -9.2651308e-01
 -1.1109695e-02
 -3.7885311e-01
 -2.6972681e-01
 -1.4287063e-01
 -7.3548347e-01
 -1.8957740e-01
 -3.8974866e-01
 -1.7759758e-01
  2.6837654e-02
  4.3072435e-01
 -4.6258017e-02
 -3.2936189e-01
  7.1813995e-01
 -3.1504619e-01
 -2.8628442e-01
 -4.2020932e-01
 -1.8095686e-01
  5.9183621e-01
  4.9928927e-01
 -9.1905743e-01
  2.2622666e-01
 -4.4010937e-01
  2.5387391e-01
 -3.9159024e-01
  2.8014800e-01
  4.0517412e-02
 -2.3107113e-01
 -3.0917203e-01
 -1.9840494e-02
  4.1679025e-01
  4.8011753e-01
 -4.4685245e-02
  8.6277139e-01
 -6.3496715e-01
 -5.6784965e-02
 -9.8691803e-01
 -2.4009688e-01
  4.2351145e-01
 -3.3482733e-01
  4.7249559e-02
  6.8245634e-02
 -9.8095559e-02
 -1.0702019e-01
  3.9348647e-01
 -2.9828632e-01
  2.3597197e-01
 -2.1169734e-01
  3.2034385e-01
 -6.7834145e-01
 -9.9478953e-02
  3.0232525e-01
  2.5898618e-01
 -7.1295023e-01
 -4.7813910e-01
  1.7651597e-01
 -9.7419515e-02
  3.3043024e-01
  1.4028713e-01
 -1.4267929e-02
  5.6871659e-01
  6.7017007e-01
 -2.4046949e-01
 -1.8862221e-01
  7.3255569e-01
  1.5697175e-01
 -6.1069112e-02
 -1.5488799e-01
  4.8761010e-01
  3.6593041e-01
 -2.4815889e-01
  3.8198721e-01
 -1.9999994e-01
  5.4777682e-01
  2.2884895e-01
  8.3174713e-02
 -1.3049287e-01
 -4.6455118e-01
  2.7741426e-01
 -5.5256200e-01
 -1.0864487e-01
  3.3141521e-01
 -8.8076204e-02
  5.2063572e-01
 -7.2020136e-02
  1.1862914e-01
  4.7094727e-01
  4.8107189e-01
  9.2633808e-01
  8.9531201e-01
  1.3236038e-02
  4.5387366e-01
  1.3926576e-01
  2.4917668e-01
  6.3853705e-01
 -5.0417554e-01
 -8.4010243e-02
 -1.4860252e-01
 -1.2524240e-01
 -6.3277192e-02
 -1.5109985e-01
 -3.7621605e-01
  8.5928351e-01
 -7.7133501e-01
  1.0938042e-01
  3.6787307e-01
  2.3091218e-01
 -3.2449973e-01
 -4.2893492e-02
  3.0462643e-02
  1.1929594e-01
  4.8500907e-01
 -3.0900103e-01
 -3.8170628e-02
 -6.0205352e-01
  4.3963161e-01
  7.9975438e-01
 -3.2198510e-01
  3.5855332e-01
 -1.4886990e-02
 -8.1269205e-01
  4.7063750e-01
  1.4887381e-01
 -3.3614925e-01
 -2.9510358e-01
 -1.4454728e-01
 -3.1044313e-01
 -1.9928536e-01
  3.0099344e-01
 -4.9072772e-01
  5.2028453e-01
 -1.9899850e-01
  4.1044185e-01
  6.6494894e-01
  2.5167376e-01
 -2.5185543e-01
  3.4946918e-02
 -2.6716888e-01
 -1.2479036e-01
  3.9051279e-01
 -3.5180640e-01
  1.4962557e-01
 -1.9708332e-01
 -2.8833798e-01
 -2.8084293e-03
  4.4264221e-01
  3.4345469e-01
  5.8027774e-01
 -2.3306530e-02
  1.0183950e-01
  3.9267135e-01
  4.9889803e-01
 -3.6365294e-01
 -9.4443005e-01
 -5.0143373e-01
  6.6018265e-01
 -2.9262349e-01
  4.8987365e-01
  1.0809987e+00
 -5.3162968e-01
 -2.1755314e-01
  4.7994521e-02
  9.1107970e-01
 -1.7591119e-01
 -4.8023182e-01
  2.5768861e-01
 -8.1559271e-02
 -4.5526418e-01
 -2.7727711e-01
  2.0833661e-01
 -1.3909456e-01
 -8.0784827e-02
 -3.4942186e-01
  8.1992143e-01
 -2.2922224e-01
 -3.0266583e-02
  8.7288249e-01
 -8.2686257e-01
 -2.2004068e-01
  8.5771501e-02
 -5.3804070e-01
 -7.8761268e-01
 -6.3215607e-01
 -8.5771692e-01
  6.8358369e-02
  3.8447952e-01
 -3.3222005e-01
  4.1185859e-01
  8.3776206e-01
 -5.2855897e-01
 -1.2748985e+00
 -3.0274153e-01
  9.2495903e-02
  2.4914384e-01
  1.0332470e-01
 -1.3242832e-01
 -3.6478199e-02
  6.8708950e-01
  3.4344015e-01
  9.3323737e-03
  8.3212882e-02
  2.8630307e-01
 -5.8310044e-01
  5.6888700e-01
 -9.3635589e-01
  8.1412569e-02
  3.4410095e-01
  2.0781745e-01
 -4.4123781e-01
 -8.8680130e-01
  6.7069447e-01
  5.1626879e-01
 -3.3749783e-01
  2.4074323e-01
 -3.2285252e-01
 -2.7865651e-01
 -2.9439840e-01
  3.5425764e-01
 -2.9920793e-01
  6.9100839e-01
 -3.9815784e-01
  1.8764962e-01
  7.8842409e-02
  6.0476434e-01
 -2.5026444e-01
 -2.6039496e-01
 -3.5307339e-01
  3.6601058e-01
 -2.9029921e-01
 -5.1595122e-01
 -2.3693834e-01
 -3.6934680e-01
 -6.9697127e-02
  5.1774663e-01
  1.1279821e-02
 -5.0215584e-01
  1.9488493e-01
 -2.1343619e-02
  2.2383857e-01
  4.0485132e-01
 -1.4412580e+00
 -4.0486895e-02
 -3.7258133e-01
 -2.4372514e-02
 -2.1563585e-01
 -5.6053585e-01
 -8.4203452e-02
  2.1354735e-01
 -6.9697022e-01
  4.8401588e-01
  7.6083928e-02
 -8.4602244e-02
 -4.1160786e-01
  6.4881331e-01
  3.0029330e-01
  1.7254922e-01
 -4.2826673e-01
  1.8611208e-01
 -1.7627265e-01
  4.8047408e-02
 -9.0556949e-01
 -8.4508550e-01
 -1.3958493e-01
 -2.4709789e-01
  4.5580515e-01
  1.0773355e-01
  9.9630797e-01
 -2.6749581e-01
  3.3559972e-01
  1.2257399e-01
 -5.8905268e-01
  3.4968212e-01
  7.9658699e-01
 -9.1548920e-02
  9.5356993e-02
  1.1223218e-01
  3.2145962e-01
 -3.7749228e-01
 -5.8013535e-01
  9.6991509e-02
  4.2787871e-01
 -3.7184644e-01
 -1.2228348e-01
 -1.5182382e-01
 -7.9086572e-01
 -3.5681957e-01
  3.0005601e-01
 -1.1724666e-01
  9.1664642e-03
  2.5967064e-01
 -3.8920847e-01
 -8.8759410e-01
 -2.7980334e-01
  4.4925332e-01
 -1.3403662e-01
 -4.7263718e-01
  2.4103484e-01
  8.3898741e-01
  3.2338297e-01
 -1.2861905e-01
 -3.2713458e-02
  6.9142866e-01
 -2.8519502e-01
  3.0744404e-01
 -7.4554813e-01
  1.3460943e-01
  1.1072814e+00
 -1.0907301e+00
 -8.1729877e-01
 -4.3831235e-01
 -1.9576254e-01
  6.6329473e-01
 -6.3177958e-02
  1.3008370e-01
  5.4918081e-01
 -7.7767029e-02
 -2.8160554e-01
  1.2175931e-01
 -4.6055354e-02
 -5.9045082e-01
 -2.5525320e-01
  2.5970768e-02
  2.5892648e-01
 -3.9500144e-01
 -1.4183789e-01
  9.1147028e-02
  1.4661370e-01
  2.2725175e-01
 -3.8209617e-02
  6.4541280e-01
  2.4156547e-01
  4.8492712e-01
 -7.7217519e-01
  1.2803503e+00
 -2.9064301e-01
 -1.5517791e-01
  1.5444283e-01
  9.0711482e-02
  9.3331993e-02
  3.3456552e-01
  7.8343935e-02
 -1.2280072e-01
  7.7025270e-01
 -7.8824937e-01
 -2.4021925e-01
  5.9593958e-01
  6.6370845e-01
  2.5033215e-01
 -2.5985204e-02
 -3.3417907e-01
 -2.7756396e-01
  1.0154586e-01
 -1.0007862e+00
  1.5115930e+00
  6.3222036e-02
 -5.1711017e-01
 -7.1010286e-01
 -2.2454478e-01
  7.9563141e-02
  3.8406497e-01
 -7.4935004e-02
  6.5922070e-01
 -6.9826925e-01
  2.3467654e-01
 -5.0600058e-01
 -2.1446991e-01
  6.8641102e-01
 -7.0266612e-02
 -7.6244104e-01
 -1.2435189e-01
 -2.3172930e-02
 -3.9594626e-01
  7.3702437e-01
  3.8043818e-01
  2.7856636e-01
  7.3208463e-01
 -3.7397891e-01
  6.2583727e-01
 -1.3246655e-01
 -8.2067543e-01
  1.5650094e-01
 -2.3562233e-01
  3.6106697e-01
  7.6668453e-01
  5.3256607e-01
 -1.2802319e-01
  1.8998022e-01
  3.5572693e-01
 -2.7827936e-01
 -4.1761747e-01
  1.0888854e-01
  4.7763020e-01
  2.5780123e-01
  2.0911784e-01
  4.5131743e-01
  6.3486153e-01
 -1.5802935e-02
 -8.3540326e-01
 -2.0511750e-02
 -3.5250103e-01
  1.5885314e-01
  1.8668646e-01
  8.0961809e-02
 -6.0991877e-01
  1.3784698e-01
 -1.0737904e+00
 -3.2877684e-02
 -5.4774292e-02
  5.3486061e-01
  1.4714932e-01
  2.7176827e-02
  6.6191535e-03
 -2.1945849e-01
  6.7916662e-01
 -2.4763587e-01
 -3.9635472e-02
 -5.9217787e-01
  4.0425581e-01
 -1.7791264e-01
 -9.1503024e-01
 -5.5914700e-01
 -4.4529110e-01
 -6.9360900e-01
 -2.6792881e-01
 -3.6840975e-02
 -4.1985542e-01
  3.7808442e-01
 -8.4927386e-01
  4.0244874e-02
 -2.9915728e-02
  4.6465918e-01
 -3.7885767e-01
  2.3407888e-01
  3.1645513e-01
 -1.7570105e-01
  4.6511891e-01
  1.0707140e+00
  7.0469522e-01
 -5.3974128e-01
 -1.8218224e-01
  3.1947732e-01
 -1.7380753e-01
  1.8406567e-01
  7.8648549e-01
 -3.3652765e-01
 -1.5992904e-01
 -4.8565128e-01
 -3.9358613e-01
  2.1197246e-02
  7.0911419e-01
  1.2661576e-01
 -5.7211620e-01
  2.3398866e-01
 -7.1078068e-01
 -3.1632632e-03
  7.8347541e-02
  2.5891593e-01
 -2.9811677e-01
  6.4153379e-01
 -2.4393243e-01
  1.6175810e-02
  7.0674077e-02
  2.1791351e-01
  1.3190201e-02
  1.6746663e-01
  1.2010584e-01
 -1.4657944e-01
 -7.7534616e-01
 -7.5411797e-02
 -1.0654182e+00
  4.9160880e-01
  3.7565568e-01
  5.9653789e-02
 -7.6569271e-01
  3.0661907e-02
 -2.8020144e-01
  8.0349773e-01
 -1.5382302e-01
 -8.1124741e-01
  5.4937087e-02
 -3.9121312e-01
  3.3225097e-02
  1.7077580e-01
  3.9099103e-01
 -4.6422303e-01
 -8.1149441e-01
  4.2205688e-01
  1.1822139e+00
  6.6343985e-02
 -3.7410799e-01
 -4.7829568e-02
  4.0315498e-02
  3.3361581e-01
 -2.2099315e-01
  2.0210469e-01
  4.1191489e-02
 -7.2464943e-01
  2.2461054e-01
 -1.0234225e-01
 -5.5818312e-02
  4.4963235e-01
  9.8962873e-02
 -4.3104368e-01
  1.0231428e-02
  7.7017650e-02
 -1.2100309e-01
  2.2004250e-01
 -8.6480297e-02
 -5.1912740e-03
  6.9655240e-01
 -3.2048154e-01
 -6.5817267e-01
  1.0087936e+00
  3.1593221e-01
  4.9002472e-01
 -6.5296940e-03
  1.0190678e+00
 -4.5092189e-01
  4.5545602e-01
 -2.1848391e-01
 -3.3542895e-01
 -1.3223143e-01
  1.5577191e-01
  2.9174286e-01
  5.2888542e-01
 -9.6224952e-01
  9.3363541e-01
  3.9497304e-01
  2.7465969e-01
 -1.2372246e-01
  2.3309998e-02
  2.9301178e-01
 -2.9228789e-01
  3.8596690e-03
  1.2413490e-01
 -1.9637612e-01
 -3.0558419e-01
  7.0422359e-02
 -2.4322155e-01
 -4.5655546e-01
 -1.7693946e-01
  2.0880233e-01
 -3.4575975e-01
 -7.9656136e-01
  5.7208526e-01
  4.1071412e-01
  2.7910158e-02
  4.9671835e-01
  4.8611632e-01
 -3.6439690e-01
 -6.1312914e-02
 -2.1257171e-01
 -1.1516763e+00
  5.5645174e-01
  2.0482961e-02
  1.1759140e-01
 -2.6496953e-01
  5.1495796e-01
  6.8385160e-01
 -3.6603180e-01
  1.9754402e-02
 -1.0154720e-01
 -1.0685563e-01
 -4.3458155e-01
 -4.9477316e-02
 -1.2633733e-01
 -4.6593875e-01
  1.0667410e-01
 -8.7777829e-01
  6.0498238e-01
 -3.1053865e-01
  1.6968518e-01
 -4.9968179e-02
  3.6158475e-01
  1.2702279e-02
  5.6680501e-01
 -6.1873847e-01
 -5.0044274e-01
 -7.1164846e-01
  7.2382778e-02
  6.7434996e-01
 -3.2354105e-01
 -7.0749414e-01
 -4.2818406e-01
 -1.7080054e-01
  3.2748464e-01
  5.3859466e-01
 -8.9123493e-01
  6.5871112e-02
 -2.9411542e-01
 -5.9222972e-01
 -3.0891612e-02
 -9.9119090e-02
  2.0696816e-01
 -8.4323540e-02
  2.5594658e-01
 -1.5667203e-01
  7.1800768e-01
 -2.5317985e-01
  5.2683901e-02
  5.6979513e-01
  6.8452895e-01
 -2.3586130e-02
 -3.0725515e-01
  2.4553448e-01
  3.5724235e-01
 -3.1203666e-01
  4.9557984e-01
  7.9314440e-01
 -1.3614255e-01
  5.3604418e-01
  5.0032508e-01
  4.9644120e-02
  1.8783921e-01
  1.0362864e+00
  2.1955022e-01
  9.6313544e-02
 -4.6515447e-01
 -1.5026894e-01
 -2.4018547e-01
  1.1444409e-01
  1.6917750e-02
  5.7477897e-01
  5.0930148e-01
 -1.0789405e-01
  7.6702118e-01
 -5.2205950e-01
  9.9010050e-02
  3.7535268e-01
 -7.6630360e-01
  3.0109933e-01
 -3.5281751e-01
  4.7275412e-01
  5.1161861e-01
 -2.7394891e-01
 -1.7629594e-01
 -3.5468727e-01
  6.1201584e-01
  4.7662470e-01
 -6.4961201e-01
 -7.9863763e-01
 -2.9910204e-01
 -1.0182477e-01
 -7.0624441e-01
 -6.7536616e-01
 -1.8654957e-02
 -8.2766676e-01
 -5.2172089e-01
 -4.6324721e-01
  3.6037803e-01
  3.6062551e-01
  3.1033286e-01
 -9.1507703e-02
  2.9563364e-01
 -1.3552922e-01
 -9.1398299e-02
  4.9268258e-01
 -5.2031887e-01
 -1.2149444e-01
 -5.8462989e-01
 -5.1771760e-01
  2.1881214e-01
 -3.5982244e-02
 -2.3752987e-02
  1.7778902e-01
 -6.4693516e-01
  6.5819442e-01
 -7.3752898e-01
 -5.1800942e-01
  5.2245253e-01
 -4.0848181e-03
  3.1014150e-01
 -4.3872869e-01
 -3.7072134e-01
 -5.3155873e-02
  3.6184698e-01
 -4.9695668e-01
  1.8743360e-01
 -1.2513879e-01
 -3.5122693e-01
 -5.6336427e-01
  2.6300706e-02
  2.3882122e-01
  1.9053975e-01
  5.0760710e-01
 -2.1954235e-01
 -3.9568144e-01
  5.3984690e-01
  1.3484955e-02
  3.3740827e-01
  4.7989893e-01
 -1.0231527e-01
  7.5433046e-01
  4.3541825e-01
  8.7818587e-01
 -6.4618808e-01
  2.7760431e-02
  8.4096318e-01
  5.7400417e-01
  6.7405385e-01
 -7.7065617e-01
  7.5375462e-01
 -3.4619009e-01
  3.4041980e-01
 -3.1039682e-01
  5.3870887e-02
  2.0068398e-01
 -5.9024769e-01
  9.6181542e-01
 -1.2254424e-01
 -2.7732125e-01
 -3.8709953e-02
 -4.9848992e-01
  5.3948730e-01
 -1.6618891e-01
  3.7327012e-01
 -6.1904055e-01
  2.4064079e-02
 -2.3460703e-01
  2.4495144e-01
 -2.7490562e-01
  1.7797235e-01
 -1.4336640e-01
 -2.2774667e-01
 -2.3032892e-01
 -5.7417698e-02
 -2.2519387e-01
  3.5742560e-01
 -4.7579888e-01
 -9.0909499e-01
  2.6851034e-01
 -1.0588877e-01
  6.3412595e-01
 -7.6432216e-01
 -2.4562052e-01
  8.2648888e-02
  9.2794642e-02
 -3.7140229e-01
 -1.0753611e-01
  2.7527386e-01
  9.9042125e-02
 -1.9878958e-01
 -5.7370055e-01
  4.3110022e-01
 -6.8377934e-02
 -6.2786239e-01
  8.5417479e-03
  4.2532840e-01
  1.0960998e-01
  6.5524369e-01
  9.5470771e-02
 -6.1642092e-01
 -4.1356927e-01
  6.5087937e-02
 -4.8062804e-01
 -1.6725084e+00
  4.9497822e-01
 -4.5836410e-01
 -2.7045974e-01
  2.3042788e-01
 -5.7202113e-01
 -1.9029200e-01
 -4.4608435e-01
  2.4974644e-02
 -1.7612610e-02
 -5.6225890e-01
  1.0355854e-01
  5.9913021e-01
  2.6817199e-02
 -1.7272002e-01
 -1.5007335e-01
 -1.6502891e-01
 -5.0704229e-01
  3.9580911e-02
  3.7711784e-01
 -1.2574580e-01
 -1.2295712e-01
  4.0458900e-01
 -1.0313722e-01
 -2.4905074e-01
  4.6834871e-02
  1.4109102e-01
  2.8086528e-03
  4.8076153e-01
 -4.8410308e-01
 -6.7903095e-01
  4.3779862e-01
  9.2569155e-01
  1.3857433e-01
 -5.8687180e-01
 -3.0969930e-01
  5.0260615e-01
 -6.4673883e-01
 -3.1502035e-01
 -3.1507447e-01
  1.1419753e+00
 -8.5164584e-02
  1.8547346e-01
 -4.6162212e-01
 -2.1652336e-01
 -6.8349093e-02
 -5.3113359e-01
  7.2232902e-02
 -4.2748407e-01
 -5.7317638e-01
  4.1083169e-01
  7.4555367e-01
  1.0867991e-02
 -5.9197503e-01
  6.9341534e-01
 -1.3995808e-01
  3.2657576e-01
 -8.4776884e-01
 -1.2423193e-01
  6.1342061e-01
 -1.0319006e-01
  7.1423827e-03
  5.7700694e-01
  7.9450524e-01
 -6.4281419e-02
  9.0873116e-01
  6.7740813e-02
 -6.2661940e-01
  1.1189834e-01
  3.5731205e-01
  2.6476952e-01
  3.4895712e-01
 -4.7545043e-01
 -4.8271097e-02
  5.2742052e-01
 -1.9020841e-01
  9.7779911e-03
 -4.0111554e-01
  8.4007215e-01
 -1.5576823e-01
  4.2725229e-01
 -3.5922056e-01
 -6.9478613e-01
 -6.2395012e-01
 -2.5793388e-01
 -4.9786213e-01
 -7.4215156e-01
  3.1497633e-01
  1.3058302e-01
 -2.4917971e-01
  3.6237520e-01
  1.8921819e-01
 -1.9473317e-01
  1.7411934e-01
 -1.4047480e-01
 -6.1872518e-01
 -6.9804370e-01
 -3.2822195e-01
  4.9289441e-01
  6.1709434e-01
  4.8626602e-01
 -2.7906927e-01
 -2.8926089e-01
 -1.8351935e-02
  4.6241128e-01
  3.1633237e-01
  3.0428800e-01
  4.6993673e-02
  3.7162427e-02
  8.9091146e-01
 -5.8112907e-01
 -2.5773770e-01
 -4.6696627e-01
  9.8178738e-01
 -2.2962935e-01
  6.3485926e-01
  5.0097406e-01
  7.6994248e-02
  8.5968482e-01
 -7.1021158e-01
  1.8697399e-01
  6.5712810e-02
 -1.4644057e-02
 -2.3396239e-01
  1.4603451e-01
  6.8705201e-01
  1.5241981e-01
  9.2974192e-01
 -2.2372581e-01
  3.7192237e-01
 -2.9641163e-01
  5.3839386e-01
  3.8438720e-01
  2.9174301e-01
  1.6924512e-01
 -1.0762637e-01
  7.1091402e-01
  7.0067215e-01
  2.9555097e-01
 -8.2239144e-02
  3.7989733e-01
  7.0902906e-02
 -3.4772789e-01
  3.9920923e-01
  6.3610297e-01
 -4.8577744e-01
 -3.9684564e-01
 -4.2118534e-01
  3.4930813e-01
  1.5910572e-01
  1.8651193e-01
 -1.9889380e-01
 -3.8624257e-01
  2.6644627e-02
  2.9133272e-01
 -5.5270988e-01
 -1.5277618e-01
  7.5597949e-02
 -2.9549512e-01
 -1.2611982e-01
  2.3679458e-02
 -6.7555499e-01
  5.9282798e-01
  8.2516372e-03
 -2.7366012e-01
  6.1054409e-02
 -6.0679340e-01
  4.3299785e-01
  3.1931001e-01
 -1.2088233e-01
  3.2598951e-01
 -3.3921200e-01
 -2.1564083e-01
 -4.2900974e-01
 -3.8614234e-01
  5.9769970e-01
  3.7955472e-01
 -5.6769345e-02
 -2.2738340e-01
  4.7863132e-01
  2.1805985e-01
  8.8590676e-01
  3.2694823e-01
  7.0894337e-01
 -3.5668772e-01
  9.9115300e-01
 -5.5199638e-03
  1.3129678e-02
  4.6042946e-01
  3.9254081e-01
  2.0022310e-01
  2.7508083e-01
  3.5351291e-01
  1.6210352e-01
 -2.8700656e-01
 -6.3658077e-01
  5.3174257e-01
 -5.0201315e-01
 -1.4503771e-01
  1.6541895e-01
 -2.6683161e-01
  4.8506847e-01
 -1.5621573e-01
  9.3484509e-01
 -2.3087057e-01
 -1.6188568e-01
 -2.9168317e-01
  6.5633464e-01
  2.5946954e-01
  1.2434775e-01
 -2.0853949e-01
 -3.1262937e-01
 -2.5204402e-01
  6.2420614e-02
 -6.8302208e-01
  8.5383251e-02
 -2.0495683e-01
  5.7004887e-01
 -2.2481003e-01
 -3.6603409e-01
 -7.4619941e-02
  6.7507756e-01
 -1.1733882e-01
  2.8973916e-01
 -5.7640898e-01
 -5.1674247e-01
  2.1275781e-01
  4.7188359e-01
 -8.5769966e-04
  6.7715734e-01
 -4.5632577e-01
 -3.8316843e-01
  7.5106496e-01
  2.4460091e-01
 -7.8493828e-01
 -7.4100780e-01
 -3.5857779e-01
 -4.0841788e-01
 -3.6994129e-01
 -1.1876457e-01
  5.0687784e-01
 -4.9091884e-01
  3.2100752e-01
 -3.9243612e-01
 -1.4257945e-01
  7.2507672e-02
  2.6390925e-01
  2.2826757e-01
 -6.3065678e-01
  5.3041708e-01
  4.1124502e-01
  6.3882154e-01
 -1.8390912e-01
  2.3277989e-01
  7.3289716e-01
  3.8634261e-01
 -1.0265238e+00
  2.1020487e-01
 -1.5518600e-01
  1.8397811e-01
  5.1002204e-01
  1.3230854e-01
  1.7492366e-01
  5.9397644e-01
  4.0146276e-02
  3.7006840e-01
 -1.7642801e-01
  1.5461373e-01
  1.5404615e-01
 -4.5287049e-01
  1.5776569e-01
  1.5951461e-01
  8.8055497e-01
 -1.7598525e-01
  3.1310889e-01
  5.6774491e-01
 -3.5873568e-01
 -2.9055172e-01
 -3.5466397e-01
 -1.6557468e-01
 -5.3770661e-02
 -5.1221013e-01
  1.9933999e-01
  2.0156123e-01
 -4.4627544e-01
  4.1306758e-01
  1.4568704e-01
  3.5527137e-01
 -7.0326619e-02
  3.6522141e-01
 -4.5311978e-01
  5.9357077e-01
 -7.5878429e-01
 -6.5129548e-01
 -2.1001813e-01
 -1.4568180e-01
  5.5519074e-01
  7.7133054e-01
  3.2070205e-01
  8.0127054e-01
 -7.8789592e-02
 -4.2772874e-01
  5.0926411e-01
 -6.6232181e-01
 -5.3236717e-01
  3.3587086e-01
  1.1831016e-01
  2.5003654e-01
  2.7723020e-01
 -4.9774456e-01
 -1.3285841e-01
  2.5743634e-01
  2.5047773e-01
  7.5830376e-01
 -6.1271971e-01
  5.8123320e-03
 -7.2314733e-01
  5.3988075e-01
  6.1990678e-01
  9.9683702e-03
  6.0785812e-01
  5.8632797e-01
 -2.8103030e-01
 -1.2860629e-01
  5.7615817e-01
  5.1752463e-02
  4.6987319e-01
 -4.4496748e-01
 -3.2362111e-02
  3.7663376e-01
  6.2467802e-01
  1.2410233e-01
 -6.5829939e-01
 -9.7143814e-02
 -3.2953614e-01
  6.7227826e-02
  6.4521331e-01
  3.3641562e-02
 -7.5358349e-01
  3.9693937e-02
 -4.4904217e-02
 -3.0684462e-01
 -5.3013432e-01
 -1.2328841e-01
  4.1300702e-01
 -3.7026635e-01
 -7.6836848e-01
 -1.0352709e+00
  9.7267908e-01
 -2.8807187e-01
 -3.7308288e-01
 -1.6719620e-01
 -6.5420920e-01
 -4.0525609e-01
  7.0145333e-01
 -5.4766494e-01
 -6.7382759e-01
 -5.9142876e-01
  2.5262976e-01
 -2.6823613e-01
  2.3533112e-01
  3.4546697e-01
 -3.4800255e-01
  9.1847144e-03
 -4.3226978e-01
 -1.0562418e+00
 -1.0868776e+00
  4.2222846e-01
 -2.8944498e-01
  1.5815064e-01
  6.2937355e-01
 -2.6234877e-01
 -3.3288577e-01
 -1.5220429e-01
 -1.5409645e-01
 -1.7329547e-01
 -2.8917202e-01
  4.4486359e-02
 -5.1534569e-01
  5.1143152e-01
 -2.7179167e-01
 -2.3257788e-01
  4.6539742e-02
  1.9173527e-01
 -2.3622799e-01
 -4.1896141e-01
  1.9955672e-01
 -4.9873659e-01
  3.6606100e-01
  1.9429132e-01
 -1.8816832e-01
  2.6267260e-01
  7.6422870e-01
  2.6325923e-01
  2.2631899e-02
  4.4480991e-01
  3.5850495e-01
 -5.7716036e-01
  1.8515265e-01
  2.4372353e-01
  1.6058578e-01
 -7.2330570e-01
  1.9858442e-03
  1.8574393e-01
  7.3350608e-01
 -1.1025862e+00
 -5.5954838e-01
  7.0897937e-01
 -8.2698458e-01
 -4.8713684e-02
 -1.1100568e-01
  6.5285571e-02
  2.3138261e-01
  5.0231673e-02
  5.4607457e-01
 -4.7842152e-02
  4.8042881e-01
  1.5895069e-01
 -2.1616976e-01
  9.7193211e-01
  4.9114612e-01
 -1.1878230e-01
 -4.9440193e-01
 -2.6121527e-01
 -5.6242025e-01
  2.3880267e-01
  6.3689202e-01
  5.7727093e-01
 -2.3517448e-01
 -3.5762340e-01
 -3.3835477e-01
 -1.0807593e+00
 -7.9972059e-01
  2.2556843e-01
 -1.5558970e-01
  6.3536459e-01
 -1.6239646e-01
 -3.8426030e-01
  9.2713082e-01
 -1.1833748e-01
 -1.4925061e-01
 -2.4604745e-02
  6.8268943e-01
  1.2050273e-01
  4.0262747e-01
  7.7132893e-01
  6.6552162e-01
 -5.0042075e-01
  2.2630478e-01
 -1.0742821e-01
 -7.5603783e-02
 -3.6208755e-01
 -2.8350461e-02
  8.8451244e-03
  7.0087686e-02
  9.4109684e-01
 -1.0605228e-01
 -9.6552819e-02
  2.0255983e-01
 -2.0220019e-03
 -1.4975441e-01
  5.9772577e-02
 -6.4636075e-01
  3.0228829e-01
 -6.0227442e-01
 -1.6879588e-02
 -3.9489502e-01
  2.4774802e-01
 -3.0782023e-01
 -3.0996442e-01
  6.6354972e-01
  7.6742165e-02
 -1.6764984e-02
  1.0185051e+00
  1.0881460e+00
 -6.0084682e-02
  5.8779860e-01
  8.3484417e-01
  5.9837347e-01
  8.2716727e-01
 -8.9623344e-01
  4.3936926e-01
  3.9939478e-02
 -4.2418569e-01
  2.2076416e-01
  3.5694462e-01
  3.2865402e-01
 -7.8829780e-02
  2.8263947e-01
  2.3025943e-01
  5.1266605e-01
 -1.6057462e-02
 -7.4890286e-02
  4.4511180e-02
 -7.7201170e-01
  1.4572136e-01
 -6.3478988e-01
 -2.3785110e-01
  6.3106172e-02
  4.4853255e-02
  9.6803540e-01
  3.8862608e-02
  2.4758331e-01
 -4.2653492e-01
 -1.2178811e-01
  1.2993662e-01
 -3.0110776e-01
  5.1250839e-01
 -5.2856398e-01
  3.2236305e-01
 -4.0414289e-02
 -4.8051530e-01
 -4.3590727e-01
 -7.9666108e-02
  4.7584862e-01
  3.7986681e-01
 -3.7976065e-01
  1.8467155e-01
  6.1416304e-01
 -3.9579692e-01
 -5.7342803e-01
  2.9737735e-01
  7.0803273e-01
  5.8228570e-01
  3.8800645e-01
 -4.4273967e-01
  5.4727439e-02
  7.5329053e-01
  5.4003465e-01
 -2.7504936e-03
  9.9266517e-01
  3.8036263e-01
 -2.5663978e-01
 -2.9144439e-01
 -3.0627880e-01
 -5.0488853e-01
 -8.3094217e-02
 -6.2842095e-01
 -4.7792143e-01
 -1.2838379e-01
 -1.4072283e-01
 -7.1092300e-02
  8.3012885e-01
 -2.2657561e-01
  8.2571638e-01
  1.3042650e-01
 -4.8286161e-01
  1.0454725e-01
 -6.4754128e-02
 -7.1885064e-02
  5.6703520e-01
 -6.9802934e-01
  7.1154273e-01
 -9.3465254e-02
 -8.8772520e-02
 -9.9613592e-03
 -2.4731585e-01
  3.1937763e-01
 -1.0301232e-01
  3.6769927e-01
  1.1565225e-01
 -5.0818115e-01
  4.3999553e-01
  2.1980271e-01
 -5.5881912e-01
 -4.9871817e-01
 -2.0668131e-01
  3.5542184e-01
  3.5118634e-01
 -9.5997494e-01
  5.1766968e-01
  9.8908022e-03
 -7.3218441e-01
  2.7986920e-01
 -6.2238723e-01
  3.9738294e-01
 -4.8761603e-01
  2.7753481e-01
  3.2992184e-01
 -1.6708881e-01
  1.0050021e-02
  9.0520942e-01
  1.0987552e+00
 -1.7884333e-01
 -5.8208448e-01
  4.5024076e-01
  6.0386336e-01
 -4.5110762e-01
  9.8277979e-02
 -9.8178066e-02
 -7.5183392e-02
  3.0594972e-01
  7.3696353e-02
 -1.0043223e-01
 -1.9883610e-01
 -1.5429676e-01
 -2.5372851e-01
 -6.4406186e-01
  4.1001692e-02
  2.9107264e-01
  6.7523265e-01
 -6.5990931e-01
  6.0135847e-01
  1.5073895e-01
  4.7119743e-01
  8.1920785e-01
 -2.9736274e-01
 -3.5364166e-02
  5.7028461e-01
  4.0696195e-01
 -3.0895275e-01
 -1.4501601e-01
  2.6590802e-02
  1.0818410e-01
  1.7371859e-01
 -4.3290462e-02
  3.5305643e-01
 -3.3241019e-01
 -8.9151293e-01
 -5.5902642e-01
 -6.6197801e-01
  7.0226580e-01
  7.3124623e-01
 -2.8759587e-01
  5.6904209e-01
  4.1868925e-01
 -2.3822725e-01
 -1.8929611e-01
  6.1716810e-02
 -3.5970354e-01
  1.1741671e-01
 -1.1432114e-01
 -2.9536255e-02
  2.2644810e-01
  8.1133209e-02
 -1.2969075e-01
 -4.6882591e-01
  5.6799579e-01
 -2.6679397e-02
 -1.0971112e+00
 -7.0910883e-01
  6.6577327e-01
 -8.0162585e-03
 -1.2594922e-01
  3.6379275e-01
  6.9107383e-01
  1.2790377e-01
 -2.8009295e-01
 -2.7282512e-01
  5.2126747e-01
 -6.5199727e-01
 -6.7731440e-03
 -9.5739841e-01
 -4.9517083e-01
  1.6441862e-01
  5.7288408e-01
 -3.4687960e-01
 -1.4721613e-01
 -2.2690944e-01
 -6.0131180e-01
  3.7017548e-01
 -2.3050287e-01
  4.1385680e-01
  1.3627252e-01
  1.0318029e-01
 -1.4481795e-01
  7.2560269e-01
  3.0684337e-01
  9.9580789e-01
 -3.4309697e-01
 -1.0097133e-01
 -1.0547556e-01
 -3.2538229e-01
 -3.4638506e-01
 -9.9561054e-01
 -8.0665308e-01
  3.5214874e-01
  2.5753894e-01
  6.1565989e-01
 -2.6336101e-01
 -3.6263222e-01
 -4.7333561e-02
  3.3504382e-01
 -5.8211589e-01
 -2.1754059e-01
 -4.9028015e-01
 -2.7698720e-01
 -2.4799901e-01
  1.4524950e-01
 -3.2194275e-01
 -1.2910657e-01
  2.9828548e-01
  2.8211981e-01
  3.0722788e-01
 -6.9728667e-01
 -1.3999103e-01
  1.5869193e-02
  2.2280304e-01
 -2.2847281e-01
  2.0359397e-01
  1.2197463e-01
 -2.9229027e-01
  3.0636528e-01
  2.3936883e-02
 -1.2856728e-01
 -4.7292295e-01
 -2.7793115e-01
 -3.8563453e-02
 -7.3833585e-01
 -1.9309157e-01
 -4.0006548e-01
 -3.1419516e-01
  1.2298826e-02
 -3.4251836e-01
 -5.4548037e-01
  2.2886862e-01
 -5.1146305e-01
 -1.2577391e-01
  2.5469756e-02
 -1.9061241e-01
 -6.5254998e-01
 -1.8099013e-01
  8.5604578e-02
 -5.9220302e-01
 -2.5249842e-01
  5.9535128e-01
  3.5460517e-01
 -1.9027242e-01
  5.6701374e-01
 -4.8860919e-01
 -4.0742677e-01
  3.4028733e-01
 -1.0478552e-01
  7.5684047e-01
  6.5624726e-01
  1.0521130e-01
  6.9361591e-01
 -1.2316410e-01
  6.1439413e-01
  2.1399331e-01
 -2.4685074e-01
 -8.3288956e-01
  2.1996269e-01
 -5.7697803e-01
 -1.2855507e-01
  7.4447453e-01
  6.0553420e-01
  1.4882754e-01
 -2.8528392e-01
  1.9964832e-01
 -6.6955787e-01
  1.7136116e-01
  1.9044463e-01
 -2.9988346e-01
 -5.0816584e-01
  4.7430778e-01
  3.9063230e-02
  7.4968636e-01
 -7.0778680e-01
  2.0086782e-01
  8.0161542e-02
 -4.9445468e-01
 -3.3910897e-01
  5.5301386e-01
  3.0134565e-01
 -1.0251753e-01
 -2.5852513e-01
 -2.7971670e-01
 -6.8071365e-01
 -1.2255063e-01
  1.2645437e-01
 -5.8151388e-01
  7.5870490e-01
 -6.0411036e-02
  5.8886290e-02
  3.2114255e-01
 -1.0257130e+00
 -3.5403717e-01
 -5.3882211e-02
 -4.3996656e-01
  2.6822817e-02
 -2.9886359e-01
  1.9949719e-01
 -3.2922226e-01
 -7.0893574e-01
 -8.3618775e-02
  6.3965201e-01
  5.7653254e-01
 -2.8157586e-01
  1.0166252e-02
  2.7198350e-01
  3.6249807e-01
  3.2232794e-01
 -6.5766290e-02
 -9.4671369e-01
  3.0729374e-01
 -1.8312962e-01
  5.4957801e-01
 -1.1041090e-01
  2.0516561e-02
  2.6327187e-01
  4.9290267e-01
 -1.9337730e-01
 -3.2118878e-01
  7.7530885e-01
 -2.0118651e-01
 -2.0749825e-01
 -5.4237771e-01
  2.7349344e-01
  1.2329953e+00
 -2.8310940e-01
 -1.2987847e+00
  4.1405982e-01
  9.6539661e-02
  5.8124959e-01
 -2.2396737e-01
  3.0387723e-01
  3.1737551e-02
 -4.9274865e-01
 -1.4212537e-01
  3.8424125e-01
  8.3562338e-01
 -1.6030015e-01
 -4.8060167e-01
  1.9633783e-01
  1.4498407e-01
 -5.1489294e-01
 -2.4590269e-01
  9.3298864e-01
  6.9874108e-01
  2.0846941e-01
  1.7498064e-01
  9.1825914e-01
  4.7636551e-01
  9.0126909e-02
 -3.3564645e-01
 -5.9598953e-01
 -4.0002784e-01
 -9.5970392e-02
 -1.5609935e-01
  3.4148297e-01
 -3.0166590e-01
  5.2011383e-01
 -6.7952976e-02
 -1.4823186e-01
 -1.0346071e-01
 -1.3505509e-01
  4.1197768e-01
 -6.2137955e-01
 -5.3967953e-01
  5.1750350e-01
 -8.2268405e-01
  1.0425862e-01
 -2.9099730e-01
 -5.9250750e-02
 -3.5633765e-02
  6.4565605e-01
  1.7028427e-01
 -1.0016446e+00
 -1.0059056e-01
 -6.5298401e-02
 -5.5275542e-01
  3.5000700e-01
  2.3237540e-01
 -4.8598047e-02
 -1.6531646e+00
 -1.6687483e-01
  4.3169461e-02
  3.4669062e-01
  2.2270103e-01
 -7.2959876e-01
  3.8576043e-01
 -4.9982288e-01
  3.2222962e-01
 -4.6537817e-04
  4.9935138e-01
  3.3944476e-01
 -2.1862414e-02
  5.5301136e-01
  6.0098100e-01
 -1.1688225e-01
 -2.1130474e-01
 -2.6611096e-01
  1.6594800e-01
 -7.4487317e-01
 -2.4501204e-02
 -3.4263378e-01
 -1.2589591e+00
  3.9926660e-01
 -2.5604957e-01
  2.3514129e-01
 -2.4164379e-01
  3.6851013e-01
  3.4753412e-01
 -1.4852826e-01
 -1.3503435e-01
 -5.6876701e-01
 -6.4113104e-01
  7.7174085e-01
 -2.0017353e-01
 -5.1246256e-01
 -1.5171897e-01
 -2.0505294e-01
  5.1994419e-01
  6.4090943e-01
 -5.9994966e-01
 -6.7160112e-01
  1.8911863e-02
 -5.5020255e-01
 -9.2364824e-01
  3.7773025e-01
  2.8808537e-01
 -2.8841746e-01
  3.6439839e-01
 -1.6728634e-01
 -2.3916680e-01
 -3.2092786e-01
 -3.8482162e-01
  2.9758966e-01
 -2.5111398e-02
  5.1617783e-01
 -1.0294677e-01
  1.3781106e-01
  3.5939768e-02
  4.3555295e-01
  2.5927383e-01
 -1.9324182e-01
  2.4939394e-01
  1.2813999e-01
 -5.6675607e-01
  1.2725638e-01
  1.3127167e+00
 -6.4310771e-01
 -2.9822442e-01
  3.1531900e-02
  3.5404861e-01
  5.5960518e-01
 -7.0292525e-02
 -6.9790381e-01
  5.9099889e-01
 -1.7585981e-01
  6.4055181e-01
  3.8567498e-01
  4.4633299e-02
 -2.0500787e-01
 -1.7038792e-01
 -8.6096480e-02
 -3.9977267e-01
 -6.4345932e-01
  4.9894199e-01
  1.2184271e-01
 -2.8727514e-01
  2.9945183e-01
 -2.9742610e-01
  4.8675740e-01
  1.5760127e-01
  9.3452223e-03
  6.2027740e-01
  5.8430904e-01
 -3.9981979e-01
  7.0203632e-01
  9.2660330e-02
  6.7421710e-01
  4.9265823e-01
  6.3621241e-01
  1.9233243e-01
 -9.1471732e-02
  8.0129951e-01
 -1.6256700e-01
 -1.8353313e-01
 -9.6184796e-01
 -1.5610342e-01
  3.8652146e-01
  2.3142837e-01
 -1.3373020e-01
  6.1923879e-01
 -1.2662576e+00
 -7.3029768e-01
  9.0922616e-02
 -6.0757637e-01
  2.3881593e-01
 -4.2072095e-02
 -8.1186289e-01
 -6.6733867e-02
 -3.6263129e-01
 -1.4590953e-01
 -1.9413935e-01
  6.5931726e-01
 -5.4089087e-01
  5.1122683e-01
 -2.6057765e-01
 -9.8529264e-02
  2.7187011e-01
 -4.9337688e-01
  3.2029539e-02
 -5.5022496e-01
 -9.4366893e-02
  3.8165465e-02
  2.6869971e-01
 -5.1990040e-02
  4.0487602e-01
  4.5771375e-01
 -1.8587659e-01
 -7.3762551e-02
  5.8214176e-02
 -5.0097799e-01
  5.6644416e-01
 -2.9630762e-01
  1.8092051e-01
  2.3206583e-01
  6.1025727e-01
  5.1835477e-01
  6.9461197e-01
  9.5324528e-01
 -9.4085634e-03
  4.1183668e-01
  4.2741871e-01
 -4.8257232e-02
 -4.4916958e-02
  1.3220467e-01
 -7.4651316e-02
  1.3218194e-01
  6.3818067e-01
  4.4102287e-01
 -9.2675680e-01
 -4.9581200e-02
 -6.4950958e-02
  3.0951416e-01
  3.6150563e-01
  1.6387559e-02
 -2.3479998e-01
  1.1036082e-01
 -3.3490872e-01
  1.6120619e-01
 -1.3195701e-01
  3.6781469e-01
  5.2497774e-01
 -2.6170981e-01
  4.3970606e-01
 -1.9337520e-01
 -7.3796344e-01
  7.8963143e-01
 -4.0227556e-01
  3.2817376e-01
  2.2737935e-01
 -4.6199882e-01
  1.5455045e-01
 -4.6356475e-01
  4.5586962e-01
  4.1630700e-01
 -7.4292523e-01
 -1.9142438e-01
  4.7661923e-02
 -2.1274891e-01
  4.1677698e-01
  3.0269760e-01
 -2.9247305e-01
 -3.4277382e-01
  6.7955200e-03
 -2.3125724e-01
  5.1487005e-01
  1.0359911e-01
  7.5689435e-01
  7.0212561e-01
 -2.3419636e-01
  4.2231673e-01
  2.3532824e-01
 -2.3157409e-01
 -1.7213905e-01
  1.6450059e-01
  8.4439099e-01
 -1.3661718e-01
 -3.4195644e-01
  8.2676232e-01
  9.2218798e-01
  1.7717332e-01
 -6.1048247e-02
 -6.5343493e-01
  3.3227977e-01
  2.4639456e-01
  1.4415909e-01
  8.1874889e-01
  7.9278663e-02
  9.3074745e-01
 -1.8774775e-01
 -1.3590631e-01
 -1.7659192e-01
 -6.1332309e-01
 -1.9533971e-01
  1.7824382e-02
  4.1103965e-01
  1.1186779e-01
  3.1667182e-01
 -3.6434877e-01
 -3.1567308e-01
 -2.4594760e-01
 -2.5704604e-01
  2.1687582e-02
 -3.6208656e-01
  2.9817206e-01
 -3.0149955e-01
  8.9969981e-01
 -2.5308228e-01
  3.5284209e-01
 -5.7199791e-02
  8.5485980e-02
 -2.0170397e-01
 -3.7055382e-01
 -2.1562664e-01
 -1.6414331e-01
 -1.7570239e-01
 -1.3921455e-01
  3.1723648e-01
  2.3347071e-01
  1.8255943e-01
  5.8879133e-02
  4.6139006e-02
  1.1734163e+00
 -5.8231890e-01
 -8.5271969e-02
 -2.9272538e-02
  3.2928532e-01
  4.6035297e-02
 -3.1073189e-01
 -3.1823072e-01
 -9.1491014e-02
  1.5897094e-01
  1.6580032e-01
  4.5376375e-01
 -1.3854760e-01
 -1.6565849e-01
 -6.6801012e-01
  3.1111056e-01
 -5.8347267e-01
  3.4387368e-01
  8.9347279e-01
 -2.1721660e-01
  4.1235289e-01
 -1.3306965e-01
 -1.2310708e-01
  8.4129328e-01
 -2.0856875e-01
 -5.5305734e-03
  8.2201731e-01
 -2.4567035e-01
  7.2393931e-02
  3.8620827e-01
  5.9551162e-01
 -4.3385702e-01
 -1.8887538e-01
  5.9179139e-01
 -2.9974052e-01
 -1.2409184e-01
  1.0102740e-01
 -6.4703190e-01
 -3.1614810e-01
 -3.2727024e-01
  1.0061994e-01
  1.2102510e-01
 -6.6665554e-01
 -2.6391718e-01
  5.0843573e-01
  1.6819507e-02
 -1.9136608e-01
  3.2006070e-02
  7.3159531e-02
  1.0431932e+00
 -7.0070636e-01
  8.0749929e-02
  6.2848437e-01
  6.5017152e-01
 -5.5109687e-02
 -4.0646708e-01
  5.2340502e-01
 -1.9095942e-02
 -4.9718899e-01
 -1.6613683e-01
 -6.1601365e-01
 -4.2458871e-01
  5.0808859e-01
  1.3576344e-01
 -2.2512665e-01
  6.5296412e-01
  1.3685727e-01
 -6.6758715e-02
  4.1875070e-01
 -6.2733674e-01
 -1.4833450e-02
  3.0934063e-01
 -3.7930986e-01
 -3.9393717e-01
 -1.5300742e-01
  4.5556483e-01
 -1.6763180e-02
  1.1275750e-01
 -4.9380869e-01
  2.7179003e-01
  5.9867430e-01
  5.7574821e-01
  2.1775493e-01
  8.7183648e-01
 -7.0714384e-02
  7.5614691e-02
  4.8104107e-02
  2.9198486e-01
  8.0552906e-02
 -2.2697164e-01
 -9.5611677e-02
 -2.5986484e-01
 -9.1668218e-01
  4.5251906e-01
 -3.6603040e-01
 -1.0242959e-01
 -2.0383358e-01
 -6.7575470e-02
  8.3095258e-01
 -9.2969149e-02
  1.9964966e-01
  7.9061359e-01
 -2.4965380e-01
  7.6609570e-01
  8.4100556e-01
  2.7488476e-01
 -3.5121900e-01
 -4.2655286e-01
  5.6165612e-01
 -5.3654879e-01
 -5.0195855e-01
  2.8605856e-02
  3.5913301e-01
 -3.3867247e-02
  2.4793279e-01
 -6.0174257e-01
 -6.8533406e-02
 -3.5820597e-01
  3.6792454e-01
 -2.9436755e-01
  8.1629699e-01
  6.2806517e-01
 -1.3244575e-01
  4.2881653e-01
 -8.0383116e-01
  3.1639570e-01
  3.4578290e-02
  1.2942366e-02
  5.4907614e-01
 -3.2332563e-01
 -5.0048667e-01
  1.0712028e-02
  4.4323626e-01
  8.0575216e-01
 -1.3997145e-02
  7.4908149e-01
 -3.4474912e-01
 -3.5269248e-01
  2.9680693e-01
 -7.5501180e-01
  2.6080567e-02
 -3.8722774e-01
  3.7320977e-01
 -1.3461424e-01
 -5.2081387e-02
 -5.1197922e-01
  5.2010849e-02
 -9.2336869e-01
  5.4776543e-01
  6.6025555e-02
  2.1639439e-01
 -1.2612280e-01
 -6.1695862e-01
 -1.8282010e-01
 -3.2254210e-01
  2.2711353e-02
 -2.4275841e-01
  6.4935577e-01
  8.4797069e-02
 -3.2528602e-02
  7.6233768e-01
 -4.1886702e-01
 -1.3459754e-01
 -6.6442415e-02
 -7.9800600e-01
  2.9353273e-01
  4.4567552e-01
 -7.3944485e-01
  1.9297054e-01
  3.7320313e-01
  4.1927218e-01
 -9.6465039e-01
 -8.4814155e-01
  8.1716686e-01
  3.4749545e-03
  8.3403096e-02
 -7.3660594e-01
 -2.8083041e-02
 -7.0082450e-01
 -5.1279163e-01
 -7.8227095e-02
  2.6445907e-01
  4.6856672e-01
  6.3398439e-01
  9.1092438e-03
  2.4240924e-01
 -1.2704557e-01
 -7.5250894e-01
  4.0612560e-02
 -2.4796796e-01
  3.7831962e-03
 -4.7159240e-01
 -6.2778175e-02
  2.9383141e-01
 -7.5015903e-02
 -4.6757707e-01
 -2.7685440e-01
  7.8065306e-01
  2.5129071e-01
  2.0019457e-02
 -3.5625082e-01
  4.5482233e-01
 -4.7904718e-01
 -1.2540269e-01
  5.7302672e-02
 -7.6529324e-01
 -1.0738209e-02
  1.3960198e-01
  3.0386138e-01
  2.3812035e-01
 -1.5306257e-02
 -1.6523339e-02
 -1.7466694e-01
  2.6478571e-01
  2.9125899e-02
  4.6926677e-02
 -7.2255880e-01
 -3.9137071e-01
 -8.0218810e-01
 -6.7757082e-01
 -3.5641426e-01
 -6.5933865e-01
  1.4184947e-01
 -2.8928116e-01
 -5.8170968e-01
 -8.8276096e-02
 -3.3206001e-02
 -9.5013008e-02
 -1.1035727e-01
 -5.9137285e-02
 -1.8239623e-01
  4.0013632e-01
 -3.3027443e-01
  6.8912931e-02
  8.4162968e-01
  2.1102577e-01
  4.3430772e-01
 -1.9485295e-02
  7.2726107e-01
 -1.3510984e-01
 -5.8220822e-01
  4.7246855e-01
  1.1047509e+00
 -1.2322675e-01
 -1.3242514e-01
  9.4237721e-01
  1.7434548e-01
  5.7712597e-01
  2.4600162e-01
 -1.9578137e-01
  9.4427830e-01
  1.7009811e-01
 -7.4960959e-01
 -7.4330401e-01
 -2.8313518e-01
  1.7517002e-01
 -5.3090751e-01
 -3.9896315e-01
  7.2019286e-03
 -1.7544255e-03
  7.1471041e-01
 -2.2814240e-01
  4.6555910e-01
  7.1840429e-01
  3.6105374e-01
  1.2461594e-01
 -1.8604502e-01
  2.3900755e-02
 -1.3113400e-01
 -3.3516839e-01
  2.2265799e-01
  9.9958992e-01
  9.5661223e-02
  3.0450189e-01
  5.3350858e-02
 -8.3235204e-01
 -1.0244236e-01
  2.2837842e-01
  3.6323208e-01
  2.2603145e-01
 -3.1880969e-01
  7.2099403e-02
 -1.5649092e-01
  1.7229831e-01
  5.8530921e-01
  5.5060554e-01
  9.1524196e-01
 -1.9175863e-01
  2.4171302e-01
 -9.6976627e-03
 -1.7923880e-01
  1.9897491e-01
 -1.2575385e-01
  1.3486069e-01
 -1.2043798e-01
 -1.0849901e-01
 -5.2170056e-01
 -1.8947586e-01
  2.2164518e-01
 -2.2251880e-02
  6.0399687e-01
  1.8081440e-01
  1.0315783e-02
  4.5242134e-01
  1.4155172e-01
  1.2896641e-01
 -2.6947409e-03
 -2.4795079e-01
  6.4110237e-01
  8.9359626e-02
  7.5921640e-02
  3.2081753e-02
 -5.6452352e-01
 -4.4625950e-01
  2.2074984e-01
 -7.5419587e-01
  9.0857136e-01
  4.9912047e-01
 -6.7204215e-02
  1.3251690e-02
  3.8886815e-01
 -6.9242895e-02
  3.2021353e-01
 -1.4494869e-01
  4.9016413e-01
  5.9576476e-01
 -8.9709312e-03
  6.1228031e-01
 -7.1992874e-03
  4.9212486e-01
  1.3528928e-01
  8.6530678e-02
  4.2182702e-01
 -1.9053636e-01
 -6.2799680e-01
 -1.6045943e-02
  1.3913600e-01
 -7.1577597e-01
  3.2969508e-01
 -2.2346774e-01
 -8.9298433e-01
  9.6627563e-01
 -1.4680797e-01
 -6.5590912e-01
  1.0273321e-01
  7.2477752e-01
 -9.8194361e-02
 -6.0629940e-01
 -1.3302314e-01
  3.9009431e-01
 -2.2003977e-01
  8.6764854e-01
 -4.7756150e-01
  5.3723222e-01
 -5.1098984e-01
 -2.2891228e-01
  7.7746081e-01
  8.5013978e-02
  6.4882767e-01
  7.2488165e-01
  5.5980253e-01
  4.2028683e-01
  8.3013999e-01
 -1.0625391e-01
  8.0720328e-02
 -1.6023482e-01
  3.4551615e-01
  8.5382479e-01
  5.0060666e-01
 -3.8640421e-02
  9.6145958e-01
  3.7986183e-01
  4.2753249e-02
  6.5612686e-01
  2.9397392e-01
  3.1918582e-01
 -1.1286105e-01
 -1.0660044e-01
 -3.6601734e-01
  4.0197089e-02
 -7.4468493e-01
  1.0414085e-01
  2.4010849e-01
  4.8884442e-01
 -9.1709219e-02
  4.4280687e-01
  2.3552625e-01
  1.0859856e-01
  1.0650456e-01
  6.5614617e-01
 -5.7562363e-01
  3.4160501e-01
  2.3281369e-01
 -1.6942017e-01
  4.4950578e-01
 -5.7577044e-03
 -1.3498950e+00
  1.7352867e-01
  3.2351148e-01
 -3.6044341e-01
  4.2076670e-02
 -3.8632402e-01
 -3.0152163e-01
 -3.6692995e-01
  2.7137598e-01
 -7.5634956e-01
 -5.1094019e-01
  3.2217175e-01
  2.0960039e-01
 -4.6485710e-01
  3.2815075e-01
 -5.5483323e-01
  5.1660275e-01
  9.2605448e-01
  7.3927484e-02
 -2.1666560e-01
 -3.1152049e-01
 -2.6146320e-01
  5.6366080e-01
  2.6721579e-01
  1.5869460e-01
 -6.3320363e-01
  3.3855641e-01
 -6.8805434e-02
  2.2743264e-01
  1.1307403e-02
 -3.2508278e-01
  6.0201786e-02
  8.1606126e-01
  4.0254399e-01
  1.6965418e-01
  4.0248275e-01
  1.6905680e-01
 -3.2228327e-01
  1.0089219e-02
 -4.9347017e-02
  1.1651404e+00
 -5.2575409e-01
 -3.6568835e-02
 -1.8053716e-01
 -3.4102884e-01
 -4.3774001e-02
 -2.8792313e-01
  6.8162793e-01
  5.4314226e-01
  1.8876360e-01
  7.0344642e-02
  4.8766505e-02
 -1.5554199e-01
  2.9339480e-01
  2.5600645e-01
  1.2749611e-01
 -6.0546523e-01
  5.0341174e-02
 -2.9246613e-01
 -3.0736065e-01
 -7.7587199e-01
  8.2771528e-01
 -3.6193377e-01
  8.3467364e-01
 -1.3391259e-01
  1.3490540e-01
 -5.9094900e-01
  4.4632629e-01
  8.4362432e-02
 -5.2799529e-01
 -1.3716051e-01
  5.8075422e-01
  5.5808270e-01
  1.4774846e-01
 -2.6277256e-01
  5.6208414e-01
  2.9813594e-01
  1.0287642e+00
  9.4526552e-02
  8.9726090e-02
 -2.2186518e-01
 -3.2391682e-01
 -5.6692559e-01
  3.4455772e-02
 -4.0556490e-01
  4.9198681e-01
 -2.0433244e-01
 -9.9142849e-01
 -7.3981559e-01
  4.6834132e-01
 -3.7045312e-01
 -4.9491563e-01
 -2.3269783e-01
 -4.7940257e-01
 -5.6459427e-01
  4.0921390e-01
 -1.0409035e-01
  7.9804784e-01
  3.1728938e-01
 -4.3213540e-01
 -2.1231103e-01
 -6.7601788e-01
 -3.7658077e-02
 -3.2147384e-01
 -4.5753402e-01
 -4.9858439e-01
 -1.5710583e-02
 -1.9475567e-01
  9.7331911e-02
 -1.3190585e-01
 -3.4771904e-02
 -2.7203324e-01
 -2.6808026e-01
 -6.2813628e-01
  6.9724160e-01
  9.0147227e-02
  9.4894022e-02
  9.0457892e-01
  2.9017296e-01
  8.6674899e-01
  5.1043842e-02
 -7.7974200e-02
 -9.3231755e-01
  6.9574192e-03
  5.1475901e-02
 -4.4337982e-01
 -2.4634993e-01
 -5.7248479e-01
 -5.5112660e-01
 -5.3924543e-01
  7.3042788e-02
 -6.5274572e-01
 -2.1419291e-01
  6.8262953e-01
 -3.1089926e-01
 -4.6121746e-01
  7.8366578e-01
 -2.8009647e-01
 -3.1016824e-01
 -4.1213103e-02
 -4.9027525e-02
 -3.6157280e-01
  1.7185594e-01
 -7.1957755e-01
  3.9249212e-02
  2.5398561e-01
  2.5440523e-01
  8.9833826e-02
 -6.1539978e-01
 -6.3800311e-01
 -1.0705021e-01
 -1.0991983e-02
 -1.0538988e-01
  5.3115451e-01
  1.7714161e-01
 -2.9760134e-01
 -3.0256879e-01
 -5.1873136e-01
 -2.3811579e-01
  1.1508152e-01
  2.9878873e-01
  5.9075195e-01
 -2.9023448e-01
 -4.3589494e-01
 -5.7437867e-03
 -2.0908718e-01
 -7.1223652e-01
  1.3228342e-01
 -3.3622077e-01
  5.5171305e-01
  4.9580461e-01
  5.0407904e-01
 -6.3795108e-01
  4.3881854e-01
 -5.2258030e-02
 -7.9456186e-01
 -6.7916781e-01
 -4.2850035e-01
 -3.3684695e-01
  2.0652363e-01
 -4.7397789e-01
 -9.9980628e-01
 -2.3306464e-01
 -3.2303485e-01
  7.1830356e-01
  4.9196519e-02
  2.9421565e-01
  2.3118569e-01
 -7.0380729e-01
  3.0559397e-01
 -7.0705992e-01
 -3.3245170e-01
  5.2268201e-01
 -2.2333689e-01
 -3.3454460e-01
 -3.4476552e-02
  3.0723703e-01
 -3.9271403e-02
  4.7046903e-01
  4.7215325e-01
 -4.0454000e-01
 -3.2561809e-01
 -1.3608374e-01
 -2.1705240e-01
  1.5915187e-01
  1.4248145e-01
  5.0026846e-01
  1.2840506e-01
  5.7266432e-01
  3.1634632e-01
  4.2377021e-02
  5.3724296e-02
  9.7433627e-01
  6.5726203e-01
 -4.2148399e-01
 -9.5956534e-02
  3.1109348e-01
  3.7622982e-01
 -5.1575893e-01
  2.1424504e-01
 -5.9167910e-01
  4.0854976e-02
 -5.9080821e-02
  7.2617257e-01
  7.1412033e-01
 -7.5924471e-03
 -4.1774946e-01
 -5.4462310e-02
  1.6222967e-01
  4.4409940e-01
  3.4825644e-01
  2.1411415e-02
 -4.1304998e-02
  4.1369867e-01
 -2.7195036e-01
  1.3669367e-01
  6.4234920e-02
 -6.8650723e-01
 -4.6133399e-02
  1.4038055e-01
  6.7701215e-01
  3.9790663e-01
  6.2069148e-01
 -6.6858396e-02
  2.2318752e-01
  7.3084521e-01
 -2.4934351e-02
 -4.6473691e-01
 -7.6445156e-01
  5.0931001e-01
 -5.6694043e-01
  4.1537267e-01
 -7.1722043e-01
 -2.5641382e-01
 -4.7568133e-01
 -4.5504028e-01
  4.5849431e-01
 -7.0213455e-01
 -1.1276369e+00
  1.4634441e-01
  2.2587956e-01
 -4.4624263e-01
  6.5053388e-02
 -2.8486285e-01
  2.8215989e-01
  4.1277525e-01
  1.4641735e-01
 -2.7601767e-01
  3.4394294e-02
  6.7217010e-01
  2.8451145e-01
  8.8220114e-01
  3.5010897e-02
  1.2086479e-01
 -3.5177460e-01
 -3.5045767e-01
  3.1142020e-01
  3.1912137e-02
 -4.9840829e-01
  1.9364558e-01
  7.4998772e-01
 -7.2914802e-02
 -4.1431513e-01
 -5.5301088e-01
 -2.6365852e-01
 -4.3995023e-01
  4.5277667e-01
  7.7113949e-02
  3.2897738e-01
  4.9299371e-01
  5.3552157e-01
 -1.2507772e-01
  3.9548540e-01
  4.1694087e-01
 -2.5375041e-01
 -7.3185527e-01
 -6.8302780e-02
  1.2560865e+00
 -1.7289808e-01
  2.9026574e-01
 -2.8341240e-01
  1.8223518e-01
  5.1737659e-02
 -3.7113887e-01
  2.8423768e-01
 -3.1740928e-01
  6.7631260e-02
  5.4870969e-01
  5.4177380e-01
  1.1156528e-01
  4.9557790e-01
 -4.1638625e-01
  4.4175011e-01
  2.0106280e-01
 -6.4089805e-01
  3.4813863e-01
 -1.3200283e-02
 -3.0020216e-01
  5.9423395e-02
  4.2082742e-01
 -5.6423104e-01
 -2.6454189e-01
 -1.9034594e-01
 -3.5213560e-02
 -1.2406231e-01
  9.2256002e-02
 -1.8376172e-02
  3.6260463e-02
  3.4067279e-01
 -3.7153402e-01
  9.7902209e-02
 -2.2715974e-01
  3.1333748e-01
  2.9030147e-01
  4.1271201e-01
 -1.2040332e-01
 -1.4601792e-01
 -3.0953091e-01
 -6.7590594e-02
  3.1363058e-01
 -4.5735806e-02
 -6.9604027e-01
 -2.5853762e-01
  3.9519098e-02
  9.1187768e-03
 -9.8048288e-01
  2.1558222e-01
  1.8894294e-01
  4.6450894e-02
  1.8485162e-01
  4.3338409e-01
  5.7788827e-02
 -6.1376625e-01
 -9.1692030e-02
 -3.8884419e-01
 -2.8040421e-01
  8.2877177e-01
  5.8812097e-02
  3.2769400e-01
 -2.7117619e-01
 -1.2930106e-01
  1.1918850e-01
  1.0789732e-01
 -5.8324128e-01
 -2.6356646e-01
 -7.5099617e-01
  5.7200265e-01
  2.2425012e-01
  3.8156721e-01
 -3.0842048e-01
  4.3128532e-01
 -2.4043444e-01
  1.6215101e-01
 -2.7927905e-01
 -1.5067442e-01
  4.8936242e-01
  2.8976318e-01
 -8.9701742e-01
  8.5670702e-02
 -6.6752988e-01
 -1.6959673e-01
  5.7516885e-01
  4.8129573e-02
 -4.3931454e-03
 -3.0133986e-01
 -3.3084041e-01
  4.4442648e-01
  2.5082600e-01
  7.7024716e-01
  1.9663510e-01
  6.2722754e-01
 -7.2326070e-01
  1.7031103e-01
  1.9111443e-02
 -5.1781416e-01
  1.9079599e-01
  6.6749316e-01
  8.5469407e-01
 -1.7563026e-01
 -2.0372850e-01
 -1.4991216e-01
 -9.9486560e-01
 -1.4715138e-01
 -1.8066585e-02
 -5.8586228e-01
 -1.0636188e-02
  1.0819210e+00
  3.0931093e-02
  5.3146571e-01
  1.9358355e-01
  3.3072335e-01
 -4.6958897e-01
  1.8407762e-01
 -5.4629976e-01
 -7.4466631e-02
 -4.4328216e-01
  3.2916144e-01
 -7.1460164e-01
 -2.0418307e-01
  2.9189938e-01
 -2.7802190e-01
 -4.2289239e-01
 -1.1928606e-01
 -1.5451400e-01
 -3.2082206e-01
 -5.5142410e-02
 -6.0743529e-01
  1.3932516e-01
 -1.1311916e-01
  4.5706880e-01
 -5.1990587e-01
  5.7121122e-01
  5.8204395e-01
 -3.5244349e-01
 -1.5746680e-01
 -1.8079683e-01
  6.5321118e-02
  4.1319397e-01
  3.8981777e-01
  2.4349308e-01
  6.9995630e-01
  7.7113587e-01
  6.3732974e-02
 -4.5487723e-01
  4.5591182e-01
 -5.1468241e-01
  3.0542201e-01
 -4.6315694e-01
 -3.2100457e-01
  2.8527948e-01
 -4.1770411e-01
 -4.9280725e-02
 -3.4191698e-01
 -2.3744158e-01
  3.5599685e-01
  2.3275653e-01
  1.6919351e-01
  1.3712144e-01
  8.5915786e-01
 -1.8229965e-02
 -3.1498450e-01
 -1.0471215e+00
 -8.9933500e-03
 -9.9068791e-02
 -1.4252253e-01
 -2.5683802e-01
  1.9669798e-01
  3.9624274e-01
 -7.6323760e-01
 -2.6973569e-01
  2.1252096e-01
  7.7908225e-02
 -3.3139232e-01
 -3.1831783e-01
  6.7080945e-02
  8.4571846e-02
 -2.5966188e-01
  5.5650705e-01
  3.8127962e-01
  2.9750589e-01
  3.4264830e-01
 -6.8066865e-01
  3.7072575e-01
  1.5614620e-01
  3.2110077e-01
 -2.8690258e-01
 -2.4559578e-01
 -9.2182761e-01
 -6.0896009e-01
 -3.6055523e-01
  2.1326409e-01
  1.8898448e-01
  5.0923228e-03
  2.2738576e-01
 -6.3036203e-01
 -2.8982520e-02
  2.6941863e-01
  2.7195343e-01
  5.6008738e-01
  5.2573174e-01
  2.0735684e-01
  9.1987634e-01
  1.3728847e-01
 -1.0721657e-01
 -1.7689896e-01
  2.8721410e-01
  6.4485192e-01
 -7.4469250e-01
  6.9720399e-01
  4.6953213e-01
 -3.7114024e-03
 -1.3494414e-01
 -1.7411411e-03
 -3.1825706e-02
 -3.9744136e-01
  4.4761997e-01
 -8.6386091e-01
  1.9896783e-02
  1.4839306e-02
 -4.7773349e-01
 -3.6022416e-01
 -3.8862623e-02
 -3.3030769e-01
 -2.8824446e-01
  2.9263067e-01
 -3.7504539e-01
 -3.8099539e-01
 -1.7789203e-01
 -9.8079288e-01
  8.5526459e-02
  6.3066465e-01
  6.5678276e-02
 -1.0300480e+00
 -4.6440306e-01
  2.3626566e-01
  4.3845046e-01
  6.9630200e-01
 -3.6511475e-01
  5.9386814e-01
  9.9734217e-02
 -1.8145894e-01
  1.0464340e-01
  7.7457473e-02
 -5.8032888e-01
 -1.3490883e-01
 -9.1674095e-01
  7.9229271e-01
 -4.5621669e-01
  7.7741843e-01
 -7.1397728e-01
  3.3943948e-01
 -2.1168247e-01
  5.1808572e-01
  6.1486524e-01
  9.4328707e-01
  5.5523860e-01
  5.0592536e-01
  1.0373714e+00
  1.9232282e-01
 -2.4878941e-02
 -3.2411584e-01
 -4.3192202e-01
  4.2344826e-01
  6.6896641e-01
 -2.7448392e-01
  6.3329935e-03
 -2.0462558e-01
  4.3130058e-01
 -2.1809667e-02
 -3.1372899e-01
 -6.9700235e-01
  7.3024243e-02
  2.1778391e-01
  4.3394819e-01
 -4.6818179e-01
  4.3435067e-01
 -6.1213952e-01
 -6.0679680e-01
 -3.0866182e-01
  6.5911287e-01
  2.0084706e-01
 -1.6234416e-01
  1.8737775e-01
  2.0140390e-01
 -4.5174333e-01
  5.1011872e-01
 -6.4876705e-01
  2.4114959e-01
  2.9369578e-01
  6.5495241e-01
 -5.6321228e-01
 -1.1245470e-01
  9.3405539e-01
 -1.3684359e-01
  3.5442013e-01
  8.2546067e-01
  6.4625695e-02
 -2.9922870e-01
  8.1816024e-01
 -8.5776573e-01
 -4.6285495e-01
  3.6432999e-01
 -8.5673578e-02
 -2.6924357e-01
  2.0621292e-01
  5.0484300e-01
 -3.9521907e-02
 -2.3366496e-02
  2.5095007e-01
  8.3900905e-01
  7.6568119e-02
 -1.1200064e-01
 -1.1274973e-01
 -2.8989226e-01
  5.3310621e-01
  3.1787124e-01
 -2.0772566e-01
  4.0070421e-01
 -6.4574188e-01
  5.0040734e-01
  1.1979416e-01
  1.0420234e-01
  1.8775353e-01
  2.8348464e-01
  9.1907728e-01
  6.9592261e-01
  2.8410599e-01
  5.7365477e-02
 -1.7071702e-01
 -4.6952528e-01
 -1.5422398e-02
 -3.4852451e-01
 -3.0642462e-01
  6.4665653e-02
  5.8031821e-01
 -4.3327802e-01
  1.5824528e-01
 -6.1663413e-01
 -3.5129431e-01
 -8.8338614e-01
 -2.0213252e-01
  4.9466261e-01
  7.1814287e-01
  1.5360780e-01
  9.0159935e-01
  6.5465078e-02
 -4.0359020e-01
  2.7204302e-01
  6.0173154e-01
  4.2043418e-01
 -1.1606835e-02
  4.8811710e-01
  4.8145172e-01
 -1.2301908e-01
  1.4838548e-01
 -5.7375193e-01
 -2.0496242e-01
 -1.9443782e-01
 -4.3571472e-01
  3.3890121e-03
  2.0714577e-01
 -2.7324277e-01
 -9.6270740e-01
 -2.1439064e-01
 -3.3181059e-01
  1.8595171e-01
  4.2634785e-01
 -6.0577792e-01
 -3.6743739e-01
  1.0148952e-01
  6.1015475e-01
 -2.7276951e-01
  1.2520048e-01
  1.1601123e-01
  3.5707805e-01
 -3.4237114e-01
 -5.1344085e-01
  4.4245988e-01
  5.6422621e-01
  6.4076111e-03
 -8.2366079e-02
 -1.5883175e-01
  1.9196562e-01
  1.9354880e-01
  4.4009805e-01
 -6.1335057e-01
 -1.2167774e-01
  5.7537329e-01
 -2.1085795e-02
 -7.4024385e-01
 -2.6667809e-01
 -2.5024980e-01
 -2.2085842e-01
 -2.0965078e-01
  4.4733068e-01
  2.2323452e-02
 -1.0928897e-01
 -8.4370732e-02
  5.3372091e-01
 -1.4692035e-01
 -4.0811402e-01
 -3.0508208e-01
  4.3017942e-01
  1.5354474e-01
 -1.4897695e-01
 -1.3863668e-01
 -5.9537715e-01
  9.6532702e-03
  6.6993833e-02
 -7.0092738e-02
 -2.0961073e-01
 -7.5579727e-01
 -1.6656573e-01
  4.6030767e-02
 -2.8228956e-01
 -3.5004860e-01
  1.8756357e-01
 -9.1297299e-02
  5.6452030e-01
  2.1226534e-01
  4.7295523e-01
  1.9891601e-02
 -3.3925277e-01
 -4.1334817e-01
  5.4728687e-01
  5.2410024e-01
  1.8352084e-02
  5.2253574e-02
 -2.6982337e-01
 -2.8751296e-01
  4.9792954e-01
 -5.2120489e-01
  1.9747899e-01
 -2.4783435e-01
  1.0660898e-01
  3.3168495e-01
  5.2314246e-01
  1.3757131e-01
 -2.1303347e-01
  7.9589850e-01
  5.0804591e-01
 -5.5538195e-01
 -1.9576888e-01
  3.6349088e-02
  5.0492889e-01
 -4.3216053e-01
  1.8398321e-01
  2.9857063e-01
  1.8242921e-01
 -3.8471833e-01
 -2.9927862e-01
 -2.9192704e-01
 -8.5839547e-02
 -1.1636937e-01
  2.2104907e-01
  9.7997680e-02
 -1.0814040e-01
  2.1645975e-01
 -2.3648402e-01
 -3.7542582e-03
 -1.3152885e-01
 -8.6075443e-01
 -6.0161775e-01
  2.9483423e-02
 -2.8215921e-01
  1.4558029e+00
 -6.7210108e-01
  1.2614982e-01
  7.5819361e-01
 -2.9737282e-01
  3.4267312e-01
 -5.4042846e-01
 -6.3150764e-02
  8.2297254e-01
  3.2780582e-01
 -2.4872273e-01
  5.9121478e-01
 -1.0689079e-01
  1.2170664e-01
  2.5670999e-01
  7.8788688e-03
  1.2622958e-01
  3.0841671e-02
 -3.6597240e-01
 -1.9214256e-01
 -2.2203375e-01
 -1.2921286e-01
  3.4405088e-01
  2.4851324e-01
 -2.9149678e-01
 -2.9626220e-01
 -1.2009158e-01
 -3.4756696e-01
 -9.6943401e-02
 -1.9691916e-01
 -5.1239562e-01
 -2.4913163e-01
  1.1619889e-01
 -5.1459178e-02
  7.4506462e-02
 -4.9631765e-01
 -1.2415361e-01
 -2.0431879e-01
  2.0561719e-02
 -5.2803522e-01
 -1.7758514e-01
 -8.4789252e-01
  1.3997915e-01
  5.7550773e-02
  3.7456492e-01
 -9.9170670e-02
  5.3288853e-01
 -6.3821292e-01
  3.4085459e-01
 -8.6246252e-01
 -5.2563900e-01
 -3.2602113e-01
 -4.4981673e-02
 -1.3133389e-01
  5.3743529e-01
 -2.3549822e-01
  6.1760825e-01
  3.9647810e-02
  6.1061345e-02
  1.2840115e-01
  4.1625294e-01
 -1.9032890e-02
 -7.1636456e-01
  1.6835095e-01
  1.4108707e-01
 -5.4349381e-01
  1.4049466e-01
 -2.6914620e-01
 -2.3651507e-02
  8.8043147e-01
  5.1229036e-01
 -3.2722524e-01
 -4.8093674e-01
 -2.2250739e-01
  4.3600947e-03
 -3.4144014e-01
  3.4577313e-01
  3.8455319e-01
 -5.9002900e-01
 -5.0422752e-01
 -3.1063265e-01
  3.6034077e-02
  4.0462539e-01
  3.0725971e-01
  4.8678046e-01
 -3.6692992e-01
  4.1498158e-02
  5.8471568e-02
  7.8463681e-02
  9.4516985e-02
 -2.6704201e-01
  4.1865945e-01
  6.6185933e-01
  1.9708569e-01
 -1.8910985e-01
 -4.4110276e-02
 -2.8424495e-01
  1.6680148e-01
 -6.5727460e-01
  9.7288564e-03
  1.7146635e-01
  7.9006284e-02
 -6.8386221e-01
  2.0894133e-01
 -6.8282568e-01
 -3.4792843e-01
 -8.7871991e-02
  3.2890683e-01
 -3.6328346e-01
 -1.6459081e-01
  3.8346100e-01
  1.9827391e-01
  7.9223454e-01
 -2.5892770e-01
  6.6024375e-01
 -1.0087113e-01
 -1.9429736e-01
 -7.4945664e-01
 -1.4801262e-01
 -3.4331051e-01
  2.1795803e-01
 -3.7255847e-01
  4.0675616e-01
  3.0323744e-01
 -6.7242807e-01
  5.9497738e-01
  4.4464907e-01
 -3.4731162e-01
 -1.1763369e-01
 -4.6324819e-01
 -5.7875848e-01
 -1.3550207e-02
  7.7093977e-01
 -1.5044698e-01
  1.3129170e-01
 -6.8650895e-01
 -6.1465824e-01
  3.5538018e-01
 -6.2000084e-01
  5.9934747e-01
 -6.3907933e-01
  3.9205259e-01
 -7.0952676e-02
  3.0405784e-01
 -3.7170716e-02
  2.3829772e-01
  1.5534845e-01
 -1.3611062e-01
 -5.2368456e-01
  6.6434699e-01
 -1.7245057e-01
  2.1756552e-01
  3.1345308e-01
  3.7274593e-01
 -3.2244873e-01
  4.3387151e-01
  3.2326081e-01
 -1.1326508e-01
  4.1511685e-02
  1.9649293e-01
  5.5228180e-01
 -1.8272127e-01
 -9.6226174e-01
  3.8873637e-01
  3.9922017e-01
  9.0313047e-02
 -4.9865511e-01
 -2.4942905e-02
 -3.1481889e-01
  1.0487840e+00
 -4.0815890e-01
 -2.7804208e-01
 -1.1074281e-01
  9.3901038e-01
  5.9749877e-01
  5.0281125e-01
 -5.5394626e-01
  1.7551494e-01
 -2.9778230e-01
  8.8433552e-01
 -8.0207884e-01
  6.2896335e-01
  6.4513713e-02
  2.0340282e-02
 -3.5971040e-01
  7.9739958e-02
  1.2807253e-01
 -8.7673612e-02
 -8.3913589e-01
  2.5406420e-01
 -8.4362048e-01
 -1.4565906e-01
  5.3184611e-01
 -7.0457250e-02
 -7.4674189e-04
 -2.6959473e-01
  1.1715364e-01
  4.5533478e-01
  2.0796524e-01
  1.5641515e-01
  4.2102214e-02
  5.9694886e-01
  5.0976551e-01
  5.4682183e-01
  8.6120206e-01
 -5.2481622e-02
 -7.8211582e-01
 -4.4101149e-01
 -4.4774809e-01
  9.6291924e-01
  5.2041405e-01
 -1.8694112e-01
 -3.8036913e-01
  3.0243254e-01
  1.3935620e-01
 -7.3988503e-01
  1.9798827e-01
  2.0363432e-01
 -1.3447455e-01
  2.2127257e-01
 -3.6025059e-01
  6.2855589e-01
 -4.7794849e-01
 -8.5818738e-02
 -9.4579160e-03
 -3.7258041e-01
 -2.1435782e-02
 -4.1626155e-01
  7.4337131e-01
 -1.0562348e-01
  5.3958789e-02
  3.1391370e-01
  2.7538240e-01
 -1.4336663e-01
  4.1451114e-01
  8.0928445e-02
  6.2497932e-01
 -3.7178043e-01
 -2.7010280e-01
 -7.2299707e-01
  6.4897180e-01
 -4.2555843e-02
  1.4270955e-01
 -1.2973297e-01
 -5.8704627e-01
 -1.7756501e-01
  2.4997717e-01
 -1.8488887e-01
 -4.8678246e-01
 -8.6322063e-01
  4.7717741e-01
  9.5677882e-02
 -1.4591604e-02
  2.2550353e-01
  3.0306321e-01
  5.6735569e-01
 -1.0187788e-01
 -2.6457566e-01
  9.7759441e-02
  4.6758515e-01
  8.0789155e-01
 -2.4071136e-01
  3.8510594e-01
 -8.4397942e-02
 -1.2734196e-01
  2.5987276e-01
 -3.1435987e-01
  1.7413494e-01
 -4.9698837e-02
  2.3440889e-01
 -2.6760846e-02
  4.1518620e-01
  1.5800619e-02
 -3.5091323e-01
 -7.0602167e-01
 -1.7689295e-01
  5.8003199e-01
 -1.3239950e-02
  9.1142550e-02
 -2.0991215e-01
 -3.9398536e-01
  4.5562991e-01
 -1.7644468e-01
 -2.5304312e-01
  6.0188496e-01
  4.7069603e-01
 -1.9850133e-01
 -4.8791000e-01
  8.1152722e-02
 -5.4047608e-01
 -1.9870842e-01
 -7.9673916e-02
 -5.1959276e-01
 -1.0780975e+00
  1.1193435e-01
 -3.0104423e-01
 -8.3062857e-02
  3.0388981e-01
 -5.6988053e-02
  1.7318186e-01
  7.3379916e-01
 -5.0342625e-01
 -1.0301521e-01
  5.4185277e-01
  2.1816653e-01
  2.1147075e-01
  6.9974136e-01
  7.6661363e-02
 -1.9482219e-01
 -6.6209859e-01
  3.4353700e-01
  3.2661670e-01
  4.3643549e-01
  1.2805142e-01
  2.8548419e-01
  4.2264324e-01
  7.1756786e-01
  6.0455596e-01
 -4.5810413e-01
 -3.8538438e-01
  2.4688548e-01
  2.3759028e-01
 -4.2601570e-01
 -3.3796111e-01
 -5.0879538e-01
  3.1658998e-01
  7.9912052e-02
 -9.7508751e-02
 -2.8137976e-01
 -1.2555851e-01
 -1.4375690e-01
  3.2831904e-01
  1.8505365e-01
 -1.0085352e-01
 -3.5407186e-01
 -1.3925031e-01
 -4.5503855e-01
 -4.3837154e-01
  7.0587301e-01
 -2.2345790e-01
 -1.4780914e-02
 -3.0551142e-01
  8.1757680e-02
  1.8598433e-01
 -2.8015554e-01
 -7.9656973e-02
  2.8958350e-01
 -7.3288310e-01
  2.0913415e-01
 -9.2095387e-01
  6.5175152e-01
 -1.1080397e-01
 -7.8155585e-02
  4.4618458e-01
 -5.2535921e-01
 -3.5249868e-01
  6.7572469e-01
  5.8826081e-02
  2.4176298e-01
 -3.6265680e-01
  5.0464833e-01
  3.6358762e-01
  4.7907642e-01
  1.2516174e-01
 -1.6328931e-01
  3.2350317e-02
 -2.7338454e-01
 -8.5167688e-01
  6.7562860e-01
  1.9229957e-01
  2.5171706e-01
 -5.5945307e-02
  1.5369309e-01
  7.4832284e-01
  5.9508033e-02
  5.6568754e-01
  6.6712105e-01
 -2.0579788e-01
 -1.0490190e+00
 -2.5807208e-01
 -5.7555550e-01
 -3.9619964e-01
  4.6124005e-01
 -1.6403966e-01
  9.7763889e-02
 -5.5280459e-01
  5.1616967e-02
 -8.8981822e-02
 -3.4949702e-01
 -9.2807662e-01
 -5.1637393e-01
  9.2338681e-02
  3.2049549e-01
 -7.0678705e-01
  2.6101744e-01
 -6.5591705e-01
  2.0478889e-01
 -8.1960753e-02
  1.3616267e-01
  2.0324549e-01
 -2.8080562e-01
 -5.8552086e-01
 -8.1113100e-01
 -3.1876218e-01
  1.4717269e-01
 -5.3255033e-01
  7.1751118e-01
  2.0255738e-01
  2.8420615e-01
 -6.8342343e-02
 -6.2324929e-01
  3.2159236e-01
  1.1390060e-01
 -3.3505747e-01
 -7.1960181e-01
 -7.1384239e-01
  7.9019845e-02
  3.2640213e-01
  2.5326607e-01
  2.7270111e-01
  1.0108101e-01
  5.5121386e-01
  2.9113498e-02
  6.0615802e-01
  2.7590293e-01
  7.0316665e-02
  4.9509138e-01
 -2.7478254e-01
  6.5757108e-01
  6.9283813e-01
 -1.2692067e-01
  3.6425266e-01
 -4.3993920e-01
 -4.5973054e-01
 -4.1388068e-01
 -7.9614526e-01
 -5.1305111e-02
  1.3081737e-02
 -2.4799861e-02
  2.0601040e-01
 -1.9203115e-01
  4.3538290e-01
 -8.4787652e-02
  2.1355864e-01
 -8.2856393e-01
 -2.0009379e-01
 -2.4102119e-01
 -4.9851108e-01
  4.8183039e-01
 -9.8658830e-02
  5.8551747e-01
 -1.0012698e-01
 -7.8667510e-01
 -5.5527747e-01
  2.3514578e-01
 -4.0946165e-01
  8.3326131e-01
 -3.3591110e-01
  4.1694254e-01
 -6.2305677e-01
  9.4095156e-02
  8.8866681e-02
 -3.9302862e-01
  7.7929474e-02
 -1.8765010e-01
 -4.8488624e-02
  3.5646549e-01
  5.6782341e-01
  5.0889897e-01
  1.1066774e-01
 -3.1340849e-01
  6.3210320e-01
 -3.7009698e-01
 -2.1263219e-01
  5.0519633e-01
 -3.7155962e-01
 -2.9443970e-01
  5.2357966e-01
  3.2980970e-01
 -3.1834522e-01
  2.5961170e-01
 -1.2465504e+00
 -1.7931564e-01
  3.2595962e-01
 -8.0467701e-02
  2.2493634e-01
 -2.0952493e-01
  7.5687009e-01
 -5.9290463e-01
  2.0783456e-01
 -2.7644423e-01
 -1.6359723e-01
 -8.9826696e-03
 -4.0299746e-01
 -6.5894616e-01
 -2.7750866e-02
 -5.4923576e-01
 -4.5294458e-01
 -2.9906139e-02
 -9.4624382e-01
  4.2485976e-01
  4.4587043e-01
 -4.1914073e-01
  1.4780623e-01
 -2.8158528e-01
  4.4275559e-03
  2.4435180e-01
 -4.8495889e-01
  4.4125333e-01
  4.3495062e-01
 -9.9935782e-01
 -8.8040596e-01
  1.0221935e-01
  1.6393851e-01
  3.7427050e-01
 -5.4921639e-01
  1.0535185e-01
 -2.6769090e-01
 -8.1148076e-01
 -7.4337709e-01
 -1.2135936e-01
  6.6647887e-02
 -6.6962850e-01
  7.4848399e-02
  3.5842928e-01
  1.8377598e-01
  2.8208345e-02
  8.4669018e-01
 -2.9892680e-01
 -5.1603687e-01
 -8.3727908e-01
 -2.5737941e-01
  2.1462493e-01
 -4.4606790e-01
  6.3193357e-01
 -7.0267819e-02
  7.3163605e-01
 -4.2897409e-01
 -2.5261346e-01
  9.0374804e-01
  1.2733124e-01
 -1.2167098e-01
  5.4228187e-01
  9.8538673e-01
  5.6488115e-02
  3.9580441e-01
  3.4655434e-01
  9.0231001e-01
  2.0810047e-01
 -5.0486416e-01
 -7.6051396e-01
 -1.5746880e-01
  6.1659396e-01
  3.0180743e-01
  4.6625847e-01
 -5.0965309e-01
  1.7425656e-01
 -3.4774992e-01
  1.3594550e-02
 -3.5869056e-01
  2.2259431e-02
  1.6064522e-01
 -7.9906732e-01
  7.4719310e-01
 -4.6150926e-01
 -2.5391066e-01
 -1.3548708e-01
  2.6373494e-01
 -1.4311722e-01
  1.1641507e-01
  2.6106030e-01
  3.5104212e-01
  7.7877611e-01
  1.6459116e-01
 -9.1927510e-01
 -1.2750316e-02
  5.9341788e-01
 -2.3638457e-01
  1.3253886e-01
 -2.2713056e-01
 -2.2150153e-01
  8.6218357e-02
 -7.2859667e-02
  5.0264621e-01
 -1.4456853e-01
 -2.1520571e-01
  1.1348268e-01
  4.5978075e-01
  4.0525019e-01
  1.8460178e-01
  5.8685386e-01
 -3.6183618e-02
  5.4990065e-01
 -1.6205543e-01
 -7.3003042e-01
  2.6917869e-01
  2.7770987e-01
 -4.1464460e-01
 -5.3306234e-01
  7.7546164e-02
 -6.9852602e-01
 -4.8939785e-01
 -1.4660396e-01
  3.2754669e-01
  3.5793597e-01
  3.4072539e-01
  3.0732149e-01
  5.8301848e-01
 -3.6131939e-01
 -2.4856101e-01
  5.7231796e-01
 -3.9120153e-01
 -6.3037235e-01
 -1.6033903e-02
 -3.2472625e-01
 -8.9025193e-01
 -5.7740396e-01
 -6.0781157e-01
  3.8674015e-01
  4.6905559e-01
 -3.9821064e-01
  3.5949051e-01
  4.4942188e-01
 -6.1250702e-02
 -2.5695240e-01
 -6.8157238e-01
  2.0463142e-01
 -5.3844643e-01
 -3.3134528e-02
 -1.1696095e-01
 -3.1989637e-01
 -4.0882951e-01
 -3.4552777e-01
  4.9377656e-01
 -5.3084910e-01
 -9.2226130e-01
  1.6887984e-01
 -3.2405064e-01
  6.3277704e-01
  1.2561651e-01
  7.4908358e-01
  1.8188034e-01
  2.3482674e-01
  8.6003169e-02
 -2.8683431e-02
 -4.6687433e-01
  1.7502853e-01
 -9.6605337e-01
 -5.5665439e-01
 -7.9905719e-01
 -2.5715408e-01
 -1.6750383e-01
 -6.5564382e-01
 -4.1512966e-01
  8.8756245e-01
 -6.5921462e-01
  6.0425872e-01
 -5.7782871e-01
 -1.9064924e-01
 -3.0295658e-01
  7.2138536e-01
 -5.2412555e-02
 -5.1608241e-01
 -2.2453031e-01
  4.2030305e-01
  3.6343071e-01
  7.7168599e-02
  1.6943336e-01
  2.6226286e-02
 -5.8912784e-01
  6.2998748e-01
 -1.1541739e-02
 -9.8907761e-02
 -5.0201797e-01
  1.0304557e+00
 -2.0875618e-01
 -5.9317344e-01
  3.1870860e-01
 -1.8877041e-01
  2.6475692e-01
  1.8979767e-01
  1.1646885e+00
  5.4075062e-01
  6.6536564e-01
  3.1520954e-01
 -2.2998372e-01
 -5.8801419e-01
  3.1210914e-01
  2.5397730e-01
 -2.4696492e-02
 -4.7754890e-01
 -4.5348912e-01
 -8.4245610e-01
 -2.9662314e-01
  1.5493658e-01
  3.9997333e-01
  6.3910115e-01
 -1.0815578e+00
 -1.0609443e-01
 -2.3943244e-01
 -5.5816047e-02
  4.3250903e-02
  1.1417453e-01
  4.1834551e-01
  4.3452513e-01
  3.6066198e-01
  4.9209607e-01
  7.4571185e-03
 -1.0307592e-01
  2.3068477e-01
  2.7556199e-01
 -2.7524361e-01
  5.8073115e-01
  4.4386229e-01
  2.1180661e-01
 -2.3624063e-01
 -7.7723956e-01
  2.7992168e-01
  3.8670728e-01
 -5.6114566e-01
 -3.8198802e-01
 -4.8615146e-01
  1.8893823e-01
  1.2596165e-01
 -1.3712724e-01
 -4.3631846e-01
 -6.9645718e-02
 -5.7044727e-01
 -1.4626423e-01
  4.2838000e-02
 -1.1540835e-01
 -6.6091865e-01
  3.3295825e-03
  8.7541729e-01
 -4.4769630e-01
 -2.0922551e-01
  5.3150135e-01
  4.9188152e-01
 -3.0550620e-01
 -2.1899708e-01
 -4.6707031e-01
 -4.9703002e-01
 -3.1305924e-02
 -1.4897239e-01
  6.2611610e-01
 -6.8939155e-01
 -1.0969883e-01
  5.3152535e-02
  2.1669941e-01
 -5.3953135e-01
  1.4807960e-01
 -6.2859595e-01
  9.9056803e-02
  5.3369963e-01
  5.6194115e-01
 -5.5339426e-02
  2.6383042e-01
 -8.1918798e-02
  3.8078877e-01
  1.3535079e-01
 -1.5088420e-01
  4.1084045e-01
  6.1175447e-02
  5.5075264e-01
 -5.7562109e-02
  2.1961616e-01
  2.0653675e-01
  3.1979674e-01
 -5.1765960e-01
  7.2275710e-01
 -3.3204082e-01
  2.7224272e-02
  3.3935797e-01
  1.3296252e-01
  7.5929332e-01
  1.9547281e-01
  7.1213108e-01
  1.7336507e-01
  5.0293958e-01
 -5.6065923e-01
  4.2167526e-01
 -2.4637501e-01
 -3.9542949e-01
  3.2552165e-01
 -2.2837946e-01
  3.5721794e-01
  3.1777915e-01
  7.8201957e-02
  7.5679190e-02
 -2.8430015e-01
 -1.9638152e-01
  1.8600099e-01
 -1.8504930e-01
  1.4267635e-01
 -4.4620529e-01
  9.5259741e-02
  2.0522986e-01
 -2.0309006e-01
 -2.5966346e-02
 -1.1941652e+00
  6.1193353e-01
 -1.1208511e-01
 -1.6378857e-01
  8.5356510e-01
  5.1549500e-01
  5.9315622e-01
  7.2467589e-01
 -6.3679165e-01
  8.3084658e-02
 -6.8515229e-01
 -5.0982749e-01
 -5.9376997e-01
 -8.1016821e-01
  2.5644004e-01
  1.0544129e-02
  1.7223369e-01
 -9.3371570e-03
 -5.0611550e-01
 -2.8771394e-01
  5.2997038e-02
 -1.9226119e-01
  3.7336183e-01
 -2.9570557e-02
 -1.0397910e+00
  5.4990217e-02
 -4.4666699e-01
  5.8451933e-01
  3.3124533e-01
 -1.6798326e-01
  3.4357947e-01
 -2.7110177e-01
 -7.2854534e-03
  7.0621490e-02
 -7.6732248e-01
 -6.0887247e-01
  4.8461068e-01
 -4.4036338e-01
  8.1879981e-02
 -5.6139898e-02
  1.1844795e-01
 -5.6746709e-01
 -9.2060089e-01
  6.6419989e-02
 -4.7966003e-02
  1.8907067e-01
  1.2133244e-01
  6.2968969e-01
 -6.7738837e-01
 -8.8688362e-01
  4.1518775e-01
  3.9439195e-01
 -7.1418211e-02
  9.4183832e-02
  1.7206496e-01
  7.8144372e-01
 -1.3113965e-01
 -4.4547814e-01
 -4.8440808e-01
  2.6990539e-01
 -1.3437577e-01
  3.1276876e-01
  1.0305307e-01
 -2.4326751e-01
  7.2192085e-01
 -5.2178574e-01
 -2.5532380e-02
 -2.6969686e-03
  9.2263043e-01
  3.0984443e-01
  2.5622109e-01
  4.0612635e-01
  1.3576338e-01
 -4.5169502e-02
 -3.4094822e-01
 -4.5737946e-01
 -4.8513323e-01
 -1.8288401e-01
 -2.7925223e-01
 -1.2194756e-01
  4.2713666e-01
 -3.2473457e-01
  5.4760736e-01
  2.0491168e-02
 -4.8746109e-01
  1.6799566e-01
  8.4147263e-01
  3.4319244e-02
  7.6124519e-01
  1.5936095e-01
 -1.4830135e-01
 -7.0498325e-02
  4.7987044e-02
 -9.2751160e-02
 -3.1349438e-01
  7.5259745e-02
 -5.8328640e-01
  3.6745793e-01
  4.4678992e-01
  8.3888257e-01
 -4.0369076e-01
  5.9762478e-02
  2.2378018e-01
 -7.1636689e-01
 -3.3998597e-01
  6.0654163e-01
 -7.4942797e-02
 -4.2258196e-02
 -2.4059626e-01
  5.9169942e-01
 -3.4568137e-01
 -3.9907700e-01
  2.9090172e-01
  6.5262640e-01
 -2.0236254e-01
  4.3610078e-01
  4.9840845e-02
 -7.6028216e-01
  5.4741615e-01
  8.0312550e-02
 -2.6870272e-01
  4.4113374e-01
  8.5581779e-02
 -4.6963912e-01
  3.9355245e-01
  3.5222483e-01
  9.9601373e-02
 -7.8226066e-01
 -2.2811218e-01
 -2.2295988e-01
 -6.6576016e-01
  2.0004851e-01
 -4.0444961e-01
  1.0607302e+00
  5.4920882e-01
  1.1482449e-01
 -1.8596070e-01
 -3.2138336e-01
 -8.0554104e-01
 -1.8538058e-01
  2.0257959e-01
 -1.8382651e-01
 -1.8403451e-01
  4.6512470e-01
  6.1839128e-01
  4.3824804e-01
  7.1695372e-02
  5.9822661e-01
  3.7344721e-01
  6.1841840e-01
 -7.1571606e-01
 -5.2073711e-01
  6.2698722e-02
 -8.6120105e-01
  7.0109844e-01
 -1.4905651e-01
  2.1971023e-01
  5.0999391e-01
  2.8466934e-01
  8.1740752e-02
 -1.2299880e-02
 -2.9983938e-02
  1.2700416e-01
 -2.9979225e-02
 -5.3579390e-01
  1.2398888e+00
  3.0066636e-01
  5.2833760e-01
 -1.3588426e-01
  1.2295755e-01
  4.1850787e-01
 -3.4773615e-01
 -2.6454666e-01
  6.9578916e-01
 -7.2758198e-02
 -7.2323680e-02
  4.4430353e-02
  2.4158308e-01
  6.7128778e-01
  2.4750268e-01
  3.4961784e-01
 -9.4928220e-02
 -1.0876830e-01
 -2.4242891e-01
 -5.6174898e-01
 -4.5022944e-01
 -8.7639612e-01
  3.2285750e-01
 -5.8148128e-01
 -4.3138564e-02
 -2.3323970e-01
 -6.3502640e-01
 -9.4503947e-02
  1.6028170e-01
  2.2699685e-01
 -4.0023249e-01
 -4.0809500e-01
  3.2698548e-01
  4.5697880e-01
  3.2521531e-02
  3.1827378e-01
  4.4674480e-01
  1.0759459e-01
 -2.2916584e-01
  2.4763447e-01
  3.9178273e-01
  1.4513449e-01
  3.4265167e-01
 -8.2879215e-01
  8.2347286e-01
  9.2357025e-02
 -2.7928486e-01
  3.8044354e-01
 -6.5623713e-01
 -1.0531211e+00
 -7.9182947e-01
  8.5991912e-02
 -2.1411449e-01
  4.5027457e-02
 -7.6867059e-02
  2.5025454e-01
  4.9926221e-01
 -7.1296200e-02
 -1.2153903e-01
 -1.8826127e-01
  7.2323555e-01
 -2.3905063e-01
  4.3509424e-01
  3.9613712e-01
  1.0053034e+00
 -1.5977688e-01
  4.3009508e-01
 -2.4904187e-01
  7.5088471e-01
 -3.3626348e-01
  8.0384678e-01
  1.0045758e-01
  6.0158528e-02
  4.2350465e-01
  4.0450561e-01
 -2.7581385e-01
  4.6475090e-02
  3.1483680e-01
 -5.6314921e-01
 -8.3872778e-03
 -9.0087011e-02
  1.2334983e-01
  4.2084867e-01
 -6.1745352e-01
 -7.4408215e-01
  4.1108933e-01
 -4.1785401e-01
  9.5385182e-01
  4.1720000e-01
 -2.3002243e-01
 -2.7121735e-01
  1.8444039e-01
  6.5232742e-01
 -1.0735456e-01
 -1.7716363e-02
 -2.5727126e-01
 -2.4496280e-01
  7.0140159e-01
  4.2786080e-01
 -1.2167990e-01
  2.8752106e-01
  4.4924715e-01
  7.1315736e-01
  2.8881788e-01
  8.5187867e-02
  1.0875931e-01
  1.1670978e-01
  4.9912214e-01
 -2.2710072e-01
  1.2950666e-01
  3.7175328e-01
  1.8255484e-01
  8.8794678e-01
  4.1529197e-01
 -4.6797708e-01
 -4.4142193e-01
 -2.4818036e-01
 -5.0191545e-01
 -8.9504972e-02
 -8.9726448e-02
  2.9607004e-01
  3.3856249e-01
  6.6726243e-01
  2.0745285e-03
 -1.1162215e-01
 -1.8519080e-01
  3.4238523e-01
 -8.6138785e-01
 -4.4863975e-01
  5.8703691e-01
 -4.0223968e-01
 -4.9832469e-01
  1.8937090e-01
  2.5863925e-01
 -4.7000265e-01
 -8.9476824e-01
  1.2587577e-01
 -1.3203512e-01
 -1.2073275e-02
  7.0308402e-02
 -2.4187921e-01
 -3.7910897e-01
  5.2775747e-01
 -2.2607180e-01
  3.6015445e-01
  4.2898244e-01
  4.7009262e-01
  2.0047528e-01
  2.8833890e-02
 -2.1742103e-01
  1.1859749e-01
  2.5947058e-01
 -1.0069934e-01
 -7.9482846e-02
 -2.6631691e-03
  4.2749085e-02
 -4.2305729e-01
  4.0012556e-01
  7.6376535e-02
 -5.1296276e-01
 -5.9867837e-02
  2.1140198e-01
 -6.0241365e-01
  4.4673190e-02
 -4.5793432e-01
  3.5889289e-01
 -4.8278549e-01
 -3.6479887e-02
 -3.8166207e-01
  9.9741377e-02
 -5.7306010e-01
 -3.3383501e-01
  2.5397813e-01
  3.6498195e-01
 -4.9760845e-01
 -9.5833868e-02
  6.2144101e-01
 -2.3346597e-01
 -6.9166668e-02
 -3.0841881e-01
  1.0330389e+00
 -4.9445760e-01
 -2.5399435e-01
 -8.8968021e-01
 -2.5740445e-01
  1.2664708e-01
 -1.4032979e+00
 -8.3498567e-01
 -6.4882946e-01
 -6.6865429e-02
 -3.2898211e-01
  3.1493384e-01
 -2.2676684e-01
 -3.5845891e-02
 -1.6638279e-02
 -1.6209336e-01
  1.0734437e-01
 -3.0008462e-01
  6.8547383e-02
 -6.7011774e-02
 -3.1059426e-01
 -7.8110939e-01
 -4.3861844e-02
  1.2432226e-01
  8.1044751e-01
  1.9187869e-01
 -2.1167958e-01
  6.9023222e-03
 -1.9009688e-01
 -5.5321753e-01
  1.3014580e-01
 -3.0944869e-02
 -5.0779104e-01
  3.3663821e-01
  2.5273332e-01
  4.8909381e-02
 -5.3078753e-01
  5.0083876e-01
  1.2645695e-01
  2.6974529e-01
  3.5774380e-01
  5.7634056e-01
  2.3812839e-01
  1.1669672e+00
  2.5418672e-01
 -6.6532075e-01
 -2.7147925e-01
 -3.2489327e-01
 -3.7131947e-01
 -2.3381516e-01
 -8.5481673e-02
  1.7555422e-01
  6.3281465e-01
  1.9601484e-01
  8.0278605e-01
  6.8976641e-02
  5.5134785e-01
  6.1875564e-01
 -2.5450161e-01
 -2.8205910e-01
  4.5711160e-01
  2.8485689e-01
  4.9597698e-01
 -2.5032201e-01
 -1.6621718e-01
  4.5058203e-01
 -7.7312872e-02
  2.7167362e-01
  3.8303621e-03
 -9.0004250e-02
  1.1883262e-01
 -4.0613821e-01
 -6.4639884e-01
  2.0912094e-01
 -3.5756376e-01
 -2.6707643e-01
 -1.9536209e-01
 -5.3605574e-01
 -7.0448208e-01
 -1.0819889e-01
  1.5161610e-01
 -5.6197762e-01
  4.6453810e-01
 -1.9010413e-01
 -8.7086785e-01
 -8.5040748e-02
 -4.8829406e-01
 -5.1990169e-01
  8.3669031e-01
  4.2080265e-01
  1.4248854e-01
 -5.3695542e-01
  4.2711306e-01
 -2.1485120e-02
 -3.6198847e-02
 -3.2155359e-01
 -2.5764027e-01
 -3.6428541e-01
  1.2831268e-01
 -1.0073823e+00
 -3.3461526e-01
 -4.3903354e-01
  6.8536013e-01
 -4.9503630e-01
 -1.6893587e-01
 -9.1078676e-02
  1.3628507e-01
  5.4848057e-01
  1.3532336e+00
 -6.7375697e-02
  2.3118743e-01
 -1.0012126e-02
 -2.1581316e-01
 -5.0072610e-01
  2.6674190e-01
 -3.4899676e-01
  3.8969296e-01
  4.7738028e-01
 -2.0859821e-01
 -3.0022255e-01
 -6.5345049e-01
  7.3411268e-01
  4.4874442e-01
  2.5948614e-01
  6.6813850e-01
 -1.9097006e-01
 -2.2485518e-01
  2.5096368e-02
 -3.8728312e-02
  5.2235228e-01
 -1.1473583e+00
  2.6401135e-01
 -9.9238746e-02
 -8.2566082e-02
 -1.0288689e-01
  6.6237241e-02
 -9.2199540e-01
  5.0701362e-01
  2.7613994e-01
 -1.1148856e+00
  5.7403755e-01
 -4.5533448e-01
  1.5878446e-01
 -4.8930186e-01
  2.8444512e-02
  4.2140566e-02
 -1.5286747e-01
 -2.9408377e-01
 -9.9280328e-01
  3.9265495e-02
 -3.4808230e-01
  3.1961847e-02
 -4.1614026e-01
 -4.8023415e-01
  4.5273596e-01
  1.6425465e-01
 -6.7992717e-01
 -5.7772315e-01
  8.2725102e-01
 -3.2330516e-01
  3.6972672e-01
 -2.1832091e-01
  8.3824861e-01
 -1.5061784e-01
  7.4890155e-01
 -3.9898008e-01
 -3.2996958e-01
  5.5104338e-02
 -2.9016685e-01
  2.3098058e-01
 -7.9375893e-01
 -4.9366263e-01
 -6.7853183e-01
  3.9011133e-01
 -2.5464576e-01
  4.3124667e-01
 -1.7381181e-01
  3.0681831e-01
  1.5691843e-02
  1.0053502e-01
  7.4971974e-01
  2.7530524e-01
  2.0715646e-01
  3.1629208e-01
 -1.3112971e-01
  1.0412194e-01
  3.1938347e-01
 -3.6913183e-01
 -8.7527746e-01
 -8.2953289e-02
 -6.5287960e-01
 -4.5310255e-02
  8.3575726e-01
 -3.9283460e-01
 -4.5079082e-01
 -1.3614963e-01
 -2.5838733e-02
  5.8063459e-01
 -1.6727085e-01
 -2.9360980e-01
 -8.5892928e-01
 -8.1472188e-02
  1.9771554e-01
  3.3451295e-01
  2.8818989e-01
 -9.4356611e-03
  1.3986159e-02
  4.1887307e-01
  4.9486749e-02
  2.8589553e-01
 -4.3126354e-01
 -1.3334483e-01
 -8.5834220e-02
  2.1015349e-01
  1.4162499e-01
 -5.9175719e-02
 -1.2768298e-01
  1.1497738e+00
 -1.4675379e-02
 -7.8485280e-01
  1.9333246e-01
  9.0199970e-02
 -5.4715002e-01
  2.2099401e-01
  3.3857223e-01
 -1.4189813e-01
  6.0996270e-01
 -1.7579842e-01
  1.9485450e-01
 -2.5997162e-01
  5.9835691e-02
  8.7247685e-02
  2.4313906e-01
 -3.5458195e-01
  8.5966730e-01
 -2.0809025e-02
  1.2019087e-01
  6.8827522e-01
 -3.7823552e-01
 -2.3944800e-01
  7.0938087e-01
  8.1627595e-01
 -3.7759066e-01
  3.1028873e-01
  1.3744198e-02
 -1.2297799e-01
 -4.2834446e-01
  5.6687391e-01
 -1.1414249e-01
  1.3122609e-01
  1.0958782e+00
  2.0896156e-01
  1.7965521e-01
  6.4882316e-02
  3.9207466e-02
 -5.5601351e-02
 -8.5917884e-01
 -3.7800848e-01
 -3.6014283e-01
  1.2996155e-01
  2.5006607e-01
  1.2281358e-02
  2.0366700e-01
  2.9527965e-01
 -4.4874999e-01
 -3.2765478e-01
 -5.5814701e-01
  3.9198220e-01
  4.6794407e-02
  3.9603040e-01
  6.4352679e-01
 -2.6942098e-01
  4.1493684e-01
 -5.3386584e-02
 -5.7099724e-01
 -3.4114182e-01
 -7.9424065e-01
  5.5729306e-01
 -4.8810881e-01
 -3.2893670e-01
  1.1741386e-01
 -5.3502488e-01
 -3.3655286e-01
  2.2736281e-01
 -1.3579237e-01
  1.8027127e-01
  2.9915220e-01
  8.1864160e-01
  1.7783862e-02
  6.7640811e-02
 -1.1693509e-01
  2.0576334e-01
  1.8408178e-01
 -4.9435037e-01
 -6.9648629e-01
 -4.7147962e-01
 -5.3159559e-01
  4.1838190e-01
  1.1943026e-01
  5.8078593e-01
  5.7072806e-01
  6.7203742e-01
 -2.8817734e-01
 -4.0980828e-01
 -5.2976298e-01
  5.3390431e-01
  6.2753344e-01
 -3.4524426e-01
 -1.0396960e+00
  3.5889056e-02
  5.2852601e-01
  2.9471120e-01
  3.1824952e-01
  1.9288065e-01
 -2.6210886e-01
  1.6301793e-01
 -8.6801791e-01
  3.3358297e-01
 -2.9205801e-03
 -6.2009031e-01
  1.1039603e-01
  7.9891384e-01
 -9.1465974e-01
 -1.9416323e-01
  8.3648306e-01
 -3.6481690e-01
 -3.3581129e-01
 -2.3506881e-01
  3.5950777e-01
  1.0242899e-01
 -9.2799291e-02
 -1.1465058e-02
  8.7626994e-01
 -7.2789770e-01
  2.2549394e-01
  9.4243330e-01
  1.4577040e-01
 -5.2038085e-01
 -9.3666919e-02
 -1.7016135e-02
  1.9421400e-01
 -2.9517251e-01
  1.4059359e-01
  7.6347327e-01
 -1.6780820e-01
  5.3557110e-01
 -3.6006975e-01
  5.2173334e-01
  1.8671086e-01
 -3.3253923e-02
  2.6898184e-01
  2.3372859e-01
 -2.8530538e-01
  3.2663047e-01
  4.5588914e-02
 -3.5571063e-01
  7.2548568e-01
 -7.6397318e-01
 -2.4601142e-01
  2.1342486e-01
  2.6029792e-01
 -2.7902748e-02
 -4.1318005e-01
  5.1525456e-01
 -8.5198298e-02
  4.9095911e-01
  1.0208245e-01
  6.8065494e-02
  7.1995401e-01
 -1.5595165e-01
  8.2261868e-02
 -2.1893419e-01
  3.8771963e-01
  4.1853541e-01
  5.5177164e-01
  6.1311156e-02
 -5.8816427e-01
  2.2890201e-01
  1.5760356e-01
 -2.7278686e-01
 -3.2514066e-01
 -4.7758460e-01
 -3.5941473e-01
 -1.8549137e-01
 -1.2522800e+00
 -5.2262545e-01
 -6.9812763e-01
  1.7669000e-01
 -1.7653801e-02
  3.2469398e-01
  2.5802359e-02
 -2.9435453e-01
 -4.0149319e-01
 -3.6835209e-01
  3.4100300e-01
 -5.1018625e-02
  3.9213130e-01
  8.6224580e-01
  7.5327748e-01
 -4.0679687e-01
 -2.0118968e-01
 -2.0317073e-01
  6.7962892e-02
 -5.6459796e-01
 -5.8100832e-01
 -8.5478377e-01
 -4.1088633e-02
  1.0260010e+00
  2.1970779e-01
  1.0686564e-01
 -9.0570414e-01
  6.3799632e-01
 -3.7123868e-01
  2.1476433e-01
 -5.2006626e-01
  1.1850046e-01
 -6.9473702e-01
 -3.3415705e-01
  2.5229025e-01
  5.5141097e-01
  1.3862784e-01
  2.5383511e-01
  3.6986244e-01
  6.7727768e-01
  9.2311436e-01
 -2.5993657e-01
 -1.4984471e-01
 -1.7945062e-02
  6.5954173e-01
  2.4423607e-01
  4.7990170e-01
  6.2982178e-01
  3.5082623e-01
  4.5766377e-01
  7.4439928e-02
  1.0615788e-01
  1.3629246e-01
  4.4748968e-01
 -4.3272790e-01
  5.3812629e-01
 -2.8096458e-01
 -6.7000520e-01
  1.2776588e+00
  4.0717602e-01
 -2.0676517e-01
  1.6644266e-01
  1.5374674e-01
 -3.1839050e-02
  9.8425686e-02
 -2.1265905e-01
 -3.6425298e-01
 -4.2650524e-01
 -1.2393302e-01
  2.7062833e-01
  2.7502918e-01
  3.3437517e-01
 -1.0138415e+00
  4.2493954e-01
 -3.3704951e-01
 -8.0319420e-02
  4.3430930e-01
  9.6760774e-01
 -9.8862165e-01
 -5.5635512e-01
 -5.3825641e-01
 -4.8029339e-01
  4.0383199e-01
 -3.7025288e-02
 -1.0902814e-01
  6.6453618e-01
 -2.6721644e-01
  5.5122060e-01
 -5.7503211e-01
  6.5913165e-01
 -8.1159645e-01
  2.7566314e-01
  4.7287419e-01
 -8.7589973e-01
  7.0013875e-01
  2.8753811e-01
 -7.3739672e-01
 -4.3496856e-01
  4.2197803e-01
 -8.0429715e-01
 -1.4173731e-01
  1.0590018e+00
 -2.3742031e-01
 -5.2947283e-01
 -2.8052026e-01
 -1.9735149e-01
  1.8045673e-01
 -9.7873044e-01
 -2.9167059e-01
  3.8877040e-01
 -1.1146808e-01
  2.9603022e-01
 -4.2047936e-01
  3.4700459e-01
 -2.0097373e-01
  1.3730137e+00
  3.9390483e-01
  7.6824415e-01
  5.0481105e-01
 -4.0003374e-02
  9.1151798e-01
 -4.6870047e-01
  1.2934393e-01
 -2.2853279e-01
 -6.8766803e-01
  1.2810266e-01
 -2.5584546e-01
 -3.8050854e-01
 -3.9232999e-01
  5.3207392e-01
 -4.5114723e-01
  4.3274355e-01
 -5.6278247e-01
 -6.8814379e-01
  9.1474839e-02
 -8.6936229e-01
 -4.4999677e-01
 -5.6897193e-01
  6.5194517e-02
 -3.1248698e-01
  5.8611733e-01
 -4.2862582e-01
 -4.9804890e-01
 -4.3473500e-01
 -6.7470670e-02
 -3.8365632e-01
 -4.1290179e-01
  2.6746452e-01
 -1.0622456e-01
 -2.2874759e-01
 -2.1433610e-01
 -2.2897518e-01
  1.1839490e-01
 -8.8140672e-01
 -3.6887330e-01
 -5.0859922e-01
  4.4295838e-01
 -5.3628045e-01
 -1.7351155e-01
 -7.0716673e-01
  2.6535764e-01
  1.1828831e+00
 -5.6960446e-01
  5.6155169e-01
  8.1653722e-02
  2.0633289e-01
 -2.2757438e-01
 -1.5986502e-01
  6.8200177e-01
  1.0845844e-01
 -4.1985601e-01
  2.6708218e-01
 -1.2690671e-01
  1.5549624e-01
 -4.4668481e-01
  2.1906517e-01
 -1.7256993e-01
 -5.0781465e-01
  6.3723737e-01
  1.2380556e-01
 -1.0001061e+00
 -4.1180387e-01
 -3.7320650e-01
  1.5483639e-01
 -1.4597154e-01
  5.9309021e-02
  1.4332390e-01
 -1.7188294e-01
 -2.9528639e-01
  5.2220273e-01
 -8.2253683e-01
  1.4740594e-02
 -6.0248864e-01
  4.6158472e-01
 -4.8225644e-01
 -6.3090533e-01
  9.5736164e-01
 -7.2846812e-01
 -2.3648131e-01
  1.5998609e-02
  3.2242149e-02
  1.9419989e-01
 -5.3932023e-01
 -3.6516905e-01
 -5.2927607e-01
  4.2254560e-02
 -8.2945889e-01
 -7.6936483e-03
  5.4567605e-01
  5.4370213e-01
  6.2063950e-01
 -6.2195712e-01
  3.1630823e-01
  6.6995502e-02
 -7.0272940e-01
  1.6660261e-01
 -6.3852556e-02
  1.9629560e-03
 -2.3294255e-02
 -1.1380357e+00
 -3.6681479e-01
 -7.5014368e-02
  1.6893338e-01
 -1.1275860e-01
 -4.7414586e-01
 -6.5463710e-01
 -3.0629593e-01
  8.2165462e-01
  2.9549474e-01
  1.0680837e-01
 -2.0561154e-01
  6.6192156e-01
 -2.4826810e-01
  7.5112678e-02
 -9.4302520e-02
 -6.7299969e-02
 -1.2135328e+00
  4.0426207e-01
 -3.5698274e-01
  1.2489888e-01
 -2.5240466e-01
 -4.3911427e-02
  8.2812235e-03
  4.6697295e-01
  2.1956155e-01
 -5.9546685e-01
  5.1728731e-01
 -8.8544764e-02
  1.0374303e-01
 -1.2264083e-01
  9.1133147e-01
  1.2912613e-01
  5.4960877e-02
 -6.1895847e-01
 -3.8398409e-01
  1.5774295e-01
  1.1172252e-01
 -2.0671444e-01
  4.1510606e-01
  2.5256872e-01
  4.1407007e-01
  3.9354885e-01
 -6.8842754e-02
  7.4423707e-01
 -4.3841794e-01
  4.1813724e-02
 -3.0844256e-01
 -5.8621740e-01
  3.5690391e-01
  3.7909800e-01
  9.7306573e-01
 -2.7637702e-01
  1.2365825e-01
 -9.0328947e-02
 -3.3240983e-01
  3.4484845e-01
 -4.9512517e-01
 -1.1074153e-01
 -3.7450728e-01
 -1.4310807e-02
 -1.4368127e-01
 -2.2792086e-01
 -4.2004604e-02
 -9.1292369e-01
 -8.5155450e-02
  3.4634054e-02
 -3.5309085e-01
  4.6105099e-01
  8.6103708e-02
  2.1247387e-01
  1.3118484e+00
 -8.4057540e-01
 -2.9776865e-01
  1.1727917e-01
 -4.7217974e-01
  7.6531595e-01
 -1.5891385e-01
 -5.2586776e-01
  9.7977173e-01
 -5.1922774e-01
 -3.0179471e-01
  3.3214815e-02
 -8.3350652e-01
 -1.1221522e-01
 -8.7902373e-01
 -8.3265817e-01
 -5.4637098e-01
 -1.0961746e-01
  1.7941333e-02
 -8.6763203e-02
 -2.0063159e-01
 -3.3925772e-01
 -2.7355334e-01
 -2.8156888e-01
  5.1344499e-02
  1.7196190e-01
 -2.4508415e-01
  2.4136400e-01
  2.8220958e-01
  1.8056248e-01
  5.9864378e-01
 -9.6177244e-01
  4.9120184e-02
  6.1391419e-01
  3.4733850e-01
 -3.0517131e-02
 -6.1345232e-01
  3.7122577e-01
 -3.1421515e-01
  5.1093400e-02
 -2.1372561e-01
  3.6737043e-01
 -1.1282834e-01
 -8.0151600e-01
 -9.4370818e-01
 -4.6610624e-01
  6.1546034e-01
  2.5948942e-01
 -5.0515026e-01
 -1.9309266e-01
  7.2114557e-01
 -4.2930281e-01
  5.2388418e-02
 -1.7935291e-01
  2.1022689e-01
  1.0554031e-01
  1.0792971e-01
 -6.3814873e-01
  3.7937978e-01
 -4.6092057e-01
 -5.6907159e-01
  1.2868688e-02
  2.4322255e-01
  1.7288211e-01
  1.3011532e-01
  1.7848133e-01
  8.3404288e-02
 -6.2488687e-01
 -1.4302999e-01
  2.7667648e-01
 -1.5539892e-02
  1.2073774e+00
  1.5136203e-01
 -8.3046621e-01
  2.7657789e-01
  4.1477501e-02
  3.7719780e-01
 -4.4812822e-01
 -5.5700117e-01
 -4.2847824e-01
 -2.3485565e-01
 -3.4368718e-01
  4.9384260e-01
  2.6690239e-01
  5.0454760e-01
  2.5198764e-01
 -1.9620800e-01
  5.7801541e-02
  1.8137458e-01
 -2.2042394e-02
  7.6533711e-01
  1.3724073e+00
 -4.1847548e-01
  2.6551354e-01
  9.1549623e-01
 -5.2124041e-01
 -1.3207158e-01
  1.6381556e-01
  2.4833307e-01
  4.4062546e-01
 -1.8986645e-01
  3.7472105e-01
 -1.8695369e-01
  1.6652517e-01
  5.0634209e-02
 -2.6599509e-01
 -4.7549269e-01
 -4.9352032e-01
  4.1180518e-01
  4.2440626e-01
  3.2727328e-01
 -1.8428069e-02
  1.1252247e-01
 -1.9811240e-01
  6.3493401e-03
  1.5672600e-01
 -7.9845393e-01
  5.7087064e-01
 -1.2348797e-01
  6.5645918e-02
 -1.6791293e-01
 -1.3447791e-02
 -3.3349839e-01
  4.4886798e-01
  1.1804941e+00
  4.5587921e-01
  4.0733966e-01
  2.6221955e-01
 -5.8892679e-01
 -2.7385959e-01
  3.8426867e-01
 -3.1632489e-01
  2.9605535e-01
  3.1985894e-02
 -2.0326704e-01
  3.2359394e-01
  1.9484064e-01
  2.2881831e-01
  6.2944227e-01
  1.3006756e-01
  2.0303845e-01
 -4.5892602e-01
 -2.7270603e-01
 -4.0444517e-01
  1.0379318e-01
  3.7245679e-01
 -2.6451403e-01
  1.8758380e-01
 -8.1891644e-01
 -3.4702304e-01
  2.3593965e-01
  5.5009365e-02
  3.2771009e-01
 -2.2565465e-01
  2.7476937e-01
  1.6655092e-01
 -2.0216192e-01
  1.9456100e-01
  2.2503217e-01
  1.9321766e-01
  1.2660842e-01
  5.7962751e-01
 -2.4784070e-01
  6.0699815e-01
  3.9546910e-01
 -8.6092785e-02
  4.5352149e-01
 -6.0047513e-01
 -3.2815701e-01
  6.9590080e-01
  5.4396600e-02
 -7.4821047e-02
  4.1937676e-01
  4.6002382e-01
 -9.2867565e-01
 -1.0626569e-01
  1.7710596e-01
 -2.9946327e-01
  5.0659037e-01
  2.2078240e-01
 -5.1855251e-02
  8.4031127e-02
  2.7467883e-01
 -8.1035338e-02
  6.1676884e-01
  4.6845752e-01
 -4.3116513e-01
  5.3612775e-01
 -2.9361125e-02
 -8.9463425e-01
 -2.7893054e-01
  1.2977646e-01
  5.7315648e-01
 -4.7805168e-02
  5.1897722e-01
 -2.8244030e-01
 -3.6121643e-01
 -2.9813963e-01
 -4.1271195e-02
  2.9896480e-01
 -3.5856330e-01
  9.1742074e-01
 -5.4284900e-02
  1.3046588e-01
 -2.7289581e-01
 -8.2611257e-01
  6.3309979e-01
  4.1841483e-01
 -3.5847938e-01
 -5.5908043e-02
  2.5905982e-01
 -2.3413351e-01
 -1.0133430e-01
  1.0778621e-01
  6.2184376e-01
 -4.2418778e-01
  4.4155687e-01
 -1.6502051e-01
  2.7814382e-01
  2.7752215e-01
  3.2194293e-01
 -1.5404917e-01
 -8.3218940e-02
 -2.0596382e-01
  1.2481102e-01
  6.3300453e-02
  2.9876113e-01
  6.5207675e-02
 -8.5531533e-02
  3.5947302e-01
 -1.1502748e-01
  6.1213654e-01
  2.6641488e-01
 -2.3608118e-01
  3.3126712e-01
 -4.0256068e-01
 -3.3259538e-01
  3.5468006e-01
 -3.5099527e-01
  1.6608714e-01
 -5.8761925e-01
  1.4569032e-01
  1.5388739e-01
  1.4182881e-01
 -5.1902515e-01
 -1.6010255e-03
 -2.5366807e-01
 -4.1773971e-02
 -1.8089916e-01
 -6.9294459e-01
 -3.1495583e-01
  2.1003899e-01
  2.3881371e-01
  1.1010551e-01
 -1.7401414e-01
  8.9839369e-01
  1.8442127e-01
 -2.0663929e-01
 -2.4853078e-01
 -6.3617986e-01
  3.2117715e-01
 -3.3362961e-01
  6.5573734e-01
  7.5757407e-02
 -4.7961348e-01
  4.5628148e-01
 -1.0200450e-01
 -4.3929449e-01
 -1.8025157e-01
 -9.6925966e-02
  7.9955387e-01
  2.0180543e-01
  2.4120350e-01
 -7.2734171e-01
  5.6642312e-01
  1.5639797e-02
  6.8683624e-02
  2.4851637e-01
  2.6398057e-01
 -1.8529299e-01
  7.0055842e-01
 -2.6428401e-02
  1.7129216e-01
  5.2577496e-01
 -6.4166553e-02
 -2.8822666e-01
 -5.4657400e-01
 -1.5178880e-01
  6.5827447e-01
  4.5917279e-01
  1.7875727e-01
 -6.9588840e-01
  5.2321625e-01
  8.3083808e-03
  2.0424777e-01
 -3.1742832e-01
 -1.0605325e-02
  4.2504242e-01
  2.3115994e-01
  8.1433356e-01
 -1.8276632e-01
 -1.5457273e-03
 -3.6264187e-01
  1.0271511e+00
  1.7333913e-01
 -5.7950862e-02
 -9.8756456e-01
  1.2563515e-01
  2.9412287e-01
 -4.5165762e-02
 -2.3458892e-01
 -5.2344412e-01
 -5.3493458e-01
 -2.9330572e-01
  8.9742351e-01
 -5.1493430e-01
  4.0299493e-01
 -2.0414522e-01
  3.2889411e-01
  6.8418831e-03
 -2.2039434e-01
  5.1537102e-01
  3.3186695e-01
 -2.1377546e-01
  2.4334256e-01
  1.7259373e-01
 -2.8867495e-01
 -4.2659706e-01
  6.9628619e-03
 -4.0861464e-01
  8.4275174e-01
  1.7931247e-01
 -2.6226960e-02
  3.1080040e-01
 -2.7294901e-01
 -2.3379399e-01
 -2.2283323e-02
  4.2221075e-01
  3.0609930e-01
 -5.0162977e-01
 -9.4696105e-02
  1.2478913e-01
 -4.4131553e-01
 -6.7786801e-01
 -1.0627460e-02
 -4.4017047e-01
  1.5402628e-01
 -4.2467669e-01
 -2.1757349e-02
 -4.9065709e-01
 -7.4099600e-03
  2.5387040e-01
 -4.0776245e-02
 -5.0581247e-01
 -3.8246438e-04
  9.3472593e-02
 -5.4497975e-01
  3.1045783e-01
  3.2752869e-01
  1.0604841e-01
  1.5077358e-01
 -5.7620639e-01
  6.5861136e-01
 -1.6795751e-02
 -6.6136941e-04
 -6.9623977e-02
 -1.8448290e-01
 -2.0389347e-01
 -1.4567254e-01
 -3.5698098e-01
  6.5073842e-01
  4.3957967e-01
  7.2850364e-01
  4.9832046e-01
 -3.5686016e-01
 -6.6186082e-01
 -1.8424237e-01
  4.6774668e-01
  1.3280447e-01
  3.4459937e-02
  5.5077296e-01
 -4.1065440e-01
  4.4062567e-01
  7.8169718e-02
 -3.7680006e-01
  8.2957441e-01
 -5.4620337e-01
  6.9598722e-01
 -1.1326715e-01
  1.8671536e-01
  6.2736994e-01
 -1.8475381e-01
 -4.3252893e-02
 -3.1993747e-02
 -1.0165286e+00
 -2.1298417e-01
 -6.5705322e-02
 -2.8769672e-01
  1.1473799e+00
 -6.2205918e-02
  3.0498901e-01
  8.1519805e-02
 -3.8054603e-01
 -5.4808640e-01
 -2.3678778e-01
 -2.0882778e-02
  1.0378785e-02
 -6.3385826e-01
  6.5889317e-01
 -1.1136743e-01
  8.2659560e-01
  6.3832253e-03
  1.5050872e-01
  4.8329568e-01
  1.1679090e-01
  7.3485816e-01
 -3.4263936e-01
 -9.3078649e-01
 -4.5714888e-01
 -2.3603953e-01
  5.0473469e-01
 -1.5518528e-01
  7.0051461e-01
 -1.5381712e-01
 -2.8161012e-02
 -3.2905501e-01
  2.1543002e-01
  1.9392692e-01
  5.0688672e-01
 -1.7327440e-01
 -3.0329895e-01
 -1.0677439e-01
 -1.3613324e-01
 -2.5879708e-01
  6.2736654e-01
  8.0564156e-02
  3.2595086e-01
 -4.0074706e-01
  3.3695713e-02
 -7.9702985e-01
  5.8637184e-01
  8.9139082e-02
 -4.7134519e-01
 -1.1459162e-01
  7.0655513e-01
  8.9910930e-01
 -1.9740368e-01
 -2.8342623e-01
 -7.8551388e-01
  5.5895872e-02
  5.0890005e-01
  6.5317862e-03
  4.7600886e-01
  5.0237125e-01
  6.9453329e-01
 -1.8335715e-01
  2.5324970e-01
 -3.2366645e-01
  4.7014275e-01
 -4.4623587e-01
 -1.4442010e-01
  1.0021460e+00
 -4.0628228e-02
  9.5530421e-02
 -4.2899615e-01
 -2.7054116e-01
 -6.1414534e-01
 -8.7980777e-01
  6.0961431e-01
  2.7096120e-01
  5.3823471e-01
 -5.7339787e-01
 -5.1369965e-01
  1.0254534e-01
  3.9903033e-01
  1.2218231e-01
  1.0759996e+00
  3.9119789e-01
 -3.0506563e-01
 -7.1138638e-01
 -4.4803640e-01
  5.9366804e-01
  2.8332505e-01
  3.7844959e-01
  3.0757833e-01
  1.5264180e-01
 -4.6336427e-01
  4.7220322e-01
 -1.4626636e-01
  7.6174760e-01
 -2.4773014e-01
 -6.2613159e-01
  2.8334153e-01
  1.1894207e-01
  1.7380516e-01
 -2.0844890e-01
 -5.4614651e-01
  4.4172081e-01
  2.1610439e-01
 -4.5039991e-01
  4.1157335e-02
  3.4322554e-01
  9.2665970e-02
  5.0278836e-01
 -2.7105016e-01
 -5.8540660e-01
 -3.3294445e-01
 -9.4726914e-01
 -1.5395236e-01
  6.5003085e-01
  4.3839791e-01
  6.6675460e-01
  5.4128490e-02
 -9.2771298e-01
  2.4899952e-02
 -2.3942691e-01
 -1.3011962e-01
 -3.7289745e-01
  2.6348963e-02
 -1.2416209e-01
  1.1945193e-01
 -7.2291183e-01
 -3.2777324e-01
  2.3411681e-01
 -4.7069949e-01
  8.9022726e-02
  2.8610785e-02
  2.1752529e-01
  6.8186384e-01
 -5.6516841e-02
 -1.0444824e-01
  6.8226635e-01
  5.5447447e-01
 -4.4169477e-01
 -9.4352245e-02
 -3.4588224e-01
  2.7141312e-01
  8.3615154e-02
  7.7247745e-01
 -1.2780584e-01
  2.5764495e-02
  1.6820943e-01
 -3.8816035e-04
 -6.7934401e-02
 -2.3359874e-01
 -2.0047300e-01
  2.7596315e-02
 -4.6861148e-01
  2.5312245e-01
  3.1688726e-01
  3.3526689e-01
 -5.9483099e-01
 -4.1414073e-01
  8.0167502e-04
  4.0820616e-01
 -8.5589863e-02
  3.3146571e-02
  1.0682262e-01
  5.0794786e-01
  4.5802104e-01
 -6.7863548e-01
  3.9924002e-01
  2.1590027e-01
 -4.6755064e-02
  5.4886341e-01
  9.3289745e-01
  4.6275228e-01
 -6.5731502e-01
 -3.1668559e-01
 -3.1039396e-01
 -3.5704547e-01
  3.4664452e-01
 -3.0953407e-01
  1.3432771e-01
 -5.1804972e-01
  1.1422143e-01
 -2.0491758e-01
 -8.2977515e-01
 -4.6782508e-01
 -1.7100875e-01
 -1.9585310e-01
 -5.0929070e-01
 -1.3811256e-01
 -5.6492728e-01
 -8.0724233e-01
  1.3441043e-01
  2.3911633e-02
 -2.8632793e-01
 -4.9251634e-01
 -5.1783890e-01
 -5.8246368e-01
  3.6007845e-01
  5.4342747e-03
 -6.1349458e-01
 -2.1013832e-01
 -2.1288379e-01
 -6.3187999e-01
  4.9108338e-01
 -8.2613990e-02
  1.2053612e-01
  1.8091604e-01
  1.0367478e-01
 -5.4105508e-01
 -4.0182436e-01
 -7.8994393e-01
  1.9799151e-01
  5.3941333e-01
  1.8756296e-01
 -4.8316292e-02
 -3.0392516e-01
 -4.8805189e-01
 -5.3686869e-01
 -1.4992574e-01
 -3.3793503e-01
 -8.3153084e-02
  6.2274075e-01
 -6.6410881e-01
 -6.6085853e-02
 -2.6303941e-01
 -6.2555939e-02
 -7.5349152e-02
 -6.0621951e-02
 -6.7177218e-01
 -2.8766447e-01
 -1.0161747e-01
  1.1570970e-01
 -6.5745324e-01
  2.5289002e-01
 -3.5329941e-01
 -1.7695856e-01
  2.4678323e-01
  8.8580191e-01
 -2.9886723e-01
  5.8760458e-01
  4.5941430e-01
  1.9078925e-01
 -6.8356347e-01
 -1.1907542e-02
  2.7712202e-01
 -3.4779868e-01
 -6.3259482e-01
 -2.6089504e-02
  8.1372029e-01
 -4.4290414e-01
 -5.4326510e-01
  5.6490123e-01
 -1.1679965e+00
  3.0925715e-01
  7.4190468e-02
 -4.9483091e-01
  5.2578902e-01
  1.8825386e-01
 -6.9329597e-02
 -2.8998184e-01
 -3.5602564e-01
 -3.1273663e-01
 -2.0864899e-01
  3.8613817e-01
 -3.5516196e-01
 -6.2260106e-02
 -1.6621269e-01
  3.0609164e-01
  2.4714494e-01
  6.4480031e-01
 -1.7339495e-01
  3.5250086e-01
  4.4059992e-02
  6.9119471e-01
  7.7496332e-01
 -3.8899639e-01
  6.5790683e-02
  6.0653400e-01
 -1.4947304e-01
 -7.7463353e-01
  3.9848551e-01
  4.8584601e-01
  2.6525682e-01
 -6.9843757e-01
  5.5504185e-01
  8.0969113e-01
 -5.9500670e-01
  2.5468308e-01
 -3.8154703e-01
 -3.9782479e-02
  1.0215878e+00
  7.1690691e-01
 -2.0824137e-01
  9.5123678e-02
  3.1771725e-01
 -1.2969810e-01
  6.7078874e-02
  7.1032810e-01
 -3.0133963e-01
  9.9912830e-02
 -6.4677918e-01
  6.0935229e-01
  4.6826166e-01
 -6.2881911e-01
  2.4964969e-01
 -2.9945159e-01
 -1.8995912e-01
  1.0937501e-01
 -5.0674880e-01
 -2.8455949e-01
 -2.2466144e-01
  4.5383865e-01
 -1.9324192e-01
 -2.6965567e-01
  5.0315517e-01
  7.6455283e-01
  6.1419946e-01
 -4.2022806e-01
 -3.8294026e-01
 -7.3535931e-01
  6.2168188e-02
 -7.6940350e-02
  1.4803611e-01
 -4.5518824e-01
  6.8690962e-01
  4.8693717e-03
  4.9633789e-01
  3.1083170e-01
 -2.6738358e-01
  1.5928957e-01
  8.0040264e-01
  9.7802013e-02
 -2.6527530e-01
 -8.7218893e-01
 -2.6053429e-01
  1.7056839e-01
  7.1969134e-01
 -3.5357320e-01
 -4.4724584e-02
 -4.3195248e-01
 -2.8855589e-01
 -1.0380653e-01
 -6.4623272e-01
  9.9974379e-02
 -2.5939617e-01
  4.5244083e-01
  2.9969677e-01
 -1.2849711e-01
 -4.8279971e-01
 -1.5553913e-01
 -2.6421711e-02
  1.1031637e-01
 -3.4493494e-01
 -2.1798675e-01
 -3.8808480e-01
 -3.4787774e-01
 -7.3039234e-01
 -1.5934873e-01
 -3.4017971e-01
  2.2374967e-01
 -1.7611702e-01
  4.1134721e-01
  7.7285841e-02
  5.5689305e-01
  3.9940023e-01
  2.3362163e-01
  1.5781568e-01
  5.7879463e-02
 -1.7583540e-01
  4.6018767e-01
  4.3722498e-01
  1.0988954e+00
  1.1270275e-01
  3.2052809e-01
  3.8738096e-01
  6.5437257e-01
  3.9820096e-01
  1.9176988e-01
 -3.8521454e-01
  7.7462065e-01
 -9.1188079e-01
  9.3041956e-01
  3.0511233e-01
 -3.5055175e-02
  8.1774181e-01
 -1.4467321e-02
 -7.4336357e-02
 -4.8840401e-01
  1.0298592e-01
 -4.6401864e-01
  2.0146301e-01
 -2.7631587e-01
 -5.7558084e-01
 -6.5996963e-01
 -6.9361186e-01
 -7.5913131e-02
  3.8034424e-02
  3.3998303e-02
  4.4930640e-01
  6.1083591e-01
 -3.6418393e-02
 -2.7947193e-01
 -5.5151051e-01
 -2.6516342e-01
 -4.7427461e-02
  4.5667928e-01
  3.2222700e-01
 -6.0469288e-01
 -7.2274745e-02
  5.0475079e-01
  3.9262265e-01
  9.6017495e-02
  8.5727680e-01
  8.0529559e-01
  5.7691807e-01
 -3.1672186e-01
  3.6259496e-01
  1.7116806e-01
  1.5293565e-01
  1.1134543e+00
  5.6424737e-03
 -4.4060439e-01
 -7.1215555e-02
  1.1171442e-01
  1.7518215e-01
 -3.1487259e-01
 -1.7266372e-01
  8.2122695e-01
 -7.5126505e-01
 -3.1937861e-01
 -1.4654905e-01
 -2.1363209e-01
  6.8135333e-01
 -2.5594503e-01
 -1.2603597e-01
 -2.5307220e-01
  7.8489298e-01
 -1.5625605e-01
 -7.2701365e-02
 -1.1788023e-01
  4.3563688e-01
  4.2963073e-01
 -2.6605377e-01
  2.8023866e-01
  3.2583880e-01
  5.3835773e-01
 -3.5438457e-01
 -3.1149980e-01
  4.0174994e-01
  4.9788809e-01
  4.8060298e-02
 -9.4421923e-02
  2.3070112e-01
 -2.1189846e-01
 -3.9020082e-01
  6.4783290e-02
  5.0737226e-01
  2.2357908e-01
 -9.9877548e-01
  9.6469450e-01
 -1.4070518e-02
 -4.1990167e-01
 -1.0800991e+00
 -5.6305742e-01
 -3.4608799e-01
 -7.4357152e-01
 -2.1689154e-01
  5.8477676e-01
  1.0457230e+00
 -6.2163049e-01
 -9.6589476e-01
  1.3601297e-01
  1.4148521e-01
 -6.5844065e-01
 -3.9522091e-01
 -7.1930520e-02
 -4.4940063e-01
 -1.4289303e-01
 -2.1299741e-01
  3.0955955e-02
  1.1520408e+00
 -3.2314333e-01
  3.1870085e-01
 -1.6629413e-01
 -3.8555861e-01
 -1.6434968e-02
  2.8763130e-02
 -2.1338867e-01
  3.6385274e-01
  3.8086411e-01
  2.5243080e-01
 -1.4330710e-01
 -6.1745131e-01
 -1.4397828e-01
  6.2588841e-01
 -4.9829552e-01
  5.4916684e-03
 -3.3455020e-01
  2.7637744e-01
  2.4058565e-01
 -8.0628991e-03
 -2.8703883e-03
  1.0498923e-01
 -5.0834721e-01
  4.9448407e-01
 -6.8187422e-01
 -1.3111134e-01
  1.9765478e-01
 -9.4289109e-02
  1.6242842e-01
  4.6306232e-01
  8.2500410e-01
  3.4038842e-01
 -7.3151660e-01
  3.8900405e-01
  3.8585871e-01
 -2.0628411e-01
 -3.5151282e-01
 -5.7903230e-01
 -1.3649607e-01
 -3.8249162e-01
  5.1714647e-01
  1.1701031e-01
 -2.7078283e-01
  2.0261273e-01
  1.6874728e-01
  1.3145477e-01
  3.0294222e-01
  7.0868421e-01
  1.4361590e-01
  2.4294712e-02
  2.5344726e-01
 -3.7496826e-01
 -3.5038161e-01
 -8.8139027e-02
  4.8364139e-01
 -1.1640124e-01
  1.2060101e-01
  2.3428184e-01
  1.1743778e+00
  1.8938304e-01
 -4.0595624e-01
  1.9108631e-01
  5.5981153e-01
  2.2707960e-01
  2.0165096e-01
 -9.5633602e-01
 -3.5011476e-01
 -5.4394978e-01
 -1.7164972e-01
  1.5343830e-01
 -3.5236657e-01
  4.8168674e-01
 -1.4215723e-01
 -2.4685222e-01
  6.1843835e-02
 -1.4212462e-01
  2.0352121e-01
 -7.7180797e-01
 -3.1949446e-01
 -4.1259068e-01
  2.9832315e-02
 -2.8730002e-01
  4.1997209e-02
 -6.6486132e-01
  1.2090238e+00
  4.3028235e-02
  1.1309506e+00
  3.7060320e-01
 -1.7454655e-01
 -5.7249375e-02
  5.0115842e-01
 -7.9238243e-02
 -1.4011145e-01
  1.3896890e-01
 -1.2391983e-01
 -2.8216895e-01
  1.4784791e-01
  5.5900258e-01
  4.8027375e-01
 -3.0782816e-01
  1.6899121e-01
  8.7102234e-02
 -4.6237394e-01
  3.2445902e-01
  1.5529832e-01
